{"forget_gate_input_weights": [[0.2536792911230222, 0.18161516051872756, 0.039444392161531235, -0.25934662619434645, 0.11198909087705555, -0.14418324303601873, -0.2638066104499566, -0.007473822287856149, 0.0024224850736600267, -0.23740855668292218, 0.4491951451257523, -0.011033990122198776, -0.22587260527121109, -0.1586825073568182, -0.00622978064641735, -0.9374928069339173, -0.011145923908736755, -0.1884952395872757, 0.18253031476650705, 0.0844783614239923, 0.30837571024684035, 0.5491511970604923, -1.0243092461848415, -1.276319919679695, -0.1004930987322933, -0.10006617517971664, 0.018675494032634535, -0.184995034044054, 0.06946676520305285, 0.011913006430156399, -0.002263468048837377, 0.007597793322983425, 0.0037899637701424224, -0.4669071042304905, -0.26116603618185624, -0.09789573966542896, 0.7849511437303852, -0.53317064926257, 0.32048439043842003, 0.5252426690428447, -0.05111497801344357, -0.002502475286363635, 0.33013048707121595, -0.5101942923838585, 0.041290827282596414, -0.32868092080519506, 0.39483002071863815, -0.4968808336545247, -0.4480206941922705, -0.05996895472102327, -0.010092330719364209, 0.3068631217021647, -0.022053473834937328, -0.035145722041084126, -0.5141522682637064, 0.23861188954093587, 0.08890932334690947, 0.2859880880084463, -0.21679192223133542, -0.02960480067041285, -0.09867022492106821, -0.11962225746530283, 0.2834820652318023, -0.12024637479873344, 0.020610230509645507, -0.1547131726842638, -0.5436722952343007, 0.1614597984684412, 0.005879084767158284, -0.01605239504994228, 0.006146854421254166, 0.23339596502669818, 0.42349082355444356, -0.010985774979156107, -0.05187324998085614, -0.18590809887082121, -0.025019799350520833, -0.015160972496620772, -0.15965117311307708, 0.11058109559730428, 0.2227920375814044, -0.09608229122691414, -0.007886350888587294, 0.015247727791497781, 0.0003554995718911227, -0.1466934671284877, 0.20608084129670992, 0.0013822338263748284, -0.004327653142829779, -0.8401382735928737, -0.7574349407227111, 0.5358598640086906, 0.39393942694215184, -0.1338007405883015, -0.015890308495499418, -0.003987861836234295, -0.015266483967349765, -0.003982842647539205, 0.1684344505940377, 0.35443566049573044, -0.3359161760536309, -0.1716914952785869, 0.025790172369180686, 0.37033354578521266, 0.03783705235087582, 0.3652456588640348, 0.015077330151701181, -0.2592704883873917], [0.12546127614520153, 0.2597843448008796, 0.011506948888988223, 0.31566442234752234, -0.09004567925523527, -0.04860481623707087, 0.31136728764287286, -0.00627258511938047, -0.002661480703742958, -0.24731724671064031, -0.33053444221871053, -0.009385789478640017, -0.22604658782778148, -0.20022425477084801, -0.004437032149529359, -0.7733147408642169, 0.011874282280774149, -0.07622830255261502, 0.02731172774679974, 0.10810166080996925, 0.1609613937506254, 1.9436889542388345, 0.1372466980857845, -0.6129482628550121, -0.29052129709508456, 0.16624307988745973, 0.05229729901573726, -0.030473696068340057, 0.521642025783509, -0.0020967447063571757, 0.010978892299719458, 0.09302797650813244, 0.3191540174020039, -0.015615158316941853, -0.5029188537718938, 0.1021217470946554, -0.25746586209806677, 1.2105093228423451, -0.0343784930179622, -0.20595573336802103, -0.008908908399786917, -0.5073608384860562, 0.4077441898508613, 0.719073429146437, -0.39757763137264257, 0.1296049419381661, -0.35859930108249255, -0.34813113558765013, 0.24884874558569484, -0.08565972944814818, -0.00553565679961133, 0.28659708006572343, -0.010606971559955165, 0.0024166291773229515, -0.11018551462388827, 0.13180567017938305, -0.6426013960798255, 0.014480332840433886, -0.3679807613730814, -0.18318256793982646, -0.09190645514908019, -1.9463824247772188, 0.3473473036191465, 0.007832264696499705, 0.8880003291001614, -0.5749633768211734, -0.8099554994616742, 0.5907181183039611, -0.005067999849819386, 0.021326959441248832, 0.0009319515392088607, -0.3810575341798173, 0.07018449445646165, -0.0074094091420880345, -0.2166824954149394, 0.4778532140099464, -0.5043453544000365, -0.002029778322288694, -0.15731186117298535, -0.11109948425716655, 0.6455566529276179, 0.10582640956443819, 0.009137406431674098, 0.011201786921227013, 0.0022461181344133464, 0.40070406606429193, -0.03128146780380901, -0.007062422274929176, -0.009625908026394793, -0.6074746593637698, -0.9062802419644209, -0.9953133322607485, -0.357857025829225, 0.4575897739624715, 0.23835416469389434, -0.3463624641428533, 0.003916911999422385, -0.013917315213488804, -0.20318360042389122, -0.4783979158022196, 0.4881464672106611, 0.2348256621648146, 0.01921627045243815, 0.1787671229659072, -0.5074458322747503, 0.47755660133350064, 0.011228608018533289, 0.3396090699961177], [-0.09296520518517826, -1.1410907214419426, -0.08917593093313314, -0.309923422366085, 0.05158784561705153, 0.04030623265391471, 0.42213801001211515, 0.017343943045637737, -0.008100752813548651, -0.43756542237858703, -0.3680638617677727, 0.006385012139958666, 0.15729176559516414, -0.30388818468480655, 0.01635274370636262, 0.21638983389729444, 0.00817029776323766, -0.3736160171320268, 0.10612256817041744, -0.06192378430037597, 0.08392714148813996, -0.5050762182655925, 0.7550071637530659, -0.028537612182687407, 0.1496466378988122, -0.41739330842619043, 0.16189350509400957, -0.02034938584466143, 0.13317126736788718, 0.011746857599331053, 0.010753089303731289, -0.021360743254522644, 0.08272917090799539, -0.14171674221109123, -0.2910456461126619, -0.08858266095144575, -0.012003219008616646, -0.6128581653476772, 0.5374071849351107, 0.5738375735401777, -0.12133768276263443, -0.17770584967882713, -0.2776688745190953, -0.17367650383444197, -0.10049565667794544, 0.027214993853255008, -0.2422599088526834, 0.058888636244218195, 0.49674142083791584, 0.05655126417809193, -0.004658300211845973, -0.5679057707217201, -0.005496559279964467, 0.07570768089037976, -0.07083749360713802, -0.10724553591359051, -0.482098693969305, -0.2642415971822211, -0.1277615241640517, 0.32557903124482446, -0.056601937518913834, -0.20557494975789006, -0.2680235693917205, -0.08076297852465135, 0.3894941741596104, -0.5496083422360762, 0.375255970743154, 0.10627103700877664, -0.017111705635357032, -0.015105737615993313, -0.0015160566540857803, 0.6207600548806117, 0.3813802600460433, -0.009613874891603237, 0.026685301905123148, 0.4643573384452731, -0.29061877693199756, 0.013534363216665733, -0.10527210351852469, 0.11268836854622416, 0.3772278710388685, -0.08051293032847523, 0.021928568529561106, -0.004924234315225657, -0.0008544400901355258, -0.04584177942078882, -0.020854392356085726, 0.004365363517255104, 0.011745950758840837, 0.2053008299392446, 0.1069043974790405, 0.3309130622707993, -0.3422108430496635, 0.023647594387244394, -0.5952395809876113, 0.5670729487546675, -0.012059692033379523, -0.005259907406932387, 0.5180303927073624, -0.4611047303032315, 0.1670995238219883, 0.2543535614062455, 0.006606189276574796, 0.33541776583360744, -0.9171790414731783, -0.17937485616789034, 0.009084877318265282, 0.13258777414909012], [-0.1457554073980687, 0.1339505801776754, -0.3110771145303243, 0.062204190957444665, -0.07735860409770344, -0.32290862930449743, 0.046790408681876165, 0.00575029762270171, -0.009965797205158725, 0.2534558425697087, -0.30625945372638375, -0.002479979500023946, -0.07000792277855239, -0.1715069382657048, -0.006640825735814001, 0.21464379761344815, 0.0034960020042092304, -0.17357848298580453, -0.14767015680613402, -0.27862155932959565, 0.009353919874379186, 0.11454809147604916, 0.05102582151624235, 0.24324131671800814, 0.4391369071898126, 0.025425146351236917, -0.39563369702271467, 0.011376911619843364, -0.21819315937865827, 0.01840505014768865, 0.008105867591243912, 0.07731668972576002, -0.05587039879202627, 0.11734615686483256, -0.1927852839439035, 0.018136146557615557, 0.20515950165195043, -0.4076686619944586, 0.12514650716908796, -0.17335870914282622, -0.30429897789196697, -0.1739619972188416, -0.07139091220567223, 0.47138877593605544, 0.028991407689270596, 0.1849417126933363, -0.22582493740947016, -0.03735436049456229, 0.014041866082882543, -0.5651524171186083, -0.011755093104801708, 0.08384950134272919, -0.0021028059185282054, -0.11206587769578553, -0.005416900898380979, -0.030220135477817777, 0.18428472036177443, -0.03497940769916449, 0.052865663457474815, 0.03409207746874362, 0.014035617059890754, 0.15599067124632496, 0.07596774161618484, -0.27307268338210217, 0.004810883840173379, -0.060482898242947454, 0.14320740359681036, 0.1321961007022021, -0.009100514876109059, 0.010943425217487613, -0.001270950924458095, 0.03382888897149487, 0.07910275712494531, 0.007335208752896464, 0.06524165010864494, 0.3200031819913345, 0.11367151246407395, -0.014234742951028875, -0.11931942927455483, -0.12704260999475347, -0.056129189344561584, 0.006214141789373019, 0.004525404898436695, 0.021462867705655565, -0.0005502041593070277, 0.12030401588427427, 0.15217859499138642, -0.004303835732154958, 0.023069793025806522, 0.04308182663496229, 0.17847946608847365, -0.23210539831900695, -0.32834406580807873, 0.11010882464643067, 0.16628014872088298, 0.05219617351505963, 0.00964563073945273, -0.01050945262569069, 0.2886190599932959, 0.11038741580054448, 0.11264121376399963, -0.06413481640120997, -0.017116766782093118, 0.06525405891835201, 0.3992130091872961, -0.2457955417691673, 0.010490916704240374, 0.30349242173663715], [-0.017683418091456935, -1.055089676996355, 0.3218720619582247, 0.399993286122007, -0.10798454712864869, 0.42155384193641987, 0.609999644241771, 0.0003952120995193044, -0.005941120538254216, -1.1301742623566542, 0.23431954998440238, 0.0029406262161687153, 0.3128181627708856, 0.24342849057463997, -0.01848113794208839, -0.6616892869750298, 0.010710736182605993, -0.5098150290107758, 0.14255125145842468, -0.014998992954003337, -0.12485037099883431, -0.4397963632047106, -0.7665878388157111, -1.2558833103676759, -0.8286384115844786, -0.32881698582463165, 0.4278574740901386, 0.3535277611596721, 0.09833046699768819, -0.0081959005039136, 0.010908818214036185, 0.20661046662493, 0.18241282204375936, 0.3239132134809008, -0.6513493203857648, 0.09136153246837597, 0.17317789814762685, 1.2323283722426246, 0.05959202325584309, -0.4575674554112003, 0.25145278517327985, 0.3499302074094983, 0.5088480189389787, -0.21301052612657176, 0.023981607950068415, 0.06539909499111317, -0.22412662161732605, 0.01479550622307986, -0.5213582060760612, 0.03568516617127815, -0.0035911784638898944, 0.24647046003512316, -0.0007389595962956714, 0.19088333574498037, 0.2916780174542971, -0.08383473125060234, 1.091131391587756, 0.3278273494365859, -1.0778578571535207, -0.10563845931122336, 0.07773603052998276, -0.02967067936330193, -0.48488457308469496, 0.21631415914438218, 1.0743650794242992, -0.05001472508037037, -0.3436489297984188, 0.05109069491848505, -0.010495993052858064, -0.0016211969477857686, 0.01012726459280413, -0.11646137309701429, 0.2082195216948682, 0.0020428392178810824, 0.002374462599274607, -0.5241757168780827, 0.7214052540428333, 0.012324028203559895, 0.2658241138277237, -0.0842588415446091, 1.0711536234400898, 0.10368002537178482, -0.014983450143324422, -0.010348431536701633, -0.007381404788524658, 0.08277994825455938, -0.1297350923061248, -0.004942356285985557, 0.0037890106634788385, 0.447281074574907, -0.3792643980923939, 0.5687953739947936, -0.23342975612917866, 0.23024627469787506, -0.29378196665009015, 0.07406108361044322, 0.01077304193232703, 0.010548127642083521, -0.09266415290739216, 0.16395162093738308, 0.22279669534210114, 0.3831754769614643, 0.010764582136111032, 0.7419505070235535, -0.6645703306013351, 0.4886430796532453, 0.015524927907214513, 0.08793518207341097], [-0.4516293094460571, -0.27870886562175934, -0.4973192102544749, -0.25873464979033517, -0.08301299966704631, -0.1550955631188798, 0.20223507382619338, 0.004876911706010915, -0.016330716263161477, -0.5576504500765982, -0.30749030837412905, -0.0006975380134379348, -0.39033739667777567, -0.2576834342293327, 0.008153808093422883, 0.2946958807793093, 0.009007828160418254, 0.3369081260758022, 0.2063852130009907, -0.25964493169145697, -0.2832318405283655, -0.30681512343355616, 0.12437115315507712, -0.42808675888140296, -1.2213064554083628, 0.6667953782015364, -0.24460204915733236, -0.5809339858826709, -0.9488904355112012, 0.00012682791569452426, 0.00723182148974106, -0.0512486359835951, -0.06985068232321781, 0.036772215504279414, -0.045038942829386024, 0.09424911997295198, -0.4910890862690854, -0.017864800718132602, 0.21111354677319258, 0.47949509954774067, -0.425151073444419, 0.015512138523499806, -0.2392435123884732, -1.4170902389606004, -0.33164651928706546, -0.46851331523363327, 0.19207165470917065, 0.18478477855919373, -0.206871823263557, -0.29598185932020266, -0.02007749321179865, -0.4194870664541705, 0.015877918188671646, 0.09365931431474005, -0.6695138016498573, 0.19806669736712026, -0.34529908329714903, 0.0033253873205653065, -0.654652428099022, -0.1500095008024841, -0.10380127735222375, -1.036547462951148, 0.4178901202501212, -0.2300472863591023, -0.5445638263264057, -0.4113537971374666, 0.40951261655896287, 0.02886893641006609, -0.015928879255677927, -0.002411137950906265, 0.0018354297359321717, 0.7971592520400532, 0.42235069947260717, -0.015191500087260137, 0.13485385956091236, 0.5019372319296624, 0.11275974379580994, 0.0009096652851525908, -0.3753106055842405, -0.08128829821263713, -0.09312186376974743, 0.08448278764583715, -0.013287483512595193, 0.01658910618353629, 0.013275775390788691, -0.11561266645874771, 0.246497087089067, 0.013285721810069581, -0.0012223396436288325, -0.014127350314701255, -0.44291503476097177, 0.17509171250476396, 0.23092162684572565, 0.0715037843648662, 0.4410520771905182, 0.056137283394752414, 0.01543775282093513, -0.004938894728443045, -0.12808308178853545, -0.3857874916406278, -0.4335447119181669, -0.3443511706074597, -0.014167596081431387, 0.4055685853958601, -0.387604511202806, 0.3134492920701296, 0.02917735212599164, -0.29821613665312763], [-0.11341311053450084, 0.23003782247072513, -0.2699257036339885, 0.11652121009081011, -0.09703063762124033, -0.4256782755808202, 0.2649083611302771, -0.00021897914852284122, 0.0034959889620159563, 0.38215380340543703, 0.003803969735335656, 0.011366289021277872, -0.1553238969568746, -0.24201829054770926, -0.0028990479439446964, 0.08401943369284647, 0.006689586152601102, -0.23338561489632395, -0.17738978162363306, -0.014772849979189673, 0.06913563102633484, 0.09118862053227685, -0.004253227973668879, 0.3236694179892409, 0.6774830957928705, -0.019678963993080636, -0.5699252266812758, -0.15562927311742478, -0.07270293229004028, -0.002307547825941851, -0.0028667194083799273, 0.13123970671520252, -0.14835019635851848, 0.21259204445311758, -0.1320682800428407, 0.0036328248802004544, 0.17864531480789017, 0.42016914247159654, 0.06298523645528686, -0.18052101435837797, -0.14742993449718927, -0.1723457436809585, -0.26604283347756746, 0.12225590285905026, -0.015946588941328325, 0.24916949625710388, -0.020334049873449587, -0.005777187873284985, -0.2088061309952808, -0.10258197957689366, -0.007713776537308285, 0.09571018810872262, 0.009962086600166424, -0.049793535283425165, 0.1550985818836451, -0.19940421963651103, -0.005443532457133746, 0.07930328628764072, 0.023227245409177824, -0.19428399575300687, -0.0034966894650881658, 0.11091940710758211, 0.14753727598369767, -0.40370335237858185, -0.40245965563174674, 0.13094371017717243, 0.028618890196113373, 0.1813199607106858, -0.006476732760546432, -0.003994598671102618, -0.003687267530786654, -0.045860661096209836, 0.09932082112473462, -0.004717603877065844, 0.0020250281448370502, -0.21503355529276, 0.06590966876722572, -0.023382813382343607, -0.16838537770923281, -0.09224662175366671, -0.03423359007204814, 0.05372489745137128, 0.02265760763369402, 0.009653818443065794, -0.011694531543581046, -0.1285518346680455, -0.19402458580125287, -0.001087204940180691, 0.0028718868954085283, 0.2602238647539059, 0.3376668475074656, -0.8648704951265785, -0.37106939597966243, 0.034587644166246094, 0.09299428207464724, 1.6017940871242437e-05, 0.005444562339529648, 0.0008467968965285202, 0.11372803109731411, 0.1132179527918012, 0.17541570234857892, -0.06260580752837448, 0.005347900790194794, 0.041280312684300643, -0.08531420306658391, -0.31909725923110965, -0.013469090303359644, 0.4592588095458825], [0.314948277397197, -0.11171901845127061, 0.12983291475455477, -0.08413314926585723, 0.11034524171513035, 0.04487356660702766, 0.7325044395380769, 0.012164012372602043, -0.0021712048742906936, 0.210718467528013, -0.7550048164144435, 0.0021781557433421662, 0.2794048744508975, -0.052122096131533686, 0.004134231124360261, -0.15307511356201897, 0.007557154333340889, -0.2743233846927967, 0.09096311903741054, 0.3025231239194354, 0.451506363682754, -1.2963330565679902, -0.008328544998394999, -0.4791993299673172, -0.9971231612072243, -0.9776453716833957, 0.18232177411045475, 0.060786949699913426, 0.32808432869008214, 0.006012929654640813, 0.009076968297501566, 0.5284109410247341, -0.026012810066292295, -0.5483380203083513, -0.0049718113340928485, -0.08862637857967129, 0.6265258010104986, -0.044900449902768896, 0.041477671135138124, 0.33082527406090817, 0.1433179625162146, 0.03479539829707978, 0.31859427860415007, -0.3279735514602608, -0.11846033149896382, -0.21911110532445316, 0.03158422495518251, -0.013299286333927298, -0.002220302640043994, 0.04525540368630468, 0.009330671125395882, 0.10765709780487957, 0.02173395134983242, 0.11883639764473848, -0.3246402655887082, 0.0004247227316913878, -0.5734951715070389, -0.01603062316203679, -0.4629655652780854, -0.21608113925286496, -0.13250652482924238, -1.0558986802609127, 0.45825479378387757, 0.1734627194787771, -0.21718748654603898, -1.5899966648955333, 0.735338167013973, 0.3430669306684026, 0.017401967996942366, -0.009549323620484705, -0.004565080462960457, 0.29998996116599513, -0.25883435389811077, 0.0040857691935459375, -0.010474114126731389, 0.46259330022685524, 0.36317258991281975, -0.0034229098475886716, 0.10974344096510211, 0.13129779715373976, 0.27929901478340685, -0.08670496669127357, 0.005588701953827259, -0.017679899501299137, -0.009478259803406051, 0.40985181606158444, -0.3507203746932374, -0.00518920576141538, -0.0016006339362626093, -0.015402139188038387, -0.1389941928546884, 0.15115625331429955, -0.40099839224321854, 0.3502400985992351, 0.40798059469575626, 0.28127425771268966, -0.009556276394471992, 0.0020653291094878167, -0.3229151055402374, -0.6410306208127602, -0.5860006082943852, 0.32335039331738147, -0.00017066650130950856, -0.03793304680499163, -0.46237611057572986, 0.11892543293822201, 0.0016549821577756085, 0.7047589496479439], [-0.042714121259928, -0.2569316801053797, 0.13285080651900064, -0.8736243200978348, 0.09120114555829677, -0.44501990822014287, -0.28882461256917913, 0.0008274824769960548, -0.005518344232456083, -0.18526740699666383, 0.1580341668407172, 0.005444861368569432, 0.11313670608637534, 0.17956792908251254, 0.00020716550482149376, 0.2873133691683207, 0.01015752646354555, -0.5279402242098513, -0.1293378233660629, -0.3761965646799437, -0.4826016007643649, 0.28410791841413086, -0.022827517214473788, 1.9322498986300463, 1.1405944944071422, 0.3950647480393013, 0.3357106300843627, -0.3339874264909889, -0.9104217726468422, -0.001382864258431194, -0.0028282162491388135, -0.28816461192447523, 0.22643063940275945, -0.5485333247853424, -0.14719468157406096, -0.09152900242175525, 0.058315002209847706, -0.26483805992197773, -0.2178712304735736, -0.25661875785171784, 0.14872072033410902, -0.8614785555876879, 0.3956735717167933, -0.5586096342219764, -0.46104677955704393, -0.07254251781448141, -1.0901759399563775, -0.0371232923751185, 0.2553708155315784, -0.0054184565316935385, -0.01899590439655295, 0.17255075982134513, 0.005200638160628474, 0.02046910557265169, 0.8498042236717036, -0.22275988912949185, -0.39018162403420986, -0.7139443288585521, -0.7233904300810203, 0.15180912606830987, 0.0010624731650846972, -0.07394241115381421, -1.2621660633104475, -0.40516043192042145, -0.8713105360829009, 0.1803140676494984, 0.20701944539751427, 0.13043508269574963, -0.005702764739481882, 0.0016927975490689511, 0.010830798071914359, -0.4901543009020777, -0.06892032853396768, 0.0006358023316655654, -0.19305472423477754, 1.0131914826004131, -0.33613577592985683, 0.004029086287135413, -0.16846704204810622, -0.08637619588649946, -0.170516800113625, 0.1133322119934741, 0.009492847661709873, -0.011539092242890722, 0.013624721333306401, -0.1743658632721628, -0.41354003858890187, -0.0009075260412825554, 0.00555773959084099, -0.05470260705169104, -0.03255882760362414, -0.08358293729977112, -0.2847818617372886, 0.1933047970601993, -1.0617636819487937, 0.6605589528068405, -0.004498796308211343, -0.009768815353056175, 0.5890780807660568, -0.2639239416110788, 0.26638837835565843, 0.384225251463249, -0.0032416692486880445, 0.23714062642111403, -1.1249043343911438, -0.27214465204334826, -0.002642945288605552, 0.15130925612069038], [-0.15331361513831482, -0.6925198178881524, 0.3171264782319362, 0.35568484737760514, -0.08940579683249923, -0.2591869716012089, -0.4250162419347794, -0.006992099293659927, 0.0019236801117785665, -0.5558710358352077, -0.056001500431822906, -8.273570284735365e-05, 0.42021125044374485, 0.043806421344573965, -0.005244146907776565, 0.08399339420810188, -0.0016336010975084513, -0.017383063788317256, -0.11320208498214997, -0.05976049158973727, -0.21303122878686176, 0.47296449666930934, 0.1859024828692813, 1.0194013786122786, -0.9328331048863826, 0.017056758531662705, 0.11862875109826931, 0.14384290374769318, 0.12323009429070801, -0.004620192636498786, -0.021586231766617815, -0.27637182706626956, 0.15021226518313444, -0.5169348894258932, -0.3550506840388462, -0.09057990369577391, -0.46751175789404137, -0.7714365964794018, -0.5872321534111914, -0.43156863549137775, 0.14567061455484542, -0.25062099749155936, 1.1159397077956474, -0.007988470967853172, -0.4967843369161839, 0.1379503335015448, -0.521622852142927, 0.49179907260893513, -0.6799902115981895, 0.09629799596115954, -0.00659367503928659, 0.11580924453423896, -0.011355477870245895, -0.0548357469172789, 0.4016584491145797, 0.19889121618680897, -0.38752308449658246, -0.29036641891237186, -0.3804083743935823, -0.01748499639018796, -0.023901990842354413, -0.9719138498012709, -0.00406143401418726, 0.09945050029740293, -1.1698224994344932, -0.09665747381037977, 0.9274430526560417, -0.16204601293877002, 0.0019819018466931014, -0.011394899041324506, -0.003046959591610193, -0.21526747737965887, 0.013704567000782994, -0.0020305578382329935, -0.024689319785418468, 0.7416907782140962, 0.15848369165301837, 0.016341103528427922, 0.20358828313024582, -0.10886346025828969, 0.1833375267748056, 0.10332325542946669, -0.002836781720221151, -0.001972392412420663, 0.0019540574390661545, 0.3389381320629014, 0.09618036150878287, 0.008844100994222876, -0.008659219953588601, -0.775900059702564, 0.5461496225380048, -0.34378098963573617, -0.1848685202820506, 0.44442063258492104, -0.5300493569872786, 0.39226368785331756, 0.00609062915092172, -0.0012595421818264827, 0.6087518160454556, -0.05488006201990876, 0.45316033656284904, 0.33256101708379515, 0.01251910809813887, -0.5363711790363858, -0.7596342523952887, -0.2850639167710214, -0.006883347013382513, 0.40185940360621125], [-0.42411513159665215, -0.3562100266861231, -0.19607264263982516, 0.3380285153034493, 0.08637681053572208, -0.6071280555314942, -0.09551121902448396, -0.00686956662426259, 0.007166487800950251, -0.02418881029076027, 0.19764560765757475, 0.004851358306271536, -0.1875376506100857, -0.1577965787092407, 0.010343544406501533, 0.09280722181049984, 0.004502692654605516, -0.2925579184298078, -0.08447246738735156, -0.3750278639135932, -0.2903417248132932, -0.32969192952786375, -0.08245376729480015, -0.23356755224361242, 0.954171174785555, -0.2643116757160165, -0.3610300865351712, -0.22214756164719385, -0.26499695803876105, 0.0005728353925389779, -0.023029565323236575, 0.1730855003772061, -0.1292769483183475, 0.5556614605841306, -0.4643897060756389, 0.1089707637626756, 0.36537108283486996, 0.16801941670531928, -0.12303402603848451, 0.44200000108311793, -0.22630544650243944, -0.4689136199415404, -0.7280116193301444, -0.12258674069688007, -0.3492985436147447, -0.2668324575265377, -0.49279287742577954, -0.0413865902043533, -0.21579054778078002, -0.2836537926446941, -0.009275079410606249, 0.02710640885608248, 0.0007577228060272259, -0.09803024996852586, 0.555158046369703, -0.15915865449706856, -0.4624092291212149, 0.5081277986035697, -0.015229517084862964, 0.3664094806548675, -0.0031503021167957924, 0.4940944815997637, 0.2684244914302273, -0.39798822921882215, -1.9722094483060746, 1.4052071644382889, 0.13974996401701037, 0.4914977253035764, -0.009231525440881192, -0.015466813226068589, 0.01042584248938567, -0.32027024380379326, 0.015791106016151746, 0.011277376454304355, 0.21160625160832947, 0.18165747401206553, 0.760799941540154, -0.0010895740540370566, -0.11356386092700385, -0.08881981108721941, -0.2505980580763012, 0.11289727244872777, 0.014424012599540455, -0.016867393829124215, 0.0015095684938458628, 0.13886246323925328, -0.029156377036576708, 0.0017309219264211137, 0.016481559384134675, -0.9868864675513701, 0.004312752872756238, -0.30369003730182115, -0.1306210252112104, 0.16881714358726085, -0.3492800870095019, 0.24469587493465372, -0.018708190580398656, 0.0001197253799073155, 0.12842001860943966, -0.26543184242301854, -0.9497917150800739, -0.09963181667639719, -0.01604751008158111, -0.9776055996429692, 0.3074581553311709, 0.11436799343191728, 0.0174786297895114, 0.06545693612946371], [-0.029140520127297842, -0.7237885482124747, -0.06449577033100493, 0.5584420915578476, -0.09667279545727576, -0.5359854230370776, -0.9057861008158197, 0.011309477535266493, 0.006145962358159618, -0.3240208226200185, -0.14674399920430786, -0.005761760047447717, 0.08696769717017633, -0.19005659902023794, 0.004553339487231462, -0.02118375151342671, 0.014007812853097433, -0.32940401779517603, -0.009350177448037497, -0.35515192051222727, -0.6371941608558144, -1.237480785882197, 0.2736634162113481, -0.34699600462725927, 0.840085011048966, 0.008372584717764135, 0.24650145757335237, -0.1455602183585074, -0.8676755275874894, 0.0044414440162748444, -0.014032360002716007, -0.5510921910563329, 0.10332249823449732, -0.3954708223429009, -0.050376764102456485, 0.10754018737415565, 0.293573113031406, -0.8510612146845399, -0.7843798018829378, -0.216287800445114, -0.2701931152441019, -0.5995588714106579, -0.06792018775154417, -0.8733299448978492, -0.45055325005561825, 0.29557729320910375, -0.45947639202361973, 0.13801147232953623, -0.10216787173460369, -0.3427256923251291, -0.0015892895090532447, 0.13590256122003652, 0.019382270036602717, -0.08435117834635618, 0.3392397210772425, -0.2641034967960604, -0.1767343601569593, 0.7313722179417139, -0.15362439257942992, 0.07662259807238378, -0.08102627081740327, -0.12832145605609427, 0.48121901521437016, -0.3473550765099526, -1.4652928308774253, 0.6192770927242286, -0.1369238936810143, 0.3212008602782197, -0.010852658030878813, 0.011043241075466404, 0.0011348950648201457, -0.9243107725498659, 0.13035487675208607, 0.024203045396550413, 0.02381045411840911, 0.2954304876901636, 0.7319992381450862, -0.006709353627541839, -0.24078167259681357, 0.10617473321681375, -0.04978311644404454, 0.0798704991066526, -0.015137636287481517, 0.00516210175009845, 0.002427458043809205, 0.23932482547920167, -1.2968327366504333, -0.013045097776152282, 0.0070506012689809305, 1.1244661744603448, -0.39801797534284233, 0.8921588130024526, 0.10415936634567889, -0.29147132712655344, -0.26149715744728774, 0.6810479711370796, 0.0019313115078958064, 0.0016479665008823313, 0.412117363358901, -0.6167085743249107, 0.35516887444151163, 0.026799315758919265, -0.002787220916566385, -0.29059636961175955, -0.48331938093569693, 0.30923407903017247, -0.008741959483116275, 0.216476727061607], [0.032936802490709724, -0.17898135829507425, 0.24404288351136064, 0.43476515273358335, 0.08637272092687778, 0.2695217065394227, 0.8830845597923442, 0.005401604442165438, -0.0042740999007183705, -1.2542738594313614, 0.23575082537764902, 0.004012052333685809, 0.11520231953231226, -0.0290953853767556, 0.005405850184330144, -0.8872105439563981, -0.006681069449469124, -0.37878146561496606, 0.2154848099033549, 0.30780884299065203, 0.64080727162445, -0.4843976305240249, -0.8279109591138913, 0.0013229603867808766, 0.09788165470293338, -0.4518057435966866, 0.33108280360233, 0.26802478821788756, 0.916194220609749, -0.0028252257270576365, -0.006014426869895845, 0.17040707960194565, 0.4288427506235796, -0.27285849303418647, -0.1580309352111312, 0.1148280041166659, 0.6742100897115714, -0.4509927968576884, -0.3271307891647114, -0.3266873143293907, 0.13626286476419774, -0.6056990073399038, -1.4410766698963005, -1.0432617597407292, 0.1345125941218239, -0.2937044911165227, -0.29499827184412664, -0.23042043471102117, 0.36937775625010005, 0.07531364239606728, -0.007366048723568473, -0.5905245523781357, -0.004243700764411828, 0.0006456198493464595, -0.34832281431148143, 0.13228997072247212, -0.41190539755518335, 0.6493150629081585, -0.05136677404175879, -0.6844618242590003, -0.10590105167710773, 0.34934428851519683, -1.2252936411302622, 0.03738833562423499, 0.9874169705636303, 1.464700527014838, 0.7354085503047022, 0.2494860586375406, -0.01317702354719498, -0.0003772798199454711, -0.0016882633381526937, -0.5097939677050608, 0.6243940324496047, 0.007271296738387101, -0.09042208434103097, -0.07945493136343977, 0.817666911939008, -0.004532434817950206, 0.26567786644405056, 0.08929375964066762, 0.8637005286354473, 0.09565806128585048, -0.0026416365836393774, -0.008449637498157527, -0.007491084238953377, 0.2277111388657941, 0.302482178063293, -0.003973764923655244, 0.004987265103971336, 0.25978538515313665, -0.06206632115462866, 0.39748920736462645, 0.11517010122682783, 0.2734077188765903, -0.9649978678734752, 0.43144251627209484, 0.0026153950903244883, 0.011121178648971084, 0.36334579984515775, -1.1320718234011589, 0.05850492218415057, 0.38627690566768363, -0.005214159832472094, -0.11545700855511189, 0.136494273717418, -0.5218949358281693, -0.0035144432478127112, 0.055632530620224066], [-0.3756447648313221, 0.05338181456428938, -0.2892075189766356, 0.4419896229208775, -0.09787676472248623, -0.7409633293951231, -0.057078120263304305, 0.008977130568103094, -0.007308469766794999, -0.12560015261393748, 1.4313905330912027, -0.024712544221444383, -0.2129950131548794, -0.2690168246694438, -0.003434385681383784, -0.5338764205451987, -0.009377317306538778, 0.0831502201667379, -0.08011518072278694, -0.3259228348318861, -0.6580162112346508, 0.31273781292084996, -0.10223487475360611, 0.0556614486112412, 0.7305165518627701, -0.21733650057986637, -0.31947826099044196, -0.3753795337223016, -0.7683287086697415, -0.0022019148618528306, -0.021331401143746927, -0.2661884913928644, -0.16525398239791061, 0.3152996991191738, 0.5351585325465382, 0.0857509902581464, -0.8135596227227084, 0.24040058820630472, -0.2805114072518527, -0.515341313529829, -0.2682300802262306, -1.06725785785979, 0.16713390548873966, 0.4729907110750817, -0.5065396335420942, 0.13710600706819995, -0.6990793078050349, -0.22096343082416928, 0.07605252070944399, -0.24115680946647422, -0.006478551851719028, 0.5635174393864011, -0.0011369052313272906, 0.006973876488607714, 0.19478102770357575, -0.08118469192596499, 0.621076016582729, 0.6721160794852424, -0.44696613805187696, 0.38779653377251566, -0.012306016918039642, 0.759127616261211, -1.398275367949877, -0.48285413990209664, -0.9829262598022938, 1.1765062142562774, 0.35647429665408137, 0.08760916450355932, 0.0025182151525451873, 0.011833499083191158, 0.009428366087277956, -0.044394310269884156, -0.15904324142469178, -0.0012506703006543776, 0.0384189663392032, -0.24356879855271626, 1.0001317390434723, 0.012272789259997504, -0.38448220035525615, -0.0930423686070555, -0.6098617706653963, -0.09369354704840038, -0.0045325648110096555, 0.006911167303230226, -0.0091421720916323, -0.2879156347420709, 0.03819690276433882, -0.002388194038343305, 0.0034495922529586445, -0.4796159595878811, -0.37044197025961145, -0.008595708430498774, 0.24882214562778227, -0.36635060347959086, 0.3422579070963799, -0.5354382426457004, -0.0024346478117101434, -0.006301908839486934, 0.1190333531990077, 0.15677904475774695, -0.6325731787683365, -0.031035431049751663, -0.0029947747575338806, -0.08326847821688997, 1.3924299321552212, 0.2669533869290416, 0.009115871086566224, -0.8764968000641741], [0.10641260939996153, 0.27763075973424284, 0.025779573277921436, -0.916719689478616, 0.11222688505562678, -0.4601824024262604, 0.11608071705309592, -0.022304433796218034, -0.012477361917470127, -0.6104455841486068, -0.20139728396552065, 0.008150787538320681, -0.02376544985838168, 0.1586549305309868, -0.006878172152605591, 0.8011318723260631, 0.013967213375606132, 0.055325319460828394, 0.045370597137642896, 0.2304690217260363, -0.9732665402465067, 0.6149040684711038, 0.4921105021100222, -0.16841450746100645, 0.32862712309045033, -0.11637874515307137, 0.05121000874362161, 0.1689826860617027, -0.10869545076459143, -0.004719951646010032, 0.014536088573752671, -0.12006621916386506, 0.11393445376801778, -0.49882781641233104, -0.5464692489067908, 0.0990403425443836, 1.1874326924192313, -0.36717737629210545, 0.4562521065706809, -0.20051655145040567, -0.08467852334772817, 0.2789389934317214, -0.5004492086218026, -0.5449298740844815, 0.33215749340541634, -0.27664573038684154, -0.12617920754672807, 0.06357671688148307, -0.5818884497736894, -0.23044428929202254, 0.0073644594846062564, 0.18947909456008594, -0.007177595193608681, -0.1681902531690727, -0.48437418994659054, 0.004951600370865096, 0.5301784441095463, 0.2522846347690987, -1.4906594007736764, 0.5072922373622408, 0.06531366682840703, 0.4576216610160589, -0.42056808368694465, -0.3940289757160563, -0.5554592436516864, -0.823001306501393, -0.445236034220028, -0.9026940551827621, 0.007135403845052652, 0.014715268623642794, -0.003406781306948067, 0.18279964792488748, -0.6909248753742802, -0.022465278576545886, 0.025752846998009046, -1.7708853958607476, -0.3345334812433509, 0.011038525103026216, 0.20318639858922674, 0.10441971097253067, 0.2249381960574477, -0.09654846672345327, 0.00617023218753133, -0.013880642307069146, -0.008982791171879863, -0.7653206533314599, -0.45144701660397213, -0.0005345686079179917, 0.0024283283075819907, -1.1342163222142867, -0.6518027367287967, 0.797441275728304, -0.16125600821655567, -0.6867473937401704, -0.8655023528940704, -0.2985118055889185, -0.01752927225056336, 0.011836840219990158, -0.02392502505903314, -0.6402808950696073, 0.5402679909302772, -0.21319837087289215, -0.015519584519612401, -0.37357101977099594, -1.237710740206207, -0.21826500591874765, -0.0017449945193338276, 0.19711880038447974], [-0.24517575494992044, -0.6473574612899606, 0.04625168012334816, 0.0013547906821151263, -0.07832867904692983, -0.19043696795110038, -0.5963373263187378, 0.006827939216989942, -0.006302807548774032, -0.805949746515744, 0.198304099000355, 0.0024541482935017357, 0.030567796274879575, -0.08892959100652376, -0.00379336878234757, -0.46763033415285005, -0.002684924745581081, 0.528243508016249, -0.0865081463969118, 0.2398754528981869, 0.42284000407974764, -0.08003856588096743, -0.9205467487039508, 0.29023984358181887, -0.8010184875018289, -0.4050408977553499, 0.23050950184729274, -0.014266503793394385, -0.1623109752365406, 0.009861579799619095, -0.0032406144807721315, 0.2400862188445018, 0.03396327605431143, -0.5748002524601459, -0.6922908104114294, 0.11054683177460067, -0.7470439026590829, 0.1689433574742723, -0.1007354788152545, 0.01413127663910827, 0.11136005129138883, 0.08186714147022232, -0.2104946798741643, -0.8900617993879875, 0.020020987371887962, -0.029340856015919927, 0.031016104089293423, 0.2480402181634039, 0.7220010547530327, 0.2865716324113148, 0.011836835405986788, -0.18862820740289943, -0.0127874463473353, 0.07154572821643054, 0.006986187100469956, 0.018488447943024833, -0.31367649382541984, -0.28153007146781434, -0.9061001558881541, -0.20524737395556705, -0.0976434572660869, -0.4199848224489408, -0.10854470743425863, 0.03779790261048684, 0.7232053062099003, 1.5143923118845393, -0.7038858003878463, -1.1656531397885712, 0.004901821707321414, -0.0012600151252818417, 0.011719177266010199, -0.1475101655479526, 0.11941658182275519, -0.02109730131562136, 0.1600456526606632, 0.06096490113016985, -0.2750236878018871, 0.00097748067409851, -0.031196463487457575, 0.09223260028493178, -0.5856291823491143, 0.10363460183625973, -0.006570337605959482, -0.004822786806530646, 0.01912536372087913, -0.1236110528725431, 0.26280855377515944, -0.0009558693588228277, -0.006776104878467443, -0.07991850277939533, 0.04723602225000744, 1.5364602833700816, 0.18806568226558226, 0.01980323202424063, 0.5573735235462602, -0.8722302829271356, -0.007943527147142337, 0.0027466644761525707, -0.7342106402900924, -0.03937447301740457, -0.7962887621043148, -0.43968993042269633, -0.006350603669242317, 0.47640421120802584, 0.4220693484447583, 0.5737234691025941, -0.002044663408505407, -0.7046009976905446], [0.25730838698803743, 0.36530943059868115, -0.10432974042543086, -0.2645536657821069, -0.09078118037636795, -0.7732817551981397, 0.21375373474132076, 0.004022050271118794, 0.0005670915597136599, 0.14206926934489045, -0.10348880817986474, -0.009300131397517302, -0.32793665739665856, -0.287218747843821, 0.00028336641519527916, 0.5246801113311893, 0.01662100371544681, 0.41386035850661357, -0.07836656680447555, -0.2878979813787618, -0.9278847731732018, 0.021961432308397862, 0.16993527177284534, -0.3362581659971875, -0.5115546321097935, -0.1843324054549638, -0.33895673102515417, -0.36240524127647816, -0.7129933189018547, -0.004104678517471155, 0.02865091946824143, -0.03746386576299238, -0.01698043815331509, 0.11727852894163349, -0.037042648261271266, -0.09940588748792659, 0.31479122292871226, -0.18347244315979616, -0.12571121284206654, -0.47939903093524217, 0.00954026704688124, -1.1447458784474256, -0.2551054198274744, 0.3965867703385421, -0.013994572715194607, -0.46640462339109107, 0.3760673495758646, 0.0034033595610898837, -0.11347148039628044, -0.03361023520632821, 0.011545884503991941, -0.7199024462581686, -0.0030029521923857195, -0.201947131902313, -0.40640862161351066, -0.08108495926469465, 0.013583780284636634, 0.26572837689588036, 0.5718090149035985, -0.48150773653425794, -0.004379089609834939, 0.20165783233525103, 0.14530438519540362, -0.374639692347332, -1.277726923584559, -0.3756310687734752, 0.1726393984151126, -1.1221006395951516, -0.0002454405331988977, 0.01923045735347676, 0.0011850003994444602, -0.6402359604718153, 0.46642176799968355, -4.124650346480843e-06, -0.18518751802526345, -0.1139028976678793, -0.020593509337830614, 0.0021236201712556122, -0.15999300602174077, -0.11982508541012221, -0.17077312556485008, 0.09375998866251073, 0.007054988979773913, -0.011260131813786656, 0.002849183877705711, 1.0135368555817381, 0.3215324605371295, -0.0052730782296189094, 0.020530784579355265, -0.4102067642072354, 0.24785390613459907, -0.07306577020356254, 0.44848652364504255, 0.08519635185621492, -0.05826158968622677, 0.18210729448942328, 0.0037792688708805774, -0.010763740360635066, 0.06362975771853867, 0.09864157119844416, 0.30303314753029553, -0.22676943923499268, 0.011740866250053432, -0.40149036452208237, 0.6931478777992521, -0.26770000074742306, -0.007559158184115351, 0.35825529290296776], [-0.031336196158331414, 0.7764964000134402, 0.13235439439093755, 0.011190909135743202, -0.06385195498187915, -0.534307689245919, -0.915226287539333, -0.008097527345783553, -0.0016887940351196958, 0.7366898226207271, 1.0195623966221925, -0.0030731952975435657, -0.19723430923022658, 0.3089649470471988, 0.011286558994153954, -0.5712183432915315, 0.012273027034701907, 0.03632174960484182, -0.11676531499642645, -0.31149600230784275, 0.2068464346087016, -1.1735681151708153, 0.8089755187659162, -1.1814269060505944, -0.775197059420851, -0.09854302330238103, -0.47790898476895116, 0.3404016408182217, 0.08072405764059915, 0.006835071265829454, -0.01698777880189391, 0.2906876279005593, -0.05860972294078913, 0.090518212103355, -0.40859005062024895, -0.09254889501124622, -0.27296510669645724, 0.5492702254176601, -0.5003664399511744, -0.30845711786096147, 0.06818545088850023, -0.3454346639390003, 0.8560504607881694, -0.8698812876914104, -0.17752877589624558, 0.00372345802682391, -0.18333742590530636, 0.007189185713864479, -1.4281563084300697, 0.15876911290395962, 0.01446899480291614, -0.5107131769374826, 0.008300837299925817, -0.23081396710738084, -0.3457562179712565, -0.20381849326125936, -0.6009562229501638, 0.7550062349306872, 0.5534320855681312, -0.10808218370689825, 0.002735743495113835, 1.923679651274749, -0.7957971848614563, -0.03698961912177116, -0.027111304003539973, -0.3388335384144054, -0.3082698869650578, 0.8269334270939851, -0.001246922315353936, -0.004337458293733157, -0.00041729722545532115, -0.16163227317265, 0.7270371103061729, -0.012925726205500324, 0.00325104864210834, -0.9062249019996519, -0.41852565764477107, -0.00011761637774671591, -0.06211391996377721, -0.10566671999460912, 0.4538278232291636, -0.11209253253925772, -0.0014026529283568529, 0.012216514134616982, -0.0032523253229183127, -0.042414737337071975, -0.8139511286241311, 0.010810611793179216, 0.01447071343952891, -0.14414198228752545, 0.6583951248685098, -0.09681499317409684, 0.005319511484324386, 0.17524964759876532, -0.9146001930497328, 0.09779796870287105, -0.00024064499824116124, 0.010529560745710008, -0.623384291483571, -0.30554670263782435, 0.16326496428162152, -0.4545928227467475, -0.0025677679082644574, 0.28387830193513003, 0.0012854263956105219, -0.18491680212608813, 0.016760206615232996, -0.01076196297870845], [0.5329571759987789, -0.03096462998495414, 0.0019277392926552867, -0.07066595304516689, 0.10137148307488758, 0.3567623630186687, 0.5556723536173364, -0.0022840254538906107, -0.006362134675735341, -0.7886182309122954, -2.512075144740182, 0.021524869765259705, -0.39920573684141236, -0.007531182832978798, -0.013942570835020077, -0.7880041662929997, 0.019081056181413203, 0.28259310016425787, 0.20375147631509385, -0.18153801710902007, -0.11247417500878977, 0.24931560773253847, -0.16245656123850222, -0.9472852594600066, -0.12555933453130105, -0.49803728871714914, -0.06936344521233818, 0.2790337453455945, -0.6473710242645316, 0.00487919278085961, -0.0036113478369246207, 0.15664234394199128, 0.05578128151318828, -0.30621402311595025, -0.06454995893246626, -0.10156743823893895, 0.3495105282257725, 0.5822235849060484, 0.31086683930868797, 0.3075481071169286, -0.2025609407089405, 0.15929139769606798, -1.132055975731101, 0.23693938701917525, 0.0336524291366395, -0.036464352723644455, 0.04447436317497113, 0.32460899205500454, -0.15434471703637564, -0.012055074359447358, -0.009593944014513925, -0.2155517389989549, 0.013450917713763824, 0.14446379590926328, 0.052249265447370616, 0.36475005999413407, 0.6218213550545773, 0.380702560619169, -0.04378958281725862, -0.19501898728380107, -0.02875775637613591, 0.2694117083343687, -0.4874091830025889, 0.17652767469483005, 0.6173178725652353, 0.1174132665580275, 0.8085199582905694, 0.3303416309185456, 0.00121778154627368, 0.0012589341960939139, -0.00716688499804088, 0.06489546034962188, 0.25445634686283014, -0.021057748250652555, -0.06637217703159318, -0.18930750992926687, 1.1071230797661444, -0.012328114237099513, 0.32761834392393285, -0.09355651407785495, -0.1667719044736911, 0.11061784986042579, -0.00024244300028592597, -0.008571729522629778, 0.00860122340137878, 0.26148300111559414, -0.12154012188077208, 0.015087056826360148, -0.012921472658824849, -0.26092063381562974, 0.1663095406850822, -0.055626912929264305, -0.0047534874071762144, 0.15262025580711622, 0.31768988163472855, 0.43819876107625705, -0.020168438388407792, 0.010286766746955903, 0.16880809556903564, 0.05680289906414696, 0.24016304060822, -0.09652765520053277, -0.0029917632345084883, -0.42930330389872495, -0.5273743664659568, -0.18538038885988092, 0.018736059633585794, -0.5020654373350439], [-0.20911057188801618, -0.17090339350477185, -0.14005163816938204, -0.18395014772839152, -0.028103078120992643, -0.18717671543928804, 0.15290413468941577, 0.008805458537117117, 0.013192091336380978, 0.46175791489043727, 0.5233039440500089, -0.005343444360500255, -0.37674094017860343, -0.0920123820540415, -0.01130624255792062, 0.2020148199310388, -0.004935221156377253, -0.7877214521276938, -0.07426511082030765, 0.1038592541017844, 0.17963891195663464, 0.2763869290808056, 0.09093005564877016, 0.42386082759540245, -0.01919495736067764, 0.14153258165098453, -0.5002700983861815, -0.03348276471142175, -0.37641918949074765, 0.003769154475270633, -0.01286533752152238, 0.22369583181435154, 0.040485617126639645, 0.14442318725901274, -0.10263394283155035, -0.11139720650589105, 0.2097521655625475, -0.4862641151467805, -0.014156849560352139, -0.15641495007118328, -0.2976982213009421, -0.04357219840572924, -0.7671276092105501, -0.11152717048898182, -0.14020453430334578, 0.34638557184456553, -0.1847056088046499, -0.08629548111315781, -0.34159406523344116, -0.3741147042844364, -0.000465578128001098, 0.04383675684720163, -0.00738695489229363, -0.1103718320245799, 0.07220967991123145, 0.024749351449700648, -0.032724476847842014, -0.3375906805791883, 0.3650974636062271, 0.21275817455893134, -0.011981857766013768, -0.20632412354411156, 0.20105324796245452, -0.33763282476912543, 0.7463000914320077, 0.32425158164040585, 0.31643814516129504, -0.08619001929551086, -0.0053834163633911985, -0.0024425855997794533, -0.009822295413612975, -0.28714930453013926, -0.15795743244750363, -0.005335062099441661, 0.13678240003432937, 0.2099479369193283, -0.09236454918869595, -0.007188743456117137, 0.003931449742548172, -0.09494069199339543, 0.15033025735686736, 0.05945569967471168, -0.0006436559307571718, 0.0012577555454436706, 0.015602456822823914, -0.0357344820278261, 0.24428432623709914, -0.005091516030377952, -0.010294031761802158, 0.0484908825132129, 0.1458088916339346, 0.08955554049169158, -0.8208805041853681, 0.17532830531829718, 0.2503350101250763, 0.10702851883963022, -0.0035913800519840927, -0.024177134139235515, 0.36859654632361194, 0.12816074308815067, 0.032249910778288135, -0.018418928570000704, 0.011570083165875763, -0.29146926848480553, -0.07957572382158598, -0.009628830933382293, -0.001336789264158705, 0.4215772101206156], [-0.2828025454789446, -0.03123160818645816, -0.1123313489221297, 0.04875470696750303, 0.09636996336375385, -0.46754801131420853, 0.8148938567286519, -0.0030181611931563296, 0.008584341830614824, 0.7598098282995115, 1.3256570716563538, 0.0032976025254754134, -0.21119355029787112, -0.10299336458518871, -0.011424789650294427, -0.5516640011109821, 0.002533833485502468, -0.10694893174680223, -0.06892234000985197, -0.2339079230617176, -0.41840639667005625, 1.085382123039831, -0.10947150825115734, -1.0305821938743434, -0.11702513223808, 0.20749984751430117, -0.3241966194923734, -0.19767968208618078, -0.6848437819681423, 0.0158879995468264, -0.011642261670764853, 0.017855322520513948, -0.2918106897935003, 0.8630121123402296, 0.008600779508583588, -0.08484420450229152, -1.1335816799178067, 0.42982290378102117, -0.01128833916342237, 0.4911249227945673, -0.10078596845315475, -0.43771494824658497, -0.286861411674196, -0.008482345174141918, -0.4875938816090652, 0.09743775214095814, -0.018373075568667675, 0.13735007963517107, -0.22507029610447019, -0.18906101168135508, 0.019014892126544166, 0.14441237547462504, 0.017021288490942407, -0.15953702166203898, 0.2736039564739809, -0.07032669075533388, 1.2397611859820832, -0.08285459090153285, 0.06635288975769606, 0.46788952266864614, -0.01569565851960425, -0.17491037340693846, -0.7876589837863196, -0.32134863195895913, -1.0694743649546876, 0.9480516488860848, 0.1947402279611612, -0.2051820261739024, 0.005244647683867743, -0.009481963096301706, -0.009647729572616722, -0.6666403859912664, 0.3773653355472378, -0.004959283048505597, -0.09927586372457525, -0.1626607004100006, -0.35818269279267834, -0.00815619392890168, -0.09123247000578089, -0.10125215663214279, -0.601593255474659, -0.0749531283624546, -0.004167045925863526, -0.00775433179799756, 0.004698895636259065, -0.5270413042508537, 0.3798197584002781, 0.020265306340535333, 0.007047852176992835, -0.29579287150036165, -0.6171906171348267, 0.14893584650042274, -0.3326775659600177, -0.2205303903692165, -0.0885463974106422, -0.025142644097913086, -0.0002058494301705309, -0.005943920317282117, 0.22372139582982103, 0.08904891021005797, -0.3803397056843956, 0.42384768940191736, -0.008805491110185831, -0.1272899540836848, 0.8631090849685061, 0.5594435108688649, 0.021031981196722664, -0.4806187634585132], [-0.3727237556038522, -0.8917484318112351, 0.0800267580156155, 0.45418416196396993, 0.10361837795952471, -0.3558724253446729, 0.39693701654118213, -0.01234040090487398, -0.009640107840197953, 0.07487505695273743, -0.29029304685155227, -0.011340862067120237, 0.05551738853799699, -0.2274365771575857, 0.00926834734782733, -0.5399161860668465, 0.013743910864081634, -0.3964858308191454, -0.12572028194335066, -0.3862014890859522, -0.29075454635190195, 1.3759089782132796, 0.20041484217738426, 0.030834564877861688, 1.2279763865664357, 0.30139928108954944, -0.19121929706643398, 0.2838034478084304, -0.2738130556811812, 0.000366416090571386, 0.00252728910555066, -0.44987636449318225, -0.053690189137452674, 0.4503632879433393, -0.1666385587249225, -0.11039424978746573, -0.34914876147235946, 1.2976035774436367, 0.7054309766640116, 0.5327267162566436, -0.057127613007583414, 0.6311887972092198, -0.026046334396826836, -0.3453976637000955, -0.4863745849784435, -0.26177265651101017, -0.02376627688147376, 0.04141338696971704, 0.2985822971458861, 0.09094020860794341, 0.004032114716132775, -0.31847944646599646, -0.003690866627941447, 0.007117659864430184, 0.352281334798314, -0.2693593822487777, 0.04523090157023556, -1.7306816810171577, -0.8712199223694972, 0.585105066836473, -0.006667827351775001, -1.0185702909082892, -0.00024538624389959117, -0.523700093481386, 0.5155936972002457, -1.0838106121615168, -0.4983412215075123, -0.6049900859421683, 0.012195829059819894, 0.005227853371563475, 0.007660093274695898, -0.2908219951595737, 0.8557716809241508, 0.008143519515658556, -0.02467546985551498, 1.8007589755542557, -0.5958360422140012, -0.010357322151703367, 0.20277121865154066, -0.07882295919356001, 0.7399918558893022, 0.09823083760716438, -0.023809108606616693, -0.00688480380533552, -0.012965711080555189, -0.11188705602942252, 0.4457602304783014, -0.008712117504889363, -0.01957428569516106, 0.684502281799756, -0.5359300586826924, -0.5238355626609894, -0.34516860248733694, -0.11466215933742226, -1.0353844288211171, 0.09343598254502047, 0.005793023193595041, -0.0015522420046612923, 0.7883740635673673, 0.46684182608544966, 0.8509432454398346, 0.46361883334303483, 0.011947666809686872, 0.375400423980997, -1.5312912197274307, -0.4602633625942406, 0.0005059402720116886, -0.4305981061018727], [-0.03274660466904409, 0.4322167987130568, -0.04517045726908713, 0.20752201831039072, 0.10964009954201814, -0.05098839144745239, 0.10033045058279577, 0.0011850449141843913, -0.001961954230182476, -0.5021929800603593, 0.13947683607830508, -0.019656985583378608, 0.009443365621258389, -0.12317648735612569, -0.010018015171367306, 0.045276096027410444, -0.001636796308503231, -0.39992666263286697, -0.14301339621973302, -0.2634183376000045, -0.21378381548857017, -0.2768638735175591, -0.10736390988327664, -0.1573550722545756, -0.3240789052508399, -1.3324640760669537, -0.15858049670732197, -0.14637885291085292, -0.2467856373266448, -0.004517023447985974, 0.015962209924184453, 0.23147754481990038, -0.048640134669418175, 0.49772211926927434, -0.3960362861143137, -0.11272658506559306, -0.7907310042714252, -0.5609729025129049, 0.5341365693425261, -0.43399735065956335, -0.08885810331571374, 0.03648616023639864, 0.6371621960316864, -0.028664148474740875, -0.55577660829172, 0.14467994780521523, -0.2576861178005772, -0.16172012835698327, -0.1955756917014201, -0.1605480361341549, -0.005876727431704202, 0.12866593258802053, 0.010401345948875094, -0.02733596923018676, 0.0608725444222501, -0.15448009575193306, 0.24421814322860486, -0.38058173911780036, 0.2714224254958322, 0.32783818567819084, -5.432393844960557e-05, 0.48560197021900386, -0.03448509641262992, -0.2488161456960003, -0.7653554580570142, -0.3670813074161517, 0.37721092440311493, 0.17935008881881662, -0.009284981327861697, -0.007629138222737712, 0.00028639828002368663, -0.0525535771057821, 0.28532025469245426, 0.0016439918448696823, 0.02628273777226178, 0.3951378002951039, 0.00838280092090587, -0.007914941244234539, -0.004335833887820942, -0.11520389282824205, 0.35442291754735467, -0.10534751416621634, -0.0038947663168665504, -0.003292761304395783, -0.009515526691557192, 0.24270022554538204, 0.37257909709743997, 0.017997284644512265, -0.020133425547691774, 0.1460278372360915, -0.2828116392931201, -0.9103819150425756, -0.48844010088725504, 0.13812784682672036, 0.10550943543874294, -0.08978358759026292, -0.005167932197128866, -0.023226363081682005, -0.0624951287334621, 0.17194631040728253, -0.13559357865217134, -0.0374115848336391, -0.0013717814426004043, -0.055166254953272265, 0.5254655173215443, 0.022509233011778824, -0.0015190851088397075, 0.1292419044207499], [0.00424629982435013, -0.0347280729379826, -0.026530182143322076, 0.3458234724878658, 0.09899519830581296, 0.00833129291461175, 0.3128395961953826, 0.0011916369049285, 0.000946178476737849, -0.7717640747775746, 0.9063671860107639, -0.022368584184077025, -0.22791794922142128, 0.2825649432607946, 0.015319488827117162, -0.17095778981793788, -0.015184552103703357, -0.20260032435109981, -0.07277667874082064, -0.06358279091726315, 0.29767131928445956, -0.5650842794916812, -0.7310457338766793, -0.7322477229465496, 0.33446479150701763, -0.49402570073824315, 0.19744290324741115, 0.3665043596707268, 0.6792585244052376, -0.0016752623245124484, -0.0012963210479539592, 0.27499537246973005, 0.2539501722459304, 0.2590632251242965, 0.47384109545377995, 0.08303154306115113, 0.02155448896912662, 0.5603807400941413, 0.2202972790980552, 0.08359216730016063, 0.059461574133262696, 0.10475464610356001, 0.03831016953927213, 0.32493386642754624, -0.25603368127641735, -0.19898477185176613, 0.21649746292499747, 0.5488806514915653, -0.4089410126430029, 0.3104745627263207, -0.013949449684917877, -0.8507000010285057, -0.001991997650623743, -0.1906388791704854, 0.09101851252359, -0.021012469801987763, -0.24801253814171592, -0.09999247200253858, 0.2145431709820611, 0.9919034543860618, -0.006163125100340556, 0.0389058161987408, -0.1001680442627177, -0.09120948422007182, -0.23508681526225675, -0.7346414566350733, -0.41951372427264344, 0.13469149084059237, -0.013746056477004488, -0.01111341242262377, -0.003932459584850699, -0.7884160661942318, -0.381305907695368, 0.0003712885314634859, -0.2076537131155134, -0.6158082337483994, -0.3733163857863633, 0.011156313398860097, 0.26917819137647486, -0.11421048000176875, 0.34145528926999164, -0.09036322991824794, -0.011249776796101627, -0.0035464949530382185, -0.0049637966492573765, 0.057660736968773635, 0.08097349183751312, 0.0011758593678462429, 0.00722882094867825, -0.14624425951009426, -0.2088192235241169, -0.05262615427979332, 0.26768461161332974, 0.04228689275564148, 0.28971522591275783, -0.17133953225694123, 0.0071509987829521835, 0.0006669876588090547, 0.004380560869354283, -0.24678308279712033, -0.2633464248780996, -0.25913449815674616, 0.002094091590756501, -0.12315681898732452, -1.0715311883970848, -0.006094980465708874, -0.016342245174019557, -0.22457698140297555], [-0.311749971605302, 1.0157797329213585, -0.2664923804949893, 0.5579432786567541, 0.10706725872931845, -0.733761331494637, -0.29570317194202433, -0.010181398314530124, -0.019989683439199796, 0.4055551441573671, 1.4399214624534356, -0.0039184467438007475, 0.034231091816257844, -0.20812864517816862, 0.0053485723874096185, -0.41425545943911857, 0.0024871163977188276, 0.14943888586779608, -0.08772734958479159, -0.28971180478144465, 0.13060283116238053, 0.3291297563404778, -0.42432828875920353, -0.5582927135471657, -0.9326714536394654, -0.6581890338135336, -0.07778003250079757, -0.3134087776637276, 0.3754255847736171, 0.00048826100162272814, -0.011393923746816033, -0.06281110767914835, -0.09130073062412065, -0.3488488752640346, -0.3097606298910446, -0.09165851337280832, -0.5916838726144023, -0.12345167889199746, 0.6411661956281798, 0.10539395922761749, -0.3560772476924181, -0.39019882997305133, -0.7809041024183256, -0.8603528135347199, -0.14363510323037945, -0.09460281752424717, -0.5086069542383405, 0.5928703605410823, -0.971225904586959, -0.22536521993324637, 0.008254036837362522, 0.24626230992642945, 0.011505136056574139, -0.04200042096388515, 0.06059577884412954, -0.18341031603708446, -0.47920278880329226, -0.798511646383961, -0.0334406458215235, -0.14697693155938316, -0.01938689520067854, -0.059242995979455884, -0.31374408937540343, -0.3494532190966927, 0.32052727770772327, -0.5150833634218717, -1.4826820304469976, 0.2071054814732203, 0.006259126200970404, 0.001602580428146102, -0.015205359118270296, 0.3671758381919327, 0.3809600470864159, 0.005180817203537385, 0.042318629985434404, 0.09117862996858143, -0.1775989181496135, -5.627540589972126e-05, -0.21439801512633203, -0.09038114083157073, 0.44491045692448844, -0.0902446224993126, -0.025806939097813772, 0.00995673525674955, -0.004065013346279682, -0.017240786108686262, -0.5156771311467591, 0.005073944281616191, 0.017705403770203937, 0.19363971826007148, -0.06994007943254692, -0.48093813011455067, -0.0689103771877722, 0.31081455588647244, 0.1291647232864126, -0.5583365659448843, 0.004646050332322943, 0.0028693683867691833, 0.1449083923658669, -0.3271377969193876, 0.730466642414244, 0.16846216733571726, 0.006081788841416408, -1.0044905874555639, -0.2480369526095897, 0.410717292137045, 0.015660553610380133, 0.7931360568383651], [0.047327019778644897, -0.23912839892277687, -0.22607844409315767, 0.05208309877177445, -0.09481162071928284, 0.4685745342390442, 0.12797322153842228, -0.005806269556791971, 0.015690818363228904, -0.24471937529260324, 0.21061497866680798, 0.0018194333346323664, 0.17464157458605437, -0.2533629676877502, 0.015912455765871667, -1.0764487484584797, -0.009613904462530985, 0.38667818898701223, 0.19431961637805678, -0.16228015809667976, 0.3554477223547973, 0.19750216840068976, -0.4849637312854864, 0.07369666917173083, 0.997319271853425, -0.4554953758515775, -0.21725339927598603, -0.11064383252797043, 0.3953227630120854, -0.007541628612954664, 0.0012794320158720817, -0.4332249122777332, 0.1149405703905276, -0.27928442880841164, -0.1669896676303419, 0.1009145591198621, -0.4817686442010759, -0.2797952958075995, 0.13855480367809297, 0.39699394642819247, -0.3263966936350169, -0.23867369932986154, -0.5949605814579126, -0.7026041364145087, 0.004296355499330039, 0.2350551236497397, 0.010027032372862612, 0.05114799378066223, -0.2519674117934274, -0.06661640299836488, 0.013981621322680325, -0.39310460014484844, 0.014426379074012221, 0.19899521553846627, -0.279451566804927, 0.004049909379995242, 0.23893518516634568, 0.36873886225629743, -0.7928671583561033, 0.4570887577287649, 0.0727842490230221, 0.5989627813121683, -0.6784775887040488, 0.24953011854203352, 0.2559196356555135, 0.7494063517035843, 0.6166645043575775, 0.22198781470107642, -0.0009339674147600233, -0.006879004985303619, 0.0061334751162700095, 0.7656413201614504, -0.031186578945783482, -0.006952797219923132, 0.17748597457062473, 0.4041043544321062, 0.6014319288934654, 0.019378737204064637, -0.23625234423292227, 0.09866747357404049, 0.5305570796375276, -0.08703341763746059, -0.00020396374213456695, 0.01969049330724979, 0.004426330688508398, 0.05903845785645758, -0.22192022546014023, -0.007959733679858621, -0.007265728371902, 0.1258684557626962, 0.3056162199695229, -0.25318134736104386, -0.12343490575903861, -0.19982051043711932, -1.1358159715112595, -0.5730616435671245, 0.005662765354870648, 0.00863145786358434, 0.3715505664669282, -0.2277371797946998, -0.8923615043709482, -0.2345313640510576, 0.005486062303958209, -0.6167634225181579, -1.1149319003968379, -0.1293310440968473, -0.005181050667929339, -0.23699756240668599], [-0.14047633159170358, 0.10998112922669814, -0.5440629743393323, 0.026397260318565194, -0.003004530881415597, -0.6109001047807858, 0.10924244912004573, -0.007624186536134526, -0.0048226351626653365, 0.6229502243848184, 0.39345981044009254, 0.018255576047777684, -0.05310884866901153, -0.03115598782772601, -0.011779933336522882, 0.4340518983908906, 0.004982209647488861, -0.05566103644330971, -0.07864280930104137, -0.10097317665699376, 0.1301027657890664, 0.1734048920772586, -0.20588436410627087, 0.282098326927961, 0.06389872135404595, -0.09983043657740666, -0.3501228353412264, -0.6207297665688337, -0.0785840955937979, 0.0034905622752967958, -0.006251285478579405, 0.04524828088679632, 0.007148492047884285, 0.2067479934325792, -0.060226624445185194, 0.02243152348123354, 0.10514765708999932, 0.2592370099514646, -0.19886844535328918, -0.1648420997603911, -0.5397324996715743, -0.1841612382492782, -0.06457410058474344, 0.008692579971063078, 0.14176179726449586, 0.033186388445055615, -0.2447844561774996, -0.017632526411881764, -0.2424107411279955, -0.10047088884800247, 0.012443120871281244, -0.42297143309847307, -0.003288703090506503, -0.10189007219834491, -0.017796687744468066, -0.008037778404201834, 0.07964019831850129, -0.03956513650683331, 0.028914875916282765, -0.10005756023284809, -0.009960753026283726, 0.2331952180043848, 0.06900877319431305, -0.6634037414296241, 0.5558024229985981, 0.5636600534359714, 0.26792251872073386, -0.15926855343157878, 0.013900231205997732, -0.004510023102877253, -0.009094487300724598, -0.0984347532490186, -0.07412046547490415, -0.0022241037491837683, -0.0633624137140253, 0.3720934717773256, 0.09916849935009876, 0.006732824848464798, -0.22959952935375774, -0.0956207255352883, -0.07381541811473856, 0.027464897473047548, -0.003651678691070434, -0.00500307458404137, -0.02513515134471056, 0.15689500845151916, -0.34485160101118073, -0.0008852043400543082, -0.007113569279462585, -0.6558376327629197, 0.18791131967426988, -0.04759497828073356, -0.0741809270434996, 0.03742289174678617, 0.23351453042463483, 0.15362424171981187, 0.014268022577990286, 0.0020232083299141883, 0.10814926044323804, 0.14228327026210547, 0.058737084278003095, 0.03481075890901615, -0.007587915193612857, -0.016226502294645517, 0.36706814572447244, -0.018238508015946325, 0.0037028236655799345, -0.06008593865973466], [0.10705691436586677, 0.4770904798578029, 0.12213584598204438, 0.22365418316043237, -0.11538118844701188, -0.13313687302253263, 0.17436484098039626, 0.011389351669904058, 0.010007903535093723, -0.05928938105097724, 0.2217635143743496, -0.00681128741345067, 0.08199325941035993, -0.08306232939080671, -0.0089145429300296, -0.30758399464771385, -0.016535452754184617, 0.06835027669885671, 0.20192414426003436, 0.2729870371986339, -0.21142857160431477, -0.024399418552878183, -0.8430354260742332, 0.07509954806234866, -0.20459881203239325, 0.23041949695125427, -0.10726577807804868, -0.23113250527684512, -0.23633581921116048, 0.009507512324519754, 0.004184602014614954, 0.20159414491397165, 0.045181537658607655, 0.06366930550598023, -0.17282029364502993, 0.11301408473779395, -0.49686031676449394, 0.1530259420574942, 0.45257880269631573, -0.04849622294584371, -0.16961317243340895, -0.553596116861452, 0.36377661318202414, -0.11036338622601707, 0.16977039384915166, -0.501078609628028, -0.06630695550098857, -0.39034539416821085, 0.34906146754408945, -0.26937110299852934, -0.0032476541093317034, -0.1799716941153597, -0.0008780095897282517, 0.05722790911489559, 0.05215683647079062, -0.12677398166142467, 0.5452031495387958, -0.39314533348227293, -0.15275147905929032, -0.04639989889267549, 0.06269450819273477, 0.04092734576448759, 0.1528679981331088, -0.18679485284324124, -0.6773982874425347, 0.7605032608761939, 0.32064506713367896, 0.09587335323575766, -0.025882640718447737, 0.014426967540631353, 0.006310272595906089, 0.40306205836607434, 0.6670870432338238, -0.006062300490247521, 0.11753851128987945, 0.3411931061036587, -0.007111539763344793, 0.0098073769695992, -0.16560250801491136, 0.1048951174694222, 0.05706523002417867, 0.09018018747112276, 0.012525259081299896, -0.011561290099452635, 0.014808324751885059, 0.552978782612057, 0.49306061141156504, -0.002763533765303365, 0.004397525965025657, -0.03465894661187148, 0.15940873107416562, 0.2551126529698039, -0.35350416510686195, -0.3020851788747676, 0.2983491334095427, 0.34165158416429386, -0.023066985538662585, 0.0028041923683077476, 0.4513545983015565, -0.008696193747974588, -0.15487714823711402, 0.1606794629563232, -0.005198372301978323, 0.27542441554575736, -0.11856215602446153, 0.19395387034823144, -0.004609844808621212, 0.6085013926172594], [-0.28443807200168936, -0.4482202323390488, -0.16214301824200497, -0.390477380563731, -0.09338245397984284, -0.5499897475539257, 0.4848683395566689, -0.010076012734873485, 0.00846888415175989, -0.2097557684391893, -0.1485749464718181, -0.008434441297246402, -0.4907664667304723, -0.08679930199254499, 0.0008208114073217915, 1.2677705752551414, 0.001154503313032518, 0.5166460186483974, -0.09970806551800407, -0.28550229573581504, -0.15011116395245513, 0.21027104075377157, 0.3485008326561967, -0.4308967188342147, -0.11768824882952199, 0.09378435078475102, -0.5351447341514534, -0.38907964213049984, -0.2701816318283983, -0.011931864647098112, -0.013115098455693931, 0.06952442642917675, -0.1444909990828005, 0.12220678482082543, 0.0399215543454889, -0.08551428795781509, -0.40420971536003836, -0.05191636220885632, -0.574286886803264, -0.5428250385849352, -0.1132905766393019, -0.6724467028825626, -0.5088795566263518, 0.7820571643254031, -0.13420799217113982, -0.0020888394844042297, -0.6125528819735203, -0.4735380359862814, -0.7041233352086059, -0.33040424082294895, 0.006906908374657515, -0.2538304338300784, 0.00265753410852488, -0.09368892790501393, -0.6320679088913886, -0.11319358064580283, 0.2025153264292494, -0.5600791921024656, -0.07122488834855961, -0.24819782082051178, -0.02192699986653759, -0.1760149602475881, 0.48116078386563677, -0.5683832783371052, -1.080551705603424, -0.4039331177240648, 0.526163184580379, -1.1625848671628702, -0.004223258367547597, 0.01281351565146417, 0.009407128345160677, -0.40648270980219153, -0.9123842163940942, 0.0131174076397051, -0.18910844998009083, 0.04227213581365986, -0.11341730633138344, -0.0019485915334840668, -0.20554597015439482, -0.10695910782753064, -0.7212132939623649, -0.027205827153040547, 0.011881810516271397, 0.00686877496622223, -0.005956417059511505, -0.10876298965647936, 0.3666350382958642, -0.009843474148250032, -0.00048573074062439306, -0.4066844027218052, 0.14560173516649863, -0.003490235242184198, 0.5711158300352941, 0.33895897755338794, -0.6284924389720808, 0.20809658554026178, -0.01019265076510806, 0.003030325759923626, -0.12008516495486724, 0.2045406986434446, 0.2640871015715605, 0.1614232708794534, -0.003478550791568886, -0.5225053720413955, -0.412032644128963, -1.1126871100590812, -0.002191928380793791, -0.30997411856455737], [-0.03433074713339854, 0.4954110204052689, -0.24727369812610558, 0.2618165704188672, -0.09890466223645822, -0.6349382325381334, 0.015919130665173576, -0.007313898249196304, 0.009400201146206684, -0.16353376625442118, -0.013809486917456773, 0.002223665071854445, -0.17943157709059376, 0.035871720025137575, -0.004770827363434276, -0.09271630282979561, 0.017272008399610742, 0.06787183024979915, 0.04832160119301766, -0.03044098823268134, -0.34464353715541257, -0.23851829576871306, 0.10100596398461859, -0.30927476210584304, -0.19456346329143942, 0.008441973751498483, 0.11635029911011444, 0.018020417631221818, 0.2335939341758245, 0.004645918896414176, 0.00226598105590679, -0.06030069726021774, -0.025731030330815766, -0.7219650187725191, -0.2320804730208807, -0.09080268599673762, 0.49322333804607393, -0.7218193944041547, -0.005820653774561287, 0.9445501933651117, -0.3352006010788019, 0.5638146269279398, 0.11376731771508547, -0.8211796087842959, 0.1283401752174948, -0.49092619735309395, -0.4013340889343981, 0.1119686503512218, -0.2516051713895002, -0.4341844030033041, -0.0018755830606468871, -0.43808265951101, -0.020931909791421507, 0.1046968042162528, 0.06702623807411867, -0.06429860839278587, -1.5995345626469912, -0.4950537483854648, -0.2226325033282587, -0.17735371997416732, 0.08624610212183617, -0.10612930812159208, 0.5166083307007903, -0.4690603737029658, -0.38458905272735583, -0.8101212601804854, -0.065442199359689, -1.1761034584685583, 0.009342132595226456, 0.014111994629203355, -0.026527764177432887, -0.5714381956837553, -0.4616119806340394, 0.021655474397048066, 0.26183212571364595, -0.4174764372531822, -0.3167002985266281, -0.00959481898307949, 0.10178222859920201, 0.10560316064721081, 0.1134455334704659, -0.10319780870178749, 0.006590065384102902, 0.011883693591901914, 0.02584653618726781, -0.46796319640065664, 0.1947895622922075, -0.02015180178317419, 0.0013882233535547858, -0.5533828042358935, -0.5418972889705574, 0.8917575104649044, -0.11074164562053977, -0.351143526437004, -0.6064654840933266, 1.2488203653157712, 0.008961094064547521, 0.008373862514470018, 0.33643241243892336, -0.33298732491351307, -0.38924557970769746, -0.15123125188951508, 0.00031972348300501717, -1.6530736347384118, 0.1207989086110127, 0.1775734290899896, -0.008026164274968987, -0.11410947959911345], [0.10324757484464261, -0.779536196740768, -0.10947440446584523, 0.1620703652870208, -0.09662753551019193, -0.42120400868697927, -0.2663065233655428, -0.003996734773817465, 0.0036898994018271236, 0.6049630391661277, 0.1200632103350782, -0.0009865791291419656, 0.25071846416963284, -0.09619764454006725, -0.005839941016298087, -0.43003290385379395, 0.008702082599440553, -0.272445780541143, 0.21414028451725842, -0.007211470642511297, -0.27356935376159025, 0.11044571912967603, -0.2596420222981045, -0.14806344094176574, 0.5503631608433528, -0.597700752632944, 0.29631689904277025, -0.007420528723235967, -0.21025630440843207, 0.01631428020410217, -0.0038438789989356597, 0.19401842084839796, -0.04049137027245402, -0.38768295279458037, 0.26836785059994656, -0.08055079207694198, -0.2810752964370719, -0.35198043118481226, 0.2752394605735291, 0.41242101630865385, 0.017810422444049064, -0.4953344168163941, 0.2848903698520882, -0.214546238849349, 0.2112752866126348, 0.008976024810884576, 0.06255062146417122, 0.056171549008574684, -0.09849007782023206, -0.0775731595648729, -0.027100840461069402, 0.5007369983826677, -0.01136800527372669, -0.06339101772841603, -0.022938735569900018, 0.21829312483176683, -0.9603564998396378, -0.6953495505115754, 0.993938892327885, 0.12763510049007717, -0.08256656831316589, 0.8466178398284989, -0.8750201980160408, 0.06306644278936141, -0.577149125919166, 1.2909673832384454, -0.7299322229500219, -0.5056913628312694, -0.005121080769706624, 0.0011926222860038113, 0.0026555057764204564, -0.057299996508259954, 0.5948981638919244, -0.009116218261548152, 0.010935079391072014, 1.461684679482022, -0.43726891794814376, 0.0030221893574674465, 0.04691142977765134, 0.08810880088508372, -0.3922892967581272, 0.11269307025724058, 0.0031103268490402253, -0.013045678209577265, 0.0014179427054527047, -0.18282901051358522, -0.7322617924331384, 0.014027326323188793, -0.011207947654770638, 0.43618726262419444, -0.20129304973264803, -0.19426572927603752, -0.4978183553834121, 0.32094495353477065, -0.9955510089244056, -0.7284456706363127, 0.0011993371456129878, 0.00404057221471127, -0.37340769495647796, -1.1635597157405544, 0.11144576258577117, -0.22621807787366768, 0.029709804693181328, 0.5032872872096751, 0.8251230738720113, -0.219921531850994, -0.010041189964842274, -0.6662997490700306], [0.19343104787566376, -1.3619103335943008, -0.11911262333388793, 0.4964451898821848, 0.1002555971940496, -0.21734581562286742, 0.36255394514870654, 0.005041612758966926, -0.0018191490972951133, 0.23659614527768938, -1.131516650984929, 0.007792775279126538, -0.2603590750754673, 0.024250386979662204, -0.011234164349366018, -2.840603963628061, -0.005740859851444349, 0.4396123410177615, -0.11223551399539328, 0.30996521922476394, 0.02803742605656846, 1.4166027949472009, -0.5889720635162323, 1.1223648773050232, -0.34401768526371107, 0.06771075273291749, 0.3079542857762582, 0.06038021077383768, -0.43042173163831854, 0.001644672101518268, 0.005180028144785207, -0.4346815346245678, 0.37967638411836785, -0.030519490879133204, 0.022709213309516023, -0.09521833195852732, -2.133782914374409, 0.8177665952890396, -0.2048924176615979, -0.13648358505485442, -0.055173477062245804, 0.5102060732057824, 0.34846050034433096, 0.11278328443994781, -0.8963395619880336, 0.26797805255060814, 0.575048903321259, 0.5095418385670482, -0.19419869323153996, 0.28073656708755174, 0.0018518455832444891, 0.16991905452791017, -0.011453038205764153, -0.08947891096132969, -0.01329302567033034, 0.12333799221409258, 0.6709461861817171, -1.0664756296957476, 1.238690216382498, 0.16671675340292186, -0.09966978206364453, -0.5852939335688497, 1.5632591526063029, -0.2156874518688458, 0.17860512445655902, -0.38392908819486715, 0.7880414264093737, -1.9061147174495594, -0.011942246044025075, -0.00047374045207466557, -0.007085808844889506, -0.20258105313506336, -0.3242659933355912, 0.0012513457838135714, -0.10026686694748857, 1.2150342260653562, 0.9539823776205969, 0.007590141147111828, -0.04890000931952493, -0.09065466722493619, -0.5522512155294883, 0.10338244056860793, 0.023050933001095352, 0.00689894976582744, 0.00016112416086444162, 0.06596582530041677, 0.3657397331437119, 0.003193017209228065, -0.011497943769006019, -0.4026512380583713, 0.694326082940191, 1.7010128148751635, 0.5756516698223588, 0.1530307989510447, 2.248092686989687, 1.1167850556226584, -0.008761944265075646, 0.008178061394536525, -0.3649918216977493, 0.2140146078863013, -0.3797808097412909, 0.0540719391830884, 0.004937290281084086, 0.37943633429635537, -0.5290411395185204, 0.24006128274513372, -6.316585252602084e-05, -0.26678176456638625], [0.14350552092093283, -0.9866486692974331, -0.11281774083622785, -0.03261146845729108, -0.10052835997401166, -0.34982990748183346, 0.40053035927043834, 0.013883036203952648, -0.011237652768321034, 0.46661786784585146, -0.18016938901585844, 0.009194504804322686, 0.050506148932562056, -0.10374982722900133, 0.011436353506670558, 0.036927480084314686, -0.035811205820717465, -0.028247185728012096, 0.21553456188406056, -0.01641169828144943, -0.627653460285845, 0.105286682172399, -0.07459254307716644, -0.6604482164085116, -0.14738078718086137, -0.443197113218439, -0.17293555708110078, 0.05904439241147664, -0.4325124981857337, -0.00533942352011288, 0.00619202747323481, 0.036684911796962635, 0.10733499777194616, -0.5759109054739372, -0.22560188942722925, -0.09399967843116332, -0.024840874391030728, -0.3205667900838807, -0.22297330013548802, -0.34017846367737375, 0.004811999129527673, -0.3352653223812921, 0.5241627277597392, -0.27137643448489995, -0.6917843076945785, -0.2876312479034803, -0.15632643781292233, 0.14860494542616362, 0.4732732994223963, -0.31814387596442345, -0.00792366542381839, -0.3379335447122982, 0.009986155588806616, 0.07261096320166234, 0.4238577574666144, 0.10643331652096236, -0.8934731552789131, 0.39049026311794083, 0.013059361421462905, -0.21898602308468937, -0.04440377493573844, -0.5658073039692381, -0.5748163332754966, -0.18536114480913402, -0.24657873028222152, 0.34164413545115824, 0.07081530750987826, 0.2708068549024918, -0.0021969674085373005, 0.01669333889434576, 0.002759399232629965, -0.37626017669472817, 0.12759735728378782, 0.0022748606298288957, 0.08924111247922535, 0.45836481053614825, -0.01971008597288677, -0.012770969228639836, -0.09966563299194633, -0.09217323826869267, -0.42795243605130806, 0.09870747003461963, 0.009047720694960834, 0.0021386725136871526, -0.001996135052153654, 0.021728128247131027, -0.5556033046369924, -0.008841180873123515, -0.018198423859104088, -0.2614966791737878, 0.1976501726010444, 0.48338549256929275, 0.26228697851854627, -0.24268971971404404, -0.5761174451682601, 0.063390287868544, 0.0076660486438512665, 0.010065425319130685, -0.32378704417562104, -1.295462695104385, -0.7019970205592176, 0.5527475909641338, 0.0027900084334162886, 0.03503332255759901, -0.15136573203317782, -0.06616547356718942, 0.00015642842436324348, -1.1736026034205598], [-0.2512243566494828, 0.4954303265974665, -0.048674280616920106, 0.4515801021591641, 0.06900597464116148, -0.482506987167812, 0.3305097969556929, 0.00023914723388468952, 0.006561235567033023, -0.250398559686034, 0.35274455860990106, 0.0140727797478082, -0.010169824141956893, 0.053822102268132006, -0.005787758161938181, -0.21350484382278803, -0.011505907377106163, -0.18680164404415495, -0.07181571687695859, 0.10490613190781056, 0.026830112457098335, -0.03891060565295774, -0.10995648170294221, 0.6310436371455386, 0.6648288139040239, 0.06002640117964477, -0.1635581458348805, -0.2505823134487306, -0.4499135297793541, -0.011740061203096909, 0.0016386104312820166, -0.2931995620184006, -0.3669018481787546, -0.03347491551866115, -0.3480858706807103, 0.10819891512209112, -0.4467605654651734, 1.1744584784952652, -0.36972443553164064, -0.4460029431545396, 0.14431190608932212, -0.4379699421669416, 0.8672039771731082, 0.5653792725605193, -0.5389638540291863, -0.1173817994382495, 0.07643953625630988, 0.3196932900575539, -0.7065516319842557, -0.20528748011708228, -0.019372646566642476, -0.3761306404069079, -0.022970483827341535, -0.05976602090501522, -0.09388875840438232, 0.052740505780194735, 0.8316997760327743, -0.2695459440598098, -0.34733241843551976, -0.2617783230259077, 0.008456195202700365, -1.320112654550543, -0.7472824951267811, -0.33130266763019395, -1.4052069232466458, 0.7562784987593519, 0.9522681284957492, 1.2318300863584912, 0.006608003221378337, 0.026867596755903955, -0.0021276743971924586, -0.054167859475165156, 0.11591574383294939, 0.01120308105336552, -0.13885324131454813, -0.6014248847289454, 0.8087152285802168, -0.0031007034566951953, 0.11287429620661227, -0.11141588692118257, -0.7852998863155325, 0.1143706284497224, 0.004778831156321077, -0.014601865801375914, 0.0016040747089309953, -0.24592420265900242, -0.6132284220717913, 0.013597083900671587, -0.00022047757307669434, -0.028895174542400474, 0.23654161290996972, -0.7041790507608167, 0.44051645762039665, -0.01778173815784995, -0.49907824594264694, -0.912703205172941, -0.011203703131531347, 0.003796061665534779, 0.03526407749253957, 1.348671252730421, 0.6703243647454049, 0.07729084901603579, -0.005915399938818843, 0.28124679744795106, -0.06082059675412442, -0.6567307168448349, -0.014900104876086645, -0.8053476702871786], [-0.0007167116234960691, -0.13406756530248953, 0.19759422648082559, -0.1939450136996395, -0.10887167422195884, -0.1802898283334455, -0.1348290493063359, 0.003222182885732562, 0.010252178264069609, -0.19693959195958252, 0.22676410654296328, 0.011477136298652633, 0.370113052216611, -0.25163720685424407, 0.007655305862992041, -0.08140152191774674, 0.014534484623321017, 0.016737109306136352, 0.173400520088822, -0.03786530710239804, 0.034339708191952374, 0.024338167119720408, -0.6462861179571872, 0.18651761921962118, 0.1812275654347148, -0.2642490229966753, 0.135189393162192, -0.25977797482206666, -0.02111656244702945, -0.0031785848733260984, -0.011407859589739545, -0.26963573029187426, 0.0704779149973197, -1.2862904978664664, 0.023197512920119873, -0.091630649587386, 0.35328195374569654, -0.2732366593115409, 0.03729216703426061, 0.0683841606582953, 0.31942487744432685, -0.33145241287986354, -1.544134141098805, -0.2042048387748664, -0.0353758324654601, -0.22633983169573277, 0.1321294934171258, 0.16848358140231398, -0.483549290044955, 0.20499933294038258, -0.007460965029487268, -0.48749914176268794, -0.008931786305196787, 0.09283480998906839, -0.04655178076073779, -0.24778327683162368, 0.24975227086119406, 0.05921744329849374, 0.9835845408320392, 0.13837265192634923, -0.09429380513941105, 0.014341260510791378, -0.023792867293515117, 0.4983008898874883, -0.28898548703525795, -1.3174609098995398, -0.1250819100421664, -0.44224417544741584, 0.009512036477039269, 0.005437647427673044, -0.015365729565954521, 0.10315555033794016, 0.6715886057354185, 0.005950567752873827, 0.16211121874748433, -0.36221532964012954, -0.41583669168034604, 0.007058632908510867, -0.020456634522117143, 0.08984985751663416, 0.38041242744993653, 0.11704571499076974, 0.0006530314524287177, 0.008005187547656912, 6.868249303782939e-05, 0.33511210589921364, -0.4086241253557267, -0.011833225378890451, -0.02325576355797431, -0.05545440440890837, -0.5863399405645979, -0.5263216447611512, -0.3593867668566924, 0.21347192710371765, 0.5259587619346052, 0.4324312160542103, 0.00839971334671166, 0.008213941175998442, -0.6293186984446878, -0.08547996429297736, -0.7147812385526474, 0.2783443551161844, 0.010108527492754529, -0.6994511037204884, 0.6365934826591187, 0.05871213762028909, -0.01290892002457426, 0.1651179269353129], [0.02328296797716231, -1.0378299293789923, -0.24386128485138064, 0.33708232115778397, -0.11903890702220253, -0.6787772083153734, -0.3425273365295159, -0.00906463018920663, -0.005728067593072752, 0.6535572968811518, -1.2035694864562478, -0.0063078648455088294, -0.1425672719077079, -0.12951099850200087, -0.0018862804954067444, 0.5727235035463624, -0.011406520415039876, 0.43049824220662725, -0.15243027122104813, -0.28259280447457835, 0.019270231676786407, -0.2550316220441722, -0.100409030451494, -0.4799722255331888, 0.6291684731978832, 0.15365480714374827, -0.28871744013782896, -0.28485150196921905, 0.174614359994027, -0.011847472936856871, -0.019646647758552023, 0.22580570985940615, 0.11604195439705325, 0.2708914318025908, -0.23089850482995733, 0.11226899617032608, 0.6506826632724505, -0.5869100787507697, -0.330519775972739, -0.10609088926147613, -0.15749483974832978, -0.2721790842690624, -0.31749352305704603, 0.8010040920679196, -0.16834587468088158, -0.14810002731609367, -0.07736934068370788, -0.010895903180514819, -0.664677566437024, -0.35813513393211605, 0.0044018234039377305, -0.058832724331480575, -0.005229800449734981, -0.2958016957343696, -0.4319519700399963, -0.15172041512086015, 0.75383069525592, -0.16637802905204882, -0.3003604200543374, -0.24924994791252125, -0.006173435732542743, 0.06995981561647008, 0.6157031384268083, -0.44133716832004105, -1.1298703203174834, -0.6936025361675963, 1.2422730261964963, -0.7809429180137888, 0.0005640480891341775, -0.009208466527515865, 0.0018869194315133085, -0.14060645750122683, -0.30698993131486957, -0.02499509652380795, 0.3021092032109422, -0.07597526958780185, -0.8210098957044693, -0.002921127789013755, 0.011424868109313579, -0.11210640332289878, -0.8420282907720186, -0.09605931492695154, -0.02183469695477314, 0.005897500680184314, -0.001689153786349662, -0.15869476918014894, 0.5951490634801317, 0.013335216641522154, 0.0028338670259750623, -0.7485292756007723, 0.6834640309808862, -0.8118302890504598, 0.09327717037643438, 0.1091017411874793, -0.9466176518638402, 0.6660733465622044, 0.014509892152692114, 0.0001646118099332133, 0.09767108901571886, 0.16585613503361393, 0.43599904366615383, -0.13792555484871238, 0.0015566460351533612, -0.7132466194841494, -0.6993582452455793, 0.03163056664097449, 0.0017301073223405792, 0.4849073260827627], [0.13037278839949945, 0.13573213157606093, 0.07625083280058272, -0.4251218693327249, 0.09089983588515937, -0.11769117250251547, -0.257630313176143, 0.007076746677311479, -0.003187325989991368, 0.46351670434747444, 2.384510232269018, 0.009276662865073946, -0.19020955442416018, 0.052163474244300095, 0.018836364371796394, -0.5967427102591202, 0.004582514487570719, 0.006369071110950935, 0.003792813316198157, -0.23130921524959036, -0.6207975440818274, -1.4529347585885637, 0.2659948951122083, -0.0457054425721119, 0.047613177851522914, 0.706141426935644, 0.1218998500104552, -0.23689063977667038, -0.4879792743870182, 0.0047404349145905925, 0.012155448873531625, 0.29031104044649747, 0.24624474466419902, 0.6324715391423547, -0.5553410969674499, 0.1106267728189371, 0.3157098735841492, 0.34822364749966295, -0.10550318798498086, 0.15632194840532151, 0.34583949746250436, 0.21188712091178616, -0.6902859237324988, 0.014422723760370598, 0.39230699186862206, -0.5560821972256901, -0.389282697557534, 0.28256610635388085, 0.40377115438572464, 0.39305067900858787, -0.016653088473194327, -0.1852086617785673, -0.0018862757422447255, 0.18667838708679663, -0.8219355486179333, -0.08754343423857038, 0.5904593100323534, -0.2950134070504295, 0.5543542576846123, -0.3337980023149255, -0.0344322775928562, -0.9001148822005677, 0.8377684692436994, 0.22727940387799983, -1.1012604858870896, -1.115712733765804, -1.0595009628527587, 0.16487890984004155, 0.000708388912731858, 0.003919002814949589, -0.012382859594332874, -0.6786646270247649, -0.9006567961042325, -0.005598207987556111, 0.07832793786792355, 0.2401628577685134, -0.8151363860248289, 0.000274449089944817, 0.31915317155379913, -0.10093481999018733, -0.27960561161127573, -0.11116060639233838, -0.007775496185900958, 0.0003580473227122595, 0.014202919233023024, -0.4046645169003173, 0.9467600012232947, 0.00016000531047257187, -0.0022474014041311704, -0.1362129713992527, -0.04120271439052212, 0.8790403266044742, 0.3566024144946036, -0.6538735597037881, -0.3629925404070194, -0.42223034731988957, 0.009785213390754858, 0.008893181431012047, 0.28438707004661457, -0.2138884517135145, -0.10922804338646623, 0.1888017324368782, 0.0014054760760557092, -1.0854833982232617, 1.0390938313598006, -0.34824438968195565, 0.0124079214138431, 0.21874422041541167], [-0.08829853731061918, -0.020435358559417693, -0.3697225989701379, -0.0651209670296545, 0.0036218600826547136, -0.7251040834469623, 0.18327942669203626, 0.002688324103769533, -0.00529402035365444, 0.37345768178726974, 0.4851335483714522, 0.004242981954917371, -0.24747138915098751, -0.32667365370202617, -0.0005762763200775125, 0.503583480900775, -0.0066979053004656034, -0.02592050649081824, -0.020048042300742128, -0.17437945916419145, 0.12881744287416272, 0.14526119853139735, 0.04586084778245528, 0.29509561358903214, -0.07898940743961184, -0.12137152955185361, -0.08354237351498636, -0.28597252629300257, 0.16596672197038329, 0.007816964862949501, 0.007157082730908105, 0.03364661055871334, -0.013258296177720393, 0.3465566231565023, -0.1096421260135088, 0.04283539731268901, 0.9824735955242514, 0.12325810358766243, -0.09811634997428686, -0.2175756382615599, -0.3256208446804488, -0.35984848466307084, 0.049397730216115, -0.2084852370507859, -0.0596079131673834, -0.2434629747691285, -0.2950250638930062, 0.22843842916013146, -0.3921045164325486, -0.371865833178714, 0.001774948239489895, -0.1278216776488528, -0.004718126397908006, -0.12163702224469633, -0.26446865089029925, -0.01728009697455698, -0.01826761045550898, -0.01757177216658614, 0.12684870282360367, -0.23360140452553346, 0.009921714499314768, 0.248709176582057, 0.4687729931264334, -0.44677025227203815, 0.6200874689782078, 0.5130937975067045, 0.3685569629600789, -0.3457880555035356, 0.014147949417181572, 0.014098985938687556, -0.00885900610574258, -0.1699637064891637, -0.13721088149656696, 0.02472146926273804, 0.06549803544870321, 0.20159015218971993, 0.12916744466396374, -0.002558616856413315, -0.40165079773816575, -0.07956563132374873, 0.008386552790178537, 0.014715208341072277, 0.0007624677254182337, -0.0279492742698935, 0.008130700941921839, 0.09760585548549784, 0.3760753933180196, 0.01655005680663916, 0.009096769849566205, -0.3326660221017621, 0.18560663403357305, -0.04977990476331657, 0.15424367027717592, 0.02925786303946212, 0.2945495320089356, 0.11575752108243265, 0.005786724386327343, 0.007477831422851984, 0.02716243639970462, 0.13290257098113806, 0.20390806446489107, -0.014592599576146184, 0.01442643690540941, 0.16287394326412644, 0.5350823757363605, -0.05623560270399227, -0.003166634604017855, 0.49803975358153707], [0.05130799017115956, -0.3673599577161019, -0.03478022887956329, -0.3128606565048921, 0.11065682856475752, 0.10492840347368959, -0.2566425282827299, -0.010802138628076696, -0.0040692226379442555, -0.22040179597794785, -0.8118599845812817, -0.005361328201056238, 0.515066544956918, -0.1709587724685949, -0.013812264252256243, -0.7195242359220314, 0.005900425944493163, 0.1449210319617961, 0.11948102668497795, 0.2940108488211878, 0.799984333995777, -1.4474767756164533, -0.49061057835467103, 0.49619699453530935, -0.9950687009536822, -0.5557488291706861, 0.1033765046769652, -0.1819502380062645, 0.728920950438217, -0.00941445571582997, 0.00719439342411329, 0.30180372315691345, 0.4166002159641371, -1.3906771792060288, -0.35597558184516653, -0.0987858133233774, -0.08709999885473894, -0.2023242519628815, -0.05285954756247919, 0.5495599678590615, -0.060810394261703656, 0.06696900963828731, -0.24755816904284653, 0.24971171064906117, -0.4231913914805954, -0.07709333123019695, 0.3422377759100748, -0.6672024763154801, 0.03796520809910166, 0.04586311950385553, -0.011919022317880739, 0.13901610333470318, 0.008810382933194553, 0.13068218287615127, 0.14123518794913717, -0.007650991552045567, -0.22631580151431072, -0.7084799489484879, -0.10489910079936962, -0.7921054971800119, -0.07246767431608217, -0.8313133191063082, -0.28575864843520654, 0.16315886576445662, 0.3325042141919936, 0.5117560963108178, 0.775659583255264, 0.33367923190039306, -0.005544729619076385, -0.012181825882119739, 0.005041025199541896, -0.15639689565021314, 0.014370541202187517, -0.008252562302715514, 0.03244447480637729, 0.14326564729389232, 0.3774485213612518, -0.02204387804568326, 0.32805813586184646, 0.09805552873881125, 0.3292144223560191, -0.10133074324051741, 0.0031614738813620816, -0.00153550182379091, -0.01831240393489293, 0.5142470737482494, 0.14766923841548726, -0.010127268767343775, 0.021375478720721344, -0.3326983881060867, 0.1238641799760365, 0.7590751749752844, -0.3105468721379927, 0.4030661896413397, 0.164005167539758, 0.31716569474930856, 0.004347047408186738, 0.0029293800074803216, -0.32219380965674843, 0.10225225889513662, -0.372204199996065, -0.45432291974494404, -0.010084062644384472, -0.14049379441466733, 0.35437834460913786, -0.0033304004889940296, 0.011338883474477727, 0.6662176905504237], [-0.5964352968650697, -0.35232071849756075, 0.21369995735018812, 0.17974635151866472, -0.09686229346315403, 0.11888800242525584, -0.7203970818125532, -0.006730318655453857, -0.002056453805152939, 0.19203876539142423, -0.36178757161220565, 0.013101337475211536, 0.22264780736618112, 0.02859316758592609, 0.00018716226543842327, -0.2863722591194727, 0.009827947872169247, 0.40581858578499697, 0.18485270236689944, 0.05598704335209434, -0.3055241941394797, 0.20938144766373348, 0.7124204231304435, -0.38886303853386517, 0.03620905752474732, -0.038584355386129074, 0.2992696767922337, 0.1656104802788608, -0.12307428049400222, -0.006579549834935465, 0.019588000370595722, -0.17122332735834442, 0.12349926178013071, 0.2851534457745256, 0.2206273125419467, 0.08724591769995477, 0.35729761175862135, 0.6270954305666208, 0.7461846439356861, 0.5071002914569289, 0.019585083490803346, 0.8647718229094632, 1.4733094447589858, -0.5297054290935745, -0.3467764217385138, 0.5739753378418728, 0.3054353876710116, -0.08122892744910667, -0.05047992804056023, 0.04467574022303081, 0.002198488657549925, -0.185485269297668, 0.0028501584088206837, -0.09572824244951438, -0.4199617088343185, 0.049623441824596895, -0.850087423524411, -0.623119700922035, -0.27605285957104536, -0.22963916689587396, -0.10128723718292931, -2.415082460523618, -0.197984607281826, 0.21581257630690745, -0.13434278775331568, 0.07699537141362847, -0.5629716259242683, 0.930821618710091, 0.019436122253174096, -0.007419040209033242, -0.0027619748029000203, 0.011255108138598076, 0.09583013888120603, 0.015623563631791118, -0.27495461475502836, -0.8647084058291813, -1.3886594477648861, 0.009821212955090492, 0.0645106927980488, 0.10108881366758474, -0.4204716362601004, -0.09518108673479367, -0.002478771341951711, 0.005813992202603331, -0.006439490123141684, -0.2160180301041354, -0.2442681698490241, 0.009080001072612509, -0.007567231827215109, 0.043782579799169594, -1.0126850453504461, 0.08792746681368797, -0.471484142033375, -0.101854924818686, 0.6603014038904333, -0.851193205941048, -0.005950626018799661, 0.01336327593910558, -0.40164487772045643, -0.017832891166779448, -0.33271092488520176, -0.08046806333088047, -0.005672298771495802, 0.3761658312966219, 0.08072678986044793, 0.32627192465706173, -0.0026116067245606583, -0.499232524391856], [-0.24147474235083582, -0.21676502656637656, -0.009176708170916998, 0.009928076619410796, -0.11147146117112641, -0.6228675569634913, 1.310053610438109, -0.02104700834300463, 0.016891373191028992, 1.2559487768886826, -0.430999637486609, -0.012579081897110142, 0.13306843916954927, -0.14149471147933582, 0.0054073421618007, 0.004960659204377702, -0.012971933669397463, 0.24219808451749988, -0.0888015560875519, -0.43737409833605345, -0.41015338385242556, 0.4097720040035294, 0.07783067008248523, -0.6085605456852525, 0.8671777635502809, 0.30345818775587396, 0.12755877774591562, -0.15609233360992336, -0.678915115197187, 0.013255401942122548, 0.020431592388265054, -0.4452575332444294, -0.35617694500289704, 0.2714830756614023, -0.4079521933502004, -0.10040202836843137, -0.08374036276749076, -0.3676800882607773, 0.2905337777876986, -0.5347084079973854, -0.2044629721713776, 0.10172773435800843, -0.8373407489982307, 0.13835364560822913, -0.08059420567863484, -0.05139080101075275, -0.2946419100465173, 0.25181828065455103, -0.97497721343285, -0.1756555108598339, 0.003927064372405779, -0.15475892407601402, 0.005445219184353871, -0.18516528091387752, -0.2545743771768514, 0.0661405145698956, 0.15165906326478484, -0.12861888605900967, -0.15285397313369467, 0.2439200892941677, -0.019771291011586395, -0.5156691131387379, 0.8764985335668644, -0.3687046415411185, -1.3797098052712629, 0.032075117876337114, 0.40451576734362926, 0.6868728217826046, 0.0028073793708862146, 0.00457101629253542, -0.009972389782619065, 0.6215962856178495, -0.14259583120759853, -0.007292260010830552, -0.046037827553277275, 0.5427436643873866, -0.7980561638761141, -0.001552426094365041, 0.03250029590056778, -0.10227568941604132, -0.5308777275810138, -0.10218540514831398, -0.011352795444958427, -0.008711372786556263, -0.007803446218703618, -0.0723052450381769, 0.05217425916207115, -0.0011821052230563958, 0.010134672960546215, 0.05160050821629229, -0.20540727369227305, -0.35303912602112586, 0.00809286324021009, -0.05957068676401533, -0.40234824936095914, 0.7859780545752323, 0.006250112668960428, -0.002240153791988919, 0.7214482576330481, 0.8578227479969791, 0.021463435663578084, 0.23149701873149475, -0.014989408599061225, -0.7195251937912069, -0.42441631767116633, -0.33896196886105245, 0.016536917594376352, -0.08545559908859976], [0.0279142905253753, -0.6873300666085365, -0.004368023846781225, -0.20036824166090442, 0.06887282741812348, -0.5744896757713969, -0.7779935055469588, 0.00853483026231814, 0.002755024346776202, -0.8149373229639327, 0.3638570378129508, -0.019728842844826823, 0.10212577133496369, -0.012283550556466478, -0.01102764282352489, 1.2873825971545632, -0.009850118944076539, -0.38390391456768896, -0.1892890888716277, -0.045558611713555935, 0.31936621930947445, -0.36755643552876727, -0.8613646217508942, -0.15742171496226, -0.5729977449392285, -0.0901734354704527, -0.20357668966933018, -0.13895857195898273, 0.6164806400003195, -0.01551177861106349, -0.010191663579263176, 0.28277199963808153, 0.23297974532921442, -0.5414563146028908, -0.5845786580363833, -0.095933286458022, 0.28220242174827814, -0.12365455538164316, -0.8309194028660232, -0.10003155039829914, 0.2154269398097786, -1.2452595603788268, -0.0005421378087789302, -1.5164480233911302, -0.02685844886802654, -0.20147059521811508, -0.31269046703006975, -0.059195579072010895, -1.29285309035119, -0.05531675400304428, 0.015373564015315795, -0.4966203334460009, -0.00032053288481391696, -0.35143870937381283, 0.050101347327247726, -0.12311919379812108, -0.05425907696215733, 0.32803349802456294, -0.7445578913350812, -0.5065684575019554, 0.0032699317300511495, 1.059425490808969, -0.24832044308646212, -0.40573032281433613, -0.25850771012274754, 0.3110384225023667, -1.2418907898977172, -0.5313931173878254, -0.001993954233947951, -0.022665371961751415, 0.003491794795100499, -0.7092980930333168, 0.18843641263847047, 0.0083537971600753, -0.1806875203247747, 0.28366527938790104, -0.4585697655193124, -0.010020568209545319, 0.24359445489309503, -0.1147051618648725, 0.2830177280514722, -0.10613649174886564, 0.013814320171810175, -0.0029504602747393843, 0.007415395396414773, 0.6263493449015395, -0.4350146609087713, 0.020623254888118985, -0.006049955603267602, -0.285521582749252, 0.35040886852055186, 0.7426083482409996, -0.11326861403811407, 0.3216434306377965, -1.3628463129570472, -0.5833588024958389, -0.020711733123947636, -0.01922208669347223, -0.34270880197799675, -0.7408524809049637, -0.2163320782552849, -0.3170516234941033, -0.01359314219625416, -0.41501797802262236, -0.8160808452282495, -1.0756818849165708, -0.008716114079230248, 0.2559696245701105], [0.021520656843772665, -0.11364118008192799, -0.12060886171107868, -1.070311815111902, -0.09926048295086819, -0.3750622780517832, 0.29298133773375273, -0.00960337661506489, 0.011958484395032056, 0.1577297954661277, 0.28322893635158747, -0.0012976274861272988, -0.30742721495840153, -0.16210793232866552, 0.003827447424374117, 0.4053258042809651, -0.017017685792165324, -0.2745829999404497, -0.14234149836232676, -0.005879666772951615, -0.43920614932422103, 0.17255857443175476, -0.3145999485045888, -0.26475515131845606, -0.30435563539405974, -0.2392115513042176, -0.11934340936447921, -0.19661996802082882, -0.14080205602671805, -0.012847761677422596, -0.004995687296332995, -0.04970049046271921, -0.19906597844882845, -0.057696514900036064, -0.36596163870697085, -0.10026042337674893, -0.1064082239219942, 0.3557610518585069, -0.9193242828456141, 0.007007468375202006, -0.2441793728995932, -0.07212604259677809, -0.05650987555999075, 0.17423273251722743, -0.17838676725660546, 0.208987272201389, -0.5649757784287524, -0.29330097670710203, -0.5907688336114162, 0.11599022169597802, -0.0015480141728925543, 0.3179407564077164, -0.005904238703689446, -0.03736274106610202, -0.3009685499265066, -0.25703169471582077, -0.028204503601930133, -0.17625599577215953, 0.5824875428113822, 0.13333813248108017, 0.016884119737133284, -0.0899932639157426, -0.2586630165625464, -0.3520786042580855, 0.07198093241344714, 0.6363248927759686, 0.5206013587549291, -0.9638204241807102, 0.017922121861538395, -0.000675906666541795, 0.01854780290144113, -0.3982753044876825, 0.55572953732984, -0.006703540641615989, 0.21646192692788618, 0.002548680580183877, 0.006148532963346609, -0.008885768176666687, 0.06251700182076483, -0.11292422238570883, -0.34111438684231105, -0.08118305218561302, 0.0010289750938846025, -0.0019570183273426196, -0.01217031568848892, -0.024713986639262504, 0.1538064740178705, -0.0038844729952779854, -0.011664428439886285, -0.3028346532099357, 0.24620049086136944, -0.07389250394237923, -0.23778348894336318, 0.0073029360822724, 0.05077579879263403, 0.1114814809956771, 0.007364218203976928, -0.009689643975488946, 0.26101273240539197, -0.08001945219031106, 0.4112984527187396, 0.1259602280704756, 0.002724900408556406, 0.9292965902882134, -0.05076549109549866, 0.607980329828077, -0.007231461443737431, 0.25174611418158893], [0.14042855256190365, -0.37255615168172196, -0.3592322031085957, -0.8745609723905319, -0.09028656563634384, 0.04783518268899214, -0.6546566508330567, 0.0025784932947461375, 