{"input_to_hidden_weights": [[0.013443444518547114, -0.48157772147497685, 0.0453948159954846, 1.1284735792443998, 0.9153752832957394, -0.00852880532341747, 0.30712534779973455, 0.44214107716721784, 0.09422019213631092, 0.024394228069877805, 0.006303498699768675, 0.24785232670532298, -0.01655987660575215, 0.6302794329944419, 0.43774597586651187, -0.010062896784684463, -0.0034762816614649873, -1.7574598747910208, 0.5977085732411542, 0.8623114873907327, -0.18178243992540427, 0.00766112009994624, 0.11578530165790836, -0.7174536356783382, 0.5174247609968634, -0.42214772630264014, 0.9769146247969962, 1.1373950433092999, -0.002590215652532013, -0.5888137244968327, 0.0631660458040192, -0.5606961577964737, 0.00935617179232765, 0.4062823919431189, 0.19537822829508497, 0.2558356126854045, 0.08509283058434376, 0.0006664315739726536, -0.335126778228394, -0.055952442218837384, -0.0031497681816076645, -0.5029954779625962, -3.062478020054219, -1.2076456946694232, -0.42173084282979756, -0.005750695811755239, -0.07254265278726621, -0.14215671460265866, -1.7063801021249583, 0.080922453115675, 0.20906999624695918, -0.021856456964057337, 0.33818514704249936, 0.1726975448204367, -0.0020457370880775224, -2.133787186453102, 1.1311966529661042, 0.1600725584782092, 0.005159406666808708, -0.007761922833450252, 0.1047780838591159, -0.7246757488046313, -0.0332197319216667, 0.011787354325275013, 0.01239019547968729, -0.47359060924680696, 0.07002182666615545, -0.003982301541887577, 0.16083283208162558, 0.7774325436962497, -0.29214594421424117, -0.6456820901539755, -0.010133149107238082, -0.024040998663112025, -0.6789844575209613, 0.021495661373427122, 0.1497061630987887, 1.1684804596606184, 0.09085828389056386, -0.5210679351460348, 0.04831320841142304, 0.9970564709308728, -0.48159484651795303, -0.30487699603336293, -0.001021209500042879, -0.13132789794964436, -0.9429576932037382, -0.19280532659860822, 0.0024877947417495383, 0.15107535056408192, 0.1025210405782212, -0.5379908107733682, -0.013409113470657236, -0.1764112231465781, -0.14081331661955598, -0.6815697825899841, 1.1512010330351066, 0.008336921887125622, -0.6387462175732647, 0.6970247127364257, 0.12609421668054338, 0.5175834385622761, -0.005438361062669833, -0.15058363901365449, 0.6531329734326442, -0.015363360950196999, 0.39967512872462024, 0.33008103894772317], [0.0029272864151346618, -0.9255750389693834, -1.5587351603645174, 0.5594919995972308, -1.3248691291343215, -0.0007278599842706683, 0.5404203361316002, -0.6505497979061564, -0.15911627573925374, -1.4828618609600686, -0.7212998924772863, -2.7980159555032773, 0.49097638380811814, -0.8640398724840189, -0.008350484078349298, -0.09724069542242125, -0.01140712786146371, 1.3659488988868473, 3.1255540384605403, -1.7245474509154914, 3.141453157720028, -0.0045033319825354134, 0.024071679246904086, 1.330378121409579, 1.011575175743226, 0.22495018409814202, -1.9579427576400557, -0.4381526243861014, 0.11090287360449877, 0.06658818189202666, 0.4367568796245322, -1.8176059432867522, -1.9509129168008141, -0.7678774093942746, -1.8375137716090495, 0.29721921454450784, -0.366619239762756, 0.022586487791765468, -2.5529996659057925, -1.5160420467009776, -0.027540755441727103, 1.1109086211693917, 3.631400573751309, 1.1966523738166672, -0.31782590603214916, -0.0017146647760240144, 0.5453535386827273, -1.5572631236978736, 1.0688255014245647, -0.7012459939143884, 0.3429763277485073, -0.09909044747001819, 0.5998061323008458, 0.7613903886451312, 0.008896329011457916, -2.6384698520997025, -1.2584171003193454, -1.574208319212021, 0.0044886932704429556, -0.004218654972461368, -0.13149833503721065, -1.158662316281524, 0.09756880285585534, -0.0021900711929267822, -0.018126920259280574, 0.3021491675828852, -0.18279189956309555, 0.0002326502197654461, -2.0218039427365433, -0.47730342633446926, -1.3245582957529984, 1.530707195661285, 0.012495094058566698, -0.6201007183868015, 0.9755991601134414, -0.01999092643965683, -1.3386555205308666, -2.2671695498602946, -0.09960031444153353, -0.7767043668670905, 0.09149599863341507, -0.5589202865372885, -1.05221356949611, -2.327970597766609, 0.003936452438840892, -0.27638677996319083, -2.4745525414926015, -1.9007196120760588, 0.10690411832895774, -0.2976583986503544, -0.2585531321113936, -1.3349248522957138, -0.09239974601999464, 1.0967467371169366, -0.9097418293096696, -1.464038677690166, -0.18069835720079044, -0.0045435178050266005, -1.1951608460777836, -0.8584572919585042, -0.8859696298199184, -0.20194565453342816, 0.0002246145638100416, 1.453082432103953, 2.1989798104277223, 0.0024174432787219626, -0.27307908308255396, -1.8601661666150762], [0.019258810211701817, 0.26292118282617616, -0.08022128367920454, 0.17722742624005494, 1.0360350588881835, -0.011248755387335583, -0.24920023686403317, 0.09064972104350075, 0.3709774993484193, 0.3921720209304279, 0.7489177090692998, -0.20651339248713987, 0.38750747322467255, -1.0230539794999278, 0.09983695611727612, 0.04404218155751818, -0.009832985719394553, -0.34214979321943656, 0.3335218363302976, -0.0586849276612047, 0.06305821664536822, -0.001240986135598266, 0.27141514107408976, -0.16784119518424181, -0.018097345461153998, 0.5196321574490741, -0.7843997099636116, 0.6643960082766363, 0.09488440298462744, -0.1955377183764519, -0.5462459159379204, -0.3539864413802718, -2.3039686710774054, 0.4890963462149558, 0.2618792144383319, 0.40481291034131406, 0.034925927392933646, 0.010126958196649492, 0.05260461879726024, 0.2933522710972951, 0.005486106395523991, -0.004214539246412786, -0.3335510218398584, -0.18718174585770928, -0.32478563732276894, -0.007732814832383279, 0.13758188322199255, 0.6257325878378718, -0.7148201809451268, -0.029932526028856158, -0.07529448352854544, -0.6693188217521031, -0.23124006966244046, -0.41706770646778396, -0.011327626283494175, -2.6279990133246427, 0.6646850252908995, -0.49795283140918295, 0.004492935153693031, -0.0127206030630616, 0.3606664915877858, -0.8910197476492571, 0.07678442151061293, -0.015131569384901948, 0.004810531387789681, -0.13618392686003283, 0.6201054954439744, 7.700062481788463e-05, -0.5124088713298506, 0.15777828247957915, 0.8561463376399654, 0.373515995465778, 0.0008716599703497397, 0.30751799921844025, -0.21966434601461687, 0.5044784385999729, -1.336594538050239, 0.7973346281227456, -0.10354208825624428, -0.06422306383548204, 0.20758523706155285, -0.3394023279107217, -0.6876727672372811, 0.36808541419421137, 0.011941807986240895, -0.06465323198668727, 0.7669093427766617, 0.8113886957921301, -0.10047460108278126, -0.17726676583074427, 0.48169058616729304, -1.1907356047697544, 0.20470333354463904, 0.2197317540781819, 0.09076089576441183, 0.8524659413046967, 1.5464645429339592, 0.008232258905108597, 0.5504301374227154, -0.2754717661010355, -0.6112054404203492, -0.12378359624300327, 0.006011897780266332, 0.0007960548590345611, -0.39108586015912356, -0.0008618430117179482, -0.24326595604693896, 2.1377645729276167], [0.005614598458291788, -0.5007672280200555, 0.03628390402573074, -0.08626677219015817, -0.5196182357261708, 3.285617747920113e-05, 0.2339952819093133, 0.02891074235448995, -0.006440167117709868, -0.24880257234991773, 0.03772875428232111, 0.1564349236879435, 0.27557630315233145, 0.7309095001712421, 0.016077614568377776, 0.004394571251750022, 0.009316416501539302, 0.04206225607271465, 0.42054110290401175, 0.24955047911529943, -0.2634101193887005, -0.000860722198620507, 0.10578546306121944, 0.1969888617360554, 0.18656098539138963, 0.4034238250459905, 0.3851632036773768, 0.3827924442838533, 0.09531406751075981, -0.1250261300098541, -0.25208102004210586, -0.20474375664589028, 0.03887394243670447, 0.0845868687394547, 0.8977146995692427, -0.04438069424477894, 0.051307677554488326, 0.009390784155874618, 0.29587420098517714, 0.7524159013504635, 0.006639072156558913, -0.682065333149094, -1.4942025020623797, 0.654804334922766, -0.5265060080501699, -0.007847151567024143, -0.09717812783693841, 0.06863823911884614, -0.68220285743637, -0.2626158654510146, 0.10889053699067289, -0.0400629652848487, 0.2490667799994005, 0.1951236111163672, 0.02355639889990095, -1.8979704355292542, -0.10722670218802809, -0.03311664351939266, 0.016000481711751672, 0.000612168219831392, 0.001245879369095282, -1.1127679053691621, 0.005903103846406074, 0.00018037315275653464, 0.013535275960388775, 0.27824278975671374, -0.11909147361883027, -0.0077887213727913995, -0.4875305764553383, -2.1707285915309766, -0.5063373938443343, 0.19567451311702314, -0.004803942530700243, -0.11728892191867174, 1.37510082562867, -0.012611495036676117, 0.0979031313468921, 0.11001195108540618, 0.0856542326934721, -0.09698437462188816, 0.3860626333999499, 0.09348664675056631, -1.2251626186778481, -0.5424119423209676, 0.0023940795011845243, 0.12238381091251245, 0.558975963348572, 0.44140596355593253, -0.0692894814858132, 0.5517701658181943, 0.03448497195312863, 0.21153169648442896, 0.044044834568261346, -2.1351982453792617, 0.05692397246944457, -1.8163682910563297, -1.1444285955870914, -0.010900806560457029, -0.0008349762544398075, 0.6586432892758105, -0.18494088183504612, -0.0671422070616903, 0.003102826794579714, 0.15225286298037352, -0.469367005927595, -0.0007119602953999676, 0.5096020424158898, -1.0876134456292972], [-0.012375184591250782, 0.3653039075758253, 0.31564487121146234, -2.212290019197978, 1.0638043940285835, 0.004752061964968511, 0.08832182266117773, 0.47375381443727643, 0.2027822068259788, 0.11053351693152232, 1.2885246853834695, 0.9934341629509224, -0.12009261145835899, -1.3931833283670367, 0.4609428827592794, 0.011828361860630333, -0.002021569718972407, -1.6540041931378626, 0.566090758690472, -1.3500264929122634, -0.32332898902382595, -0.0020614495457914085, 0.24967663898130044, 1.8748315698106515, -0.08547897406635352, 0.26923611100594164, -0.6683731722111607, 0.7122092707733223, 0.011179538647086677, -0.2448292194158983, -1.1092127680285881, -0.40794700616503193, 1.2977189847436446, 1.10784217438958, -0.21092402671429136, 0.3313553985700559, 0.3635432843083534, 0.0071805209667025974, -0.27844780588613105, -0.9123555233152374, -0.0034717593997081343, 1.3710602567191306, 0.9802242863472519, 0.5922820433522149, -0.08867624003490276, -0.012202759415803895, 0.127187542376756, -0.8387081404538456, -0.5569736369603882, 0.755735542790888, -0.1671763248077156, 0.27973086493301275, -0.38652397046694215, -0.23358170418763088, -0.006161059904927681, 0.6455133293881481, 0.523896626367948, 1.3606720897325844, 0.004015117038963636, 0.0031097771877867586, 0.32996075815596365, -1.5684414130988042, 0.10497626174236603, -0.007104394595348652, 0.015271937325066614, 0.06688337496527033, 0.333905544947561, -0.018887285773215603, -0.04841571793586876, -0.9537167139182955, 1.2867068133132038, -0.3784672771323164, 0.009121231961807566, -0.18028997073447686, 0.8024909997478817, 0.4175369190652466, -0.6449252529608708, -0.08418498768562144, 0.10587985644062305, 0.10005085707884843, -0.9053541819630395, 0.16935756372080318, 0.3336358064346165, 0.9826643291714067, -0.005216707126524817, 1.0290151039015454, -3.8547794775927793, 1.1438926111184553, 0.012222158646656255, 0.04584295016334299, 0.14209577393191905, -0.6679231816292418, -0.009323232653768328, -0.7991732983616237, -0.2708449367130524, -0.1370971348437576, -0.046611812867667676, 0.006635332872003586, -0.4204880960649465, -1.0029181195131498, 0.7864652824092823, 0.1866890617171636, 0.00412259240852163, 0.45562934541194405, 0.766640809771072, 0.004703347132265939, -0.7444667627223804, -1.6525662545520359], [-0.002677709090354774, -0.15345739158477184, 0.3171818098145278, 1.9421730087870606, -0.4573796071499555, -0.0021244849644393615, 0.010619899734768255, -0.11352301177106634, -0.005872859613726457, -0.11157997755692614, 0.2805371068196467, -0.24593288409707562, 0.15606753108843208, -0.5498517765470791, 0.021090096662709605, -0.0028410477747662977, -0.008391611578884232, 0.206493541266721, 0.13962281108737548, -0.04532710254006195, 0.8109555879305032, -0.011124521094628501, -0.10152424218158228, -2.5583683912776016, 0.31439719804529337, -0.3148726126093593, 0.09923205702462995, 0.9158843826353372, 0.009457343118783625, -0.42029427841193817, -0.7322890385277503, -0.005024727275410146, -0.16276470244252872, -1.3285936210453804, 0.1147472838094623, -0.1820294876740322, 0.0042072505340195335, 0.009360757718708932, 0.2597167909198959, 0.14476701705093464, 0.0034989809475760927, -2.685496946114895, 0.6580083677629442, -1.2760057833116263, -1.8088490174832683, 0.00827940062159314, -0.37790540364249203, 0.12274670039199863, -0.5495788556571555, 0.063336990115583, -0.13692282767226677, -0.18924088421800453, 0.4068763502808818, 0.41885131657047175, -0.01579337794851035, 0.07859260512259886, -0.20962265190654536, 0.546757443418349, -0.005157428573486047, 0.018312886703870993, 0.01695230914879107, -0.48580362206918015, -0.09792163392930896, 0.015267826560826552, 0.003933594898888178, -0.5096345770514352, -0.10050337470588433, -0.0005546559196328254, -0.5643377222365107, 0.7095731467436447, 0.8037928709868235, -0.7665494943663295, 0.011526713260682948, -0.3056777215230614, -0.23813399789371015, -0.08395135185771627, -0.01662027054421844, 0.5773523657738414, 0.10789072463931974, -0.11453778468603527, -0.24761963237852408, -0.021070334246250936, -1.566676350915515, 0.6842102440698823, -0.020347716809743902, -0.21027821782649983, 0.4958617102833565, -0.8760940208415882, -0.001144001238234025, 1.2884317399145855, -0.0004151778599425372, -1.2833769551196423, 0.007085347106947839, 0.20479339532896915, -0.33803497593259246, -0.05634319698759013, -0.737014197638854, 0.009634612250080209, 0.576966262549203, 1.5354171008741506, 0.5368502623836388, -0.29238228233119407, -0.002727114308131688, 0.37768758723623524, -0.4220296299762338, 0.0015216692753126809, 0.19294429729507673, -0.5209013246321785], [0.0036796053713753878, -0.3478438448716607, 0.13977608540046618, -0.19355445341650884, -0.6601871075410036, -0.01264554030450453, -0.006844294374849987, -1.5040267828117702, -0.04152468644482064, 0.8112967184117066, 0.7758215578844957, -0.49584421843589616, -0.0872608138188246, -0.04870682231010985, -0.004694325172015521, -0.0032215144071689717, 0.004407905764842634, -0.5887475576212613, 0.20676308330424428, -0.35787469253582405, -0.14071307131848618, -0.002531826639178602, -0.10624207091039928, -0.17015830023676523, -0.250004440084101, 0.4767417309869085, 0.02821438057206692, -0.41390844061543675, -0.07901018206599483, 0.5747613630273118, -0.39200876454774175, 0.1374751088449872, -0.0050923446674151825, 0.12264090922711005, 0.03631911212502725, -0.12343359570008074, -0.0030101184216822785, 0.006652454362322179, 0.2616008584119376, -1.0882353476306803, -0.0019628626916317745, 0.12884696355028044, 0.012221940542932772, -0.21655925033798692, 0.28060247087351914, -0.0021985778278642734, 0.30957924614281906, -0.2958788638456983, 1.257489738843099, 0.03666336931467932, 0.22354837254907214, 0.010602500493590683, -0.023902721981883916, -0.0918862304576787, 0.014211988116835123, 2.062371777193358, 0.6074538652807469, 0.545874262160323, -0.012178677115284003, -0.004786446643599866, -0.0040157862103454645, -0.5730674009032937, -0.005558437947133547, -0.00990291307797326, -0.012465087627923262, 0.32531005348259234, -0.054728051786443466, -0.01103280336884698, -0.040712722497513905, -0.20199052764476835, -0.08229377360660296, 0.1546874832641811, 0.014888946763660075, 0.22001184912914407, -0.023047338463157065, -0.13421176037143573, 0.43974511191420296, -0.03363754342878551, 0.09983813962411978, 0.6600104019803215, 1.5546444990567343, 0.09220768480954636, 1.1767001613255923, -0.9029648528449126, 0.013120972729816395, 0.005926820052328275, 0.15938353067494088, -0.4179014104256952, -0.004262232609389664, 0.15102017332557952, -0.00541100594813972, -0.9427272183485427, -0.01039639877533055, 2.2975449676520268, -0.0020054523058953473, -0.04995696125046782, -0.6412637574635062, -0.002516549603571478, 0.025025953536228943, 0.34076403053250304, 0.1053236218463217, 0.07362698113002154, -0.020853806636804882, 0.07693715019278416, 0.5125417167124915, 0.014993818209804012, -1.1836089755049708, 0.9051710218475373], [-0.013920197563038654, -0.1123114430697952, 0.12080225681946836, -0.5403991634265879, -0.7657473830658259, 0.0008809377870861236, 0.5918850036858639, -0.30492403503605714, -0.14662434239589256, 0.28840652481266155, -1.256824194229472, -0.0851105928264481, 0.0005426271455427438, 0.44444662033890714, -0.22933336491532375, 0.006960851211698408, -0.020266668492888197, -0.37364252229911654, -0.11888737397596584, -0.01048409284299545, -0.2035347554388054, -0.00872819440511538, -0.010942379289611837, -0.05458774913637084, 0.0627485182972601, -1.165010869038807, 0.22188188091483843, 0.21058482015634566, 0.011781213650902227, -0.17004851184812525, 0.10007757155585344, 0.26409872604218987, -0.06923298583786607, 0.6907373303699079, 0.40284033883135517, -0.07646063913948468, -0.13413127208543038, 0.004273415569943067, 0.369121349634136, -0.23387045226601483, -0.00934449097936341, -0.32577914930071905, -0.17967397838234309, 0.7588830365067499, -0.4774807292871432, 0.009253300637682186, -0.14738142512273042, -0.13780605417962025, -0.08628803774980215, -0.13480403395729126, -0.008400665783013959, -0.10123998092010539, -0.012157501395579596, 0.04359366394873231, 0.010242549980611864, 0.5034031637522486, 0.5217433404142777, 0.08726024322886965, 0.005584520581359568, 0.012424920423783474, -0.11545586981932898, -0.0938937511156316, -0.002917546517288131, 0.0027740940486453668, -0.008223190392798176, 0.5598594840166059, -0.028989847909886866, 0.003961729427526142, -0.08077049458840245, -0.24166217849975608, -0.11249982700806828, -0.19548659947610536, 0.0022298907457938546, -0.002981775295422699, -0.19245446194272164, -0.15630137254690807, 0.2466018498080915, 0.4145283188886933, 0.09669087466690872, 0.5123412525477518, -0.2097214044309955, -0.04646283605016619, 0.631006878073594, -0.301820793892572, -0.013165382342240966, 0.1514277534801463, -1.373031223993868, 0.5862355011363508, 0.005038557286272435, 0.0661434570546079, -0.08785536421494963, -1.6877963425462943, -0.01056477768378897, -0.5802111538873089, -0.07491435844345529, -0.20310204638178367, 0.15767301231735378, 0.002372343973110762, -0.08172729410337953, 1.2737779185600417, 0.041235630668603175, 0.06642453966327111, -0.0028626483575045786, 0.04037582656197959, 0.12824518838125787, -0.0001514126160486673, 0.1618147909109787, -0.22756612151582756], [0.005323274196014832, 0.2982282600103989, -0.013008868984132593, 0.5313917118532258, -0.30912903675016445, -0.008428941112065704, 0.026035930258383504, -1.0627373046948803, -0.08603314242088167, 0.5766173973487113, -0.23199069749153478, 0.4021561326236387, -0.4033535823626589, -0.38488790901835146, -0.03786789506250739, 0.006738870687125162, 0.00819669621815496, -1.0887979948816073, -0.09487853426364927, 0.32060469226677596, 1.0163745782716167, 0.00869810748267151, -0.01705357350936505, -0.9621430534841164, 0.23183701593681927, -0.5719485362830039, -0.06955636110511655, -0.08754977470838704, -0.0015009775733456235, -0.40866044230078835, -0.8731006849996642, 0.3300853295403391, -0.1261358678170571, -0.6691601349417791, 0.2265982755013449, -0.09141726705692466, -0.0017340045787006492, 0.007674390456598818, -0.55095490638838, 0.5994789044676074, 0.017564534187645666, 1.870679630234935, 1.312779414913877, -0.40257975135873303, 0.8770053550123224, 0.0005195961406534468, -0.1752056173268154, -0.6181989238537579, 0.8964792561208307, -0.4839641256015573, 0.11724041008035845, -0.0273464972059858, -0.08091905617456999, 0.5296418118611942, -0.016158309882870887, -0.0029358686972153617, -0.5518007599313675, 0.2174505742864551, 0.0030106638205385666, -0.007876025971060734, 0.007601096284644202, -0.8168003261401424, 0.09214020816409274, -0.006395894608940621, -0.0026765497440165193, -1.063451832153379, -0.021286140271730387, 0.00710630887396567, -0.5837842511677821, -0.653968398279726, -0.14092972894803854, -0.9132008286531369, -0.0274002661342611, 0.000808175234047942, -0.6634723811661792, 0.09290907118264038, 0.30020648509086584, -0.46350712310439623, -0.0854921916168287, 0.046371111088097584, 0.7011217677721334, -0.681234905410954, -0.5224650570011892, 0.4297251426499811, 0.010135539317988648, 0.5938298347256846, 2.689578229148948, -1.4040057426571084, -0.002128009936529023, 0.4286193432699551, -0.010019166367942665, 0.733481301529679, -0.004146738089786789, 0.20534382790830222, -0.12487462251794905, -0.058567195426890484, -0.28666894712755037, -0.000136965261885228, -0.4029781178856078, 1.1005235884329754, -0.03608985212317827, 0.30241431685904296, -0.008385533131841226, 1.4169055148678993, -0.3587680301943737, 0.00804021899973097, 0.49278195509897904, 1.5007471633263387], [0.0009463462966877891, -0.24933780171708161, 0.19845920475659415, -0.45976972188421433, 0.12208001592667314, -0.01427022268185097, 0.13217719633168723, -0.19144692710931863, -0.021642796962993066, 0.7128135418688402, -0.49530388084920124, -0.19574428678982989, -0.11677115993316077, 0.0184908493720873, -0.4415689561727954, -0.033512233510408315, -0.01060234885690119, 1.3787590883537535, -0.5650341702916344, -0.12022950001952921, -0.18799062550414758, -0.014261776534387658, -0.07384612880406707, 0.8167338893634168, 0.17028737925490106, -0.21019057501543095, -0.26625973812921483, -0.6499159131893948, 0.001076825784890043, 0.46100582463411305, -0.2439958561092913, 0.11445386688271296, 0.40770115479431346, -0.9436972403198972, 0.9849274997196016, -0.11159356857883652, -0.5045233038217293, -0.007052161746719474, 4.515787673070931, -1.4380818749694473, -0.009514082279503207, -0.2789302359505752, 0.5988283316553021, -0.7682729833782855, -0.028197832849887933, 0.014556239628380213, -0.17931221073537362, -0.06357853673858206, 0.45413118726627005, 0.007137774131222698, -0.09266173501103708, 0.11157994870303516, -0.2370453383997019, -0.2464023329705156, -0.00197465779855566, 2.0047711422178316, -0.3287212830840082, -0.07315480908978793, 0.012686123456160697, -0.004171407751837307, -0.3136331330503934, -0.15582896922107967, 0.014243642273722006, -0.017050701152421032, 0.012177066663694162, 0.5259222226725361, -0.3715363203944506, 0.0006618995469975376, 0.09637289233299456, -1.084059244340448, 0.7782304500038375, -0.30373356527649314, -0.018135760414124506, 0.2996067761372593, -0.4296930978152833, -0.4440430657194317, 0.2732089052978939, -0.03478213988387208, 0.09651166821419249, 0.19673094793529544, 0.18288737972395916, -0.07922593029570707, 0.37484626967874257, 0.8525354158092241, -0.001656021624791887, 0.10111271331067105, 0.12734079496770032, 0.5838964158440154, 0.011608298969281672, -0.29298097414058677, -0.5276117835130153, -0.8827189434374703, -0.008183599074137094, -0.33712865115489754, -0.1640501752524741, 0.16658708832255797, -0.7261913904872335, -0.007411658156593828, -0.22356497289266575, 0.9318237123760282, -0.20020053487631378, -0.2675179141504997, 0.004148889614001671, -0.8212574497795354, -0.06891346908236397, 0.0002642462237393049, 0.17144230022495233, -0.18493973699886704], [0.0028444308525986113, -0.1591010570012013, 0.18809536888836773, 1.030383032419239, 0.9979652780236217, 0.012484155541833682, 0.07620227388592732, 1.9769968700743459, -0.21413138967289502, -0.26040677853208977, 0.43083456647567503, -1.0247435892393446, 0.09511354075289812, 0.8377865984946521, -0.14223734484157066, -0.013345434809807336, 0.009051580942579577, 0.3164466484894299, -0.11275705229642063, 0.8612722220435141, 0.6989121370362344, -0.004715801194897899, 0.12391716610339207, -0.17190870091226304, 0.3215000913979481, 0.15912626143324526, -0.7782704141301724, 0.2033697488364336, -0.0006750723382075713, -0.019526112357100223, -0.5671467437058243, 0.1863667433563958, 0.8658146036533144, 1.1013962220323645, 0.24739636438634227, -0.08996800557901058, -0.11963714641338873, 0.008746337634000538, 0.15524730052487395, 0.1136445833083015, -0.008260981061913385, -0.5077855327980655, 0.329440121474666, 0.6682571154877598, -0.23508615315144157, 0.010197718956156105, 0.14972219089182812, -1.4891138714387429, -0.07229968473044714, 0.5407044234625513, -0.14042607869972173, 0.16781481726559694, -0.12716873933498202, -0.0376030275447035, 0.004195842868089611, 2.1913848634834454, 0.6622374884642245, -0.4862411016011946, 0.014374596800887802, 0.014118303058655626, -0.18132592001820771, 0.15112798354958615, -0.10350149249592126, 0.011490480199644248, -0.010484342762473772, -0.067304030852123, -0.18142245138855773, 0.0007614448999517862, -0.7272106224972492, -0.18277205313853437, -0.6120691738363072, -0.18092499393994319, 0.0072802051025617955, -0.3962803986920252, -0.12088687590038782, 0.06943133884755484, 0.3435013956392848, 0.602844055578238, 0.10825289742234191, 0.3907711116603238, 0.21086340319444838, 0.3864045930273924, -0.12707056221274382, 1.15882021164183, -0.013555148179925704, 0.25335303733384407, -0.9648325245225173, -0.07364719604731738, 0.00858605932667895, 1.6165069524660671, -0.07589065249891369, 0.16894391685674082, 0.004610633543741983, 0.06574155796864212, 0.12938000354568546, 0.09076153381482024, -0.47763928751430274, -0.014477879055142688, 0.14605031166971455, 1.5081370219583405, -0.2652634148272992, 0.33975238161466853, -0.006032652096108611, -0.30857100523548386, 0.11982511519615346, -0.01599037002123245, 0.0647896187956508, -1.3557145113654114], [0.0012045511548641435, 0.7049125556466487, -0.01503335609419568, 0.5213838421689685, 0.36466839473100376, -0.01596536809777627, -0.21416181130594578, 2.455464667955847, 0.1157934614525255, 0.16644231967516848, -0.225207368131238, 0.12978831215220488, 0.1385299434496234, 0.44536550668696284, 0.21852659400619556, -0.020084888599301666, 0.012228608347327252, -0.38275783903659033, 0.3417312269847856, 0.22013976426213858, -0.13321285981710335, 0.0009737683329938291, 0.15158059803893356, -0.08811585857734607, 0.11296077316613841, -0.30362178240999677, 0.12486838532119292, 2.5779023532629477, 0.01234580022307113, -0.22889476798409852, -0.19774072150455474, -0.08870483224589878, 0.08413091600436857, 0.9488364622151401, 0.25376257965990956, 0.13485361341792332, -0.011158190231461765, 0.00592861103598818, 0.7566977822184943, -2.0810618291559995, 0.018083410406590204, -0.10351610910038361, -1.5142015776083355, -0.8818095338618298, 0.33555285374613075, 0.003153088042873843, -0.0007914385417630496, -0.39839330089735514, -1.1395338659900272, 0.5258851798993339, 0.021193127280828443, -0.09945748755109084, 0.11664860287066264, -0.26282666451640346, -0.012953447005303207, -0.13153045797891083, 0.20830481802788833, -0.1491793208445697, -0.004788249686871942, -0.012611634612929157, 0.19187495057739992, 0.25183879240806967, -0.014249191565329805, -0.0007971316423696041, -0.0028105590980529995, -1.0368085498329414, 0.23875883765695452, -0.004414322310784266, 0.303702593022002, -0.470598835223646, -0.3070792604800824, -0.3235389976649523, -0.007508613210042604, 0.247574102577986, -0.16741713051294813, 0.2009584550488923, 0.22398532673965815, 0.41171004401282146, 0.09350293952870248, -0.1828317764446284, 0.2061053788061938, -0.14621353124957812, -0.23511316114738556, 0.25526404057990637, -0.0013439794999760696, -0.3620178936275096, 1.141283906876399, 0.08365859715269686, -0.008329346292207593, -0.046668356254077906, 0.22550882321851098, -0.3175330084438696, 0.007671265016444243, 0.9698866387135333, -0.636754744872384, -0.42854058554274677, -0.050381707965737266, -0.006171063968655558, -0.18676077181840273, 0.7842577224110511, -0.12420058996978738, 0.05328990542064767, 0.00602655065220264, -0.07675490958493245, 0.0672495614578394, 0.01101753281046125, 0.39835972334507536, -0.34954876729072865], [-0.019891772569151173, 0.8830592208614702, -1.849530733760971, -0.38531628148021546, -0.7988999824853585, 0.0003751389904026346, -0.02539350401024981, -0.28426781342375107, -0.3768731174681549, 0.959795899264258, -0.7154906601316421, 1.1965666315143684, 0.49526129115824874, -0.7832355553804002, -0.1727913392115713, -0.03139476001712638, -0.01048575965245664, 1.6921806944815059, -1.1388489552103604, 0.4808271323962251, -0.7618836241560929, 0.011401012441652742, -0.560558447508101, -0.887776365762726, -0.6341102362699983, -0.08161778251790165, 0.5727661261599631, -1.8511501341267944, 0.10683142612914998, -1.073332988215386, -0.010348010858351226, -0.11089350190503007, -2.270232297671712, 0.2627813246404475, 0.4061427577943886, -0.25799089221006194, -0.228402875987112, -0.0033832035945182788, 0.6203445690652674, -0.008067240528038875, -0.005186843742588812, -1.5560030431938008, -0.8079341799561154, 0.08662066101917414, 0.8559665536888827, 1.0131407019308831e-05, 0.5521319406396338, 1.1887549128090478, 0.15091179558565104, 0.17671918701300257, 0.12856674148886343, -1.2707406842516094, -0.6525729353829659, -0.5600425510877928, 0.014870253811801619, -2.2724015676196414, -0.8474762669473316, 1.5388188735690134, -0.0013634050246728478, -0.0023209611007394748, -0.4319201491991401, -1.5711738489716691, -0.09211643786179179, -0.009403826547167869, -0.013326084934818827, -1.417716197030356, 0.0792539128520496, -0.010992729277844875, 0.9591403354700365, -0.467656503121817, 1.4708428071900943, -0.484251922202146, -0.00031162700116209714, -0.12396028308318374, -1.1489078383836104, -0.007059733348974834, -1.5092817802268388, -1.1732194264642075, -0.10159631055763764, 0.06586532522308543, -1.9984550689685974, -1.5394051916763498, -0.7901761863805347, -1.2617361326593655, -0.003837998957299122, -1.915440504365319, -0.05015007063220629, -0.41133689658171485, -0.09024340311356584, 1.4909445220722388, -0.4935481706360054, 0.009549794019252348, -0.1161573758537209, 2.124940712264535, -0.19798475587416253, 1.2458070984393876, 0.6200450931071942, -0.010442048165781868, 0.8141530361684974, -1.966222862459038, 0.41583159782772056, -0.0720678312019253, 0.0043526321437246315, 1.0168647710190106, -0.04500074833858633, 0.01001721633093899, -1.1924518674114204, 1.3181636812930444], [0.007972775435545398, -0.4696088159476925, 0.9645908366301477, 0.528847425319386, -0.0348491474163894, 0.01704262857557883, 0.2133404719240221, 1.1842457451186763, 0.547626718437865, -0.014972086786813261, -0.5680955790213134, -0.1899865733924507, 0.27650504675140314, 0.3107840176355157, 0.21019721300863725, -0.00037780251216450373, -0.010909771809230655, -2.114913141668855, -0.15172495554347828, -0.061942377989611504, 0.20999339243936901, -0.005008987087351367, 0.02581990637182771, 0.07429871493926307, 0.31156009756600245, 0.11082785643830677, 0.39028603160662007, -0.2820825454114272, -0.09950914898418696, 0.03792464457229468, 0.824598562052786, -0.18808269309152842, -0.5240292463873295, 1.2696312089832742, 0.4727840279125565, 0.2832690745029174, 0.10422463075404445, -0.00029832837483696425, 0.4579109812772138, 0.8745985586236079, 0.007436043063089579, 1.4150359703167743, 2.127667257185597, 0.13659386968215034, -0.437261057780273, 0.016861524091229905, 0.3310622355032795, 0.7404738753296749, 1.8955247382170815, -0.8717319362255528, -0.11742806237113626, 0.3215185823541496, 0.6592981724986162, 0.3130877152317729, -0.008929759109238225, -1.9502832135229478, 0.06519239446342837, 0.17260429372139344, 0.007761394602000201, 0.006608740655759017, 0.48890856485089484, 0.7033853338699423, 0.11226437456161116, 0.01567612634170419, 0.02483842849602115, -0.18502637797836882, 0.2702728473899313, -0.006923284250903807, -0.5599757766526829, -2.446570962074696, 0.25260644390577114, 0.08023756853502052, -0.008305849037269903, -0.0010100920672516597, -0.036446283991915705, 0.5395244052756372, -0.9587988305433615, 1.1742437762668343, -0.10083819827934971, 1.218800009811616, 0.21881786963365393, 0.7205304944172649, -0.6343985583033808, 0.5618055019478756, 0.006550609772782776, 0.4035343921454077, -2.6437327419063896, 0.6059190708990801, -0.007474450589757548, -0.4899557847585294, 0.23907241244468702, -0.3895921743353651, 0.012941121921902343, 1.1621930551750177, 0.9941107928522223, 0.09622207723309532, -0.1302229929342713, -0.004965884310663362, 0.02467882122364882, -0.25212603224390373, 0.26237843918288417, -0.038625609178004845, -0.004194125643164121, 0.13733166861909196, -0.8034601516865788, -0.0070767728576389514, 0.36450592437390134, -2.2494617474798795], [-0.0008245903426231396, 0.22282525268378758, -0.10589037746957901, -0.004959571053359773, -1.3552894698433584, -0.0022483481501350123, -0.22554210831727406, 0.4018528654813485, -0.20971604412026257, 0.5571623252087647, -0.38353563250188966, 0.018087179113339583, 0.24310374526237613, 0.7819140976582477, -0.19340176747761667, -0.012210143093469196, 0.005728069036897399, -0.3455499379180486, 0.08751403190857461, 0.20378813111449773, -0.143641065570681, 0.01931751745756533, -0.18010456957956042, -0.54155909810354, 0.2626593622706638, 0.015754070324204474, -0.12410302490463693, 0.5205654174058388, -0.0002664084639056963, -0.15250899167893348, -0.015844140201386518, 0.17782901145805508, 0.18733482877511154, -0.05548411349530475, 0.7947090576227737, -0.09177889181214029, -0.2325205579017389, 0.01048689350395233, 1.1549110234076045, 0.957683703254641, -0.0032364067315140107, -0.7795601883254111, 1.412646991786315, 0.30762940510100995, -0.42779710509741115, -0.01256868558854322, -0.47153196075533493, 0.45110725022114145, -0.47662308388041147, -0.029287806640761516, 0.019491908069615118, 0.05197500163301498, 0.2912986258604342, -0.11252618242639999, -0.004604559490976864, 0.1143499466140858, 0.4275551548294812, 0.08175998568708821, -0.002320766766372285, -0.00923821512818776, -0.1527288335661945, 0.07827799769953847, -0.012396839546081298, 0.014706775676697472, 0.019431914528145036, 0.4835774559468156, -0.1024275543773782, -0.0010391890011519315, -0.4960391046053216, -1.3978588176855153, -0.016408466178297693, -0.18551596578451843, -0.0016382454900375754, -0.11845827350181606, 0.07376814058715297, -0.1820527164671122, 0.5509210006165761, 0.09431360455730566, 0.10918627190137985, 0.2567379261806102, 0.46876441499841187, -0.26568806124557726, 0.7924061766280649, -0.7227402180310085, -0.008548403634224462, 0.11354015723315376, -1.0557656088341434, 0.6022987491405262, -0.02028516702156685, -0.1656959660275375, -0.21835386466305037, 0.9197362901626216, 0.006144648642271407, 0.3699899686990414, -0.3374806258809249, -0.467715629273428, 0.17619497877736795, -1.1990155587668399e-05, -0.5258251715207329, 1.4901316597243404, 0.1927620737331183, 0.041559104946707004, 0.0008645186086795895, 0.059907797644096684, -0.27660800052150425, -0.004089924824261487, 0.5496060875196405, -0.06260553417368488], [0.007805912513943091, -0.9679660341747708, -0.23179202157261072, -1.033634151788531, -0.5567639142676608, -0.003644496620861228, -0.2539670638484426, -0.6691151983231529, 0.45716247076066974, 1.78689048204389, 1.4801732408547765, 2.8638561882000952, -0.07907892677259296, 0.6553215152035565, 0.2351461009193395, 0.0563956515830573, 0.016660027524118822, 0.3970509562347662, -2.679552279328245, 2.3880531637964175, 1.6832834653470865, 0.007929172606432758, 0.2924734416175926, 0.18651073049646102, -1.15224800450902, -0.9331822859737436, 1.3413375509093288, 1.5985761161012984, 0.10331519811884077, 0.5512761817225248, 2.708269971838837, 0.9681700160377871, 1.029812640526368, 0.9976289711349992, 1.8188720484481296, 0.08016947349245618, 0.4482885834674062, -0.0013836206927947156, 2.1138791122900056, -0.17661625328317607, 0.013897018805095192, -1.0958274904292087, -0.43805849502883804, 0.0729897324874003, -0.46381484924151606, -0.007637770217732676, 0.695268671119433, 1.6534614170597257, -0.8714497424965054, 1.0928600191452305, -0.2617427927694782, 0.04979757822123659, -1.122248394044461, -1.700549414492897, -0.004631383050933801, -1.9702373418154027, 1.9275339338559836, 0.5512881378315458, -0.007294649319318593, 0.00840191230205067, 0.4246828255809367, -0.060560301811412434, 0.1017635856583064, 0.0011112317520581246, -0.0019196282858456493, 0.3926882167485663, 0.3570463506404415, 0.004845740815252302, 0.7371881904786617, 0.7479878788043931, 1.886989895143579, -2.30125496498394, -0.003718113848581902, 1.005265014386194, 0.36378584660141156, 0.5001880388559463, -0.14209388404887266, 2.2856670439950837, 0.09610645841701065, -0.935366750219619, -0.5345142272516632, 0.3999681576788789, 0.33756990512449725, 1.599107686184357, 0.0010688915256563663, 1.6881272425980367, 1.082527300136073, 2.1635898834633505, -0.016818319424063317, -0.4242755411747729, 0.40259782954467255, -1.3360224157465446, 0.013796400122288062, 0.29788253717991736, -0.5081733051132624, -0.6746941545928853, -1.53289863471074, -0.0010974157665956917, 0.2872285325770477, -0.28150509498690096, 0.6956401227073756, 0.9675793981503085, 0.013066809712891774, -1.2794783842970239, -1.4708546604109987, 0.008257995708349817, -0.19746494629662015, -0.8273439275377885], [-0.013560801450976568, -1.6392654055706197, 0.6916723690096919, -0.2248197614012627, -1.4943940691391568, -0.014598606505412557, -0.011645663134163077, 0.12778814385552434, 0.01986274409848514, 0.5907176876335903, -0.8067618378096235, 0.028301789523987115, 0.223172399410122, 0.5550339907318831, -0.10873273071252157, 0.011875687530197056, -0.01076440055275779, 0.7160401237073328, 0.08892315441368692, -0.7659532396826565, 0.7932707302834033, -0.014414590567813556, -0.058376032720351884, 1.4613294665986352, -0.08585301211863162, -2.099194640160565, -0.36662990081348945, 0.5973740081975899, -0.0194503954119923, 0.7478938114004523, -1.4457632637497604, 0.8427122443787797, -0.23663011190247454, 1.2169575723009294, 0.30945139478744016, -0.032979463530157654, -0.09773338978810973, 0.009846677589164118, 1.3172806622949942, -1.1116836209122951, 0.003598405788788177, -1.189597974459734, 0.8949900852823829, -0.013666589102605962, -1.0578936258417566, 0.00102524418145286, 0.07126687199474849, 0.9626291100095006, 0.33977657260298283, -1.0537849903912615, -0.10565583530809279, 0.027421232403715974, -0.08251442505534584, -0.041228963463915795, -0.0036857726474484494, 0.20971697528215633, -0.10744649572932569, -1.1170054752188991, 0.022850603263360383, 0.005299691786706951, -0.08152947514575372, 0.4702860173531333, -0.09632547006584045, 0.0033237190444472065, -0.00824365981073155, 0.5753535847732337, -0.11044194690750468, -0.01794936619420466, 0.19670891638344062, -0.9936274443861219, 0.9665767760026556, 0.0043817650897059164, 0.004126515791798579, -0.31674844720071965, -0.53055187399416, -0.02637654698522085, 0.2346082392952568, -0.42662564192645536, 0.10849064428448633, 0.779463260513895, 1.022007596981462, -0.3271129428374358, 0.38815440194199163, -0.38783383008043704, -0.007705839604474529, 1.6376076879863364, -2.983310845607865, -1.1916699477339157, 0.0062151841409606124, -0.8556359496091717, -0.055673380474649994, 1.0917402591969192, 0.009320375300017976, 0.21519296743870417, 0.15933275601559077, 0.13638056040337743, 1.1571217361383066, 0.0009445970295515109, 0.5994315007908549, 0.7698084860993444, -1.14630774534744, -0.4752813764097776, -0.007678631227439349, 0.9737924488714874, -0.5367983506985379, -0.012197924136543999, 0.8903648468966036, -1.5619305386303803], [0.013339642153471146, -0.038483523183719705, -0.35478093606614347, -0.3851690487207483, 0.19450329346831546, -0.0058813609132758685, -0.01904417903016477, 0.9685572751986161, -0.04005051504825158, 0.23482921275996607, 1.160227869495178, -0.17087694053478805, -0.08290449428231136, -0.5440149507748601, 0.007141265114156688, 0.005251783980763699, -0.010507293405843244, 0.792200026860779, 0.3062795162778099, -0.2522263402503326, 0.32821033521358345, 0.018893898069238656, -0.07526846264995524, 0.21081432294144847, -0.037943379337560236, -0.16338157913709, 0.2408596157904686, 1.3525868570973716, -0.05578407169290403, -1.0650398107922303, 0.2267495014480581, -0.24254782289053725, 0.3007294356700072, -1.0370617913238205, 0.41279632653392145, -0.005851615184842576, 0.0025887660917382053, -0.011356134697205976, 1.2719943568937724, 0.7035797731655772, -0.0037512795149451895, 1.36750137273853, -0.33868846727535457, 0.4321290694642023, 2.1121731058978024, -0.0004531185957958017, 0.06264337487155079, -1.330082211084306, 0.5207053494850815, -0.13463810078964963, 0.14662350161677012, -0.027768181809988215, 0.11159224079789401, 0.19115408527206512, 0.020575437721407984, 0.5183357861340488, -0.27559039595895707, -0.20742695935742506, -0.006375383894493713, -0.016960343222367932, -0.0005735838846664501, -0.057963937990027914, 0.012287742518283294, 0.005630760958240601, 0.00697264502064694, -1.250189319369142, 0.004207298655372043, 0.005057109354563072, 1.5159402210916302, 0.1655840559017982, 0.47157937083330626, -0.4386684008592357, -0.001988901850821731, 0.029298789314562302, 0.19872257163223647, -0.09109602696078177, 0.11801268538253408, -1.1260927118319286, 0.09552063589835194, 0.7338973653597517, -0.8344596378439537, 0.09687550310845451, 0.23530477607250028, 0.6264228632124915, 0.006985893312408346, -0.023023709904217465, -1.0803672469066588, -0.2441808098419234, -0.014844651779538809, -0.05279451883900134, 0.007543848465766463, 0.33583825171483556, -0.009208063359539342, 3.2072733627012258, -0.11804483546146885, -0.28139256463782286, 0.1100846198244241, 0.004964489652535611, -0.20207407936598115, -0.34837882635158585, 0.0025650225084992606, 0.31312119045436093, -0.010516159235887364, 0.49416127572298774, 0.2742279548181787, -0.005905377631276545, -0.9728211293601069, 0.4304923418199489], [-0.008744266608422863, -1.1163429185535814, 1.6347811800377743, 0.7577488988948564, -1.3605577495273797, 0.01068003278253088, -0.929235047587028, -0.7659158466066777, -0.4796591503368376, 1.147364428569453, 0.1516346136062533, -1.4976318446595982, 0.39442203403897586, 0.416127669633683, -0.5910100321196484, -0.10032167381605558, 0.001385027969230955, 1.5744061567033556, 2.1873087372631574, 1.2994797209503781, -1.5146112274825199, -0.021746148889675524, -0.33732818114526664, 1.44813948742829, 0.5197613818749185, 1.081664375221235, 2.1037397723761835, 0.840156377028343, -0.10014704780663768, -1.709181254988251, 1.669624639851907, -1.350041149284366, 1.3040285214740603, 0.9016476220936068, 0.7788701247893177, -0.4429630025654736, -0.33304103545550456, -0.013047415259995079, 1.3701823114677765, -0.10712745921651508, -0.008922064227238563, 0.9783194533925338, 1.5387664270197268, 1.798655595154082, -0.7195456813376113, -0.008373163542635327, 0.4885208155092548, -0.4434109264487046, -2.596127249416242, -1.5929811491066292, 0.3518100677824847, 0.49636056424955505, 0.8087433990584831, 0.8949979702034796, 0.0118125291616596, -1.7186475861947226, -0.055965205498729784, -0.8143280384114286, 0.0137232947788922, 0.002311753109021503, -0.6937330808306782, -1.160396805478397, 0.0928329348320291, -0.005561541168254632, -0.0093532783878703, 1.4887298663935304, -0.5076518443295515, -0.005647276484873791, -0.3916717321149515, -0.9971203522890205, 1.450700056243524, -0.02830654890415317, -0.005025220913336142, 0.7804953767374293, -0.2054091007270713, -0.5121446631129658, -0.6169703719985963, 1.8079877040737786, 0.0927494982667774, -2.0009637071268997, -0.11333319631848271, -0.04283321442352815, -0.8310720054455315, -1.5904898973571713, -0.004323537233842109, -0.139561266471681, 1.0386036940486127, 0.13726699881657003, -0.013244064549092159, -0.17923119292189485, -0.3869894922110357, -0.9941103898722601, 0.04242012803036839, -0.4439979332043725, -0.11899980799924292, -1.7598090829681792, -2.5896536519700026, 0.005221181409748513, -1.0350414893384665, -1.165640396103284, -1.1827458149320749, 0.8012592924196001, 0.0036728621294678915, 2.124539218532284, 1.0464789464506816, 0.02535937638696673, -1.3994030776138446, 1.3104793566077173], [0.017671276625709616, -0.23227143951722745, 0.39332952275314975, 0.29211711790239886, 0.15028104914421206, -0.0062456950528585855, 0.0018181548058553104, -0.08914328137968452, -0.08812649560120212, -0.18981335417779513, 0.5796487695669806, 0.5906309845232435, -0.09370376385399301, -0.5298520946756213, -0.001936047408091409, 0.004398051027313849, -0.006367922129746287, 0.2021544377901347, -0.04997253106904261, 0.037662671172277826, 0.2744419280275386, 0.002002877396193321, -0.017608233141341866, 0.7671550963890329, 0.18513026701030644, 0.21000972739007917, -0.12344413581231083, -0.24571034795614016, 0.004897780748047331, 0.0919977486908449, -0.9116697141918192, -0.19220784429491902, -0.2288854554240523, -0.9082027705855744, -0.2335276961917967, -0.02240110251095647, 0.005491519609406788, -0.005891231364242558, -0.020807569395574814, 0.9597400106126046, 0.0023750707759887797, 0.6222349674481986, -0.4454153507686865, -1.2350215172320373, 3.1362366999727374, -0.004186309129019105, 0.8100576707878896, -0.1875022245433459, 0.9195725244261282, -0.1518329571301037, 0.08396748367446051, -0.18365797239442933, -0.0013324422656349664, -0.016429051547663245, -0.006226679971336952, -0.272200218172318, 0.1541186624166498, -0.11828545314997885, -0.006073321445993678, 0.014297553011057522, -0.009598627882541634, -0.24615508434877534, -0.11246894117155191, 0.006576140403582922, 0.004100974116824868, -1.7546785971734837, 0.007783843365327796, -0.006020587673957708, 0.3833410256736598, -0.01952878203372798, 0.28225911389177866, 0.24103797560160842, -0.002130720854870451, 0.16548057629782523, -0.8973225285263781, -0.10479761780641324, 0.16397789061806178, -0.6092037979286474, 0.09187925398296148, -0.8363660248059513, -0.0898744364543232, 0.0948504422076117, 1.1529745467829589, -0.5779245540138621, 0.011735136102481723, -0.23007718169116873, -0.43748812646812996, 0.25330636482898106, 0.016523271215358088, -0.8012504723379941, -0.009526267564412345, 1.5580499208847556, 0.008286070840474984, 0.4640078486790642, -0.14672290246480627, -0.4426701730634285, 0.020943467456789107, -0.0048493337042442046, -0.053021379250451986, 0.1153827069723279, 0.7982497063004282, 0.3054770787779269, -0.009462571962150093, -0.10563495890038593, -0.009188484396618929, -0.010203080326490262, -0.20434879002659856, 0.5643555997953741], [0.006127507881668433, 1.0785983127079883, 1.2126387846199542, -0.32079689778724346, -1.4161013337574095, -0.0040783053660771815, -0.0009480562313699104, 0.8059305046798924, 0.15451785326391904, -0.06641012078050286, 0.9467901620602381, 0.6981015265649355, 0.27451223313136497, 0.09893632852920599, 0.10493749136048174, 0.09283625383284509, -0.004733685240369057, 1.5626682205720688, 0.39628811162754246, 0.5500006091452444, -0.10281343429780249, 0.00310053081857127, 0.051655394651330865, 1.1218014274128867, -0.7164904370094005, 0.0939484590107855, 0.5302917546235847, 1.3280208703197196, -0.095576152490094, 1.0265803320751707, 0.05193719809848533, -0.8994421834503353, 1.240084463020486, 0.20830964260600524, -0.14496707562334424, 0.05701231507933967, 0.3205036413541635, 0.006226927151652083, -0.024686078504322077, 0.3069503001124365, 0.004176528826129924, 0.6762546023411639, -0.10043917830832597, -1.3518775910369147, 1.6494365220855303, 0.004008076472136516, -0.886679490330748, -0.24999686287319392, -2.0919452507281058, 0.39489140164236713, -0.38190821155141363, 0.2927825392656766, -0.46144087448150445, -0.7126443021187107, -0.009220253621764558, 0.6874202827117011, -0.03308411027414093, -1.15977898096982, 0.007132711716062581, 0.013372261426778349, 0.004922274178876247, -1.7231894311790683, 0.10781284813408203, 0.004517978260028036, -0.0009442060820370928, -0.5146093542028557, 0.0642990228381002, -0.01252016873049784, 1.3424556887716756, 0.5143578833739681, 0.8715351053317683, -0.9370773200724339, -0.01746407967720671, 0.5050158973638492, 1.1830311409703425, -0.13135714289756031, -0.5588307229511714, -0.9150142712679616, 0.10501391955530073, 0.2641040271449808, 0.909799117848655, 0.8010656337622052, 1.0126355455362748, -1.304858095163166, 0.024827111228898212, 0.1560600318397506, -0.3093718258264327, -0.29047286985068804, 0.09239389212729116, 2.0278947576001807, 0.23863956660876545, -0.2682553894407895, 0.03242606947381048, -0.2966654996912486, 0.3742218977405603, -1.5163204515397308, 2.0814413954071056, 0.007263228175060179, 1.1592907920934823, -0.19266879195401246, 1.2297981677627563, 0.4258058747956965, 0.0027717281201654564, 1.788346017818013, 0.42160141752645824, 0.011063824278400143, 0.3326113709046809, -0.4704592421024336], [-0.01204915661510186, 0.07440793221709667, -0.07700608623873122, 0.792902583260191, -0.2783753164843634, -0.010801393812670658, 0.01747285859683844, 0.08004216157399123, -0.008185567747341393, 0.4617675554719292, -1.0379995101484056, 0.2151289022917315, 0.09618782647231383, -0.010420834279571028, 0.008999540112165716, -0.011199358546407164, 0.0010047980681231468, 0.08977292993830897, -0.23579125785663357, -0.24326804009046257, -0.12984333041082607, -0.005335558613696092, -0.015164868664819642, 0.03022685749350339, 0.046895676824785675, -0.6461825458745788, -0.12115977996648795, -1.1353789035519017, -0.00019125450178703214, 0.364166251691172, 0.09317881822981552, -0.12764603007521086, -0.0969730046987974, 0.39043471458309403, -0.04134247180386384, -0.006437851591043992, -0.0013334417527802681, -0.005328963990970511, 0.3809377068360625, 0.2528877494987945, 0.002707859407675461, 0.8005437227999717, -0.2663416705983501, 1.6945519401672513, -0.009123107916536722, 0.009291986453134034, -0.3550368505238584, 0.0940641735217049, 0.27731082160470777, 0.12572430184391933, 0.008267528375582, 0.22923251936888106, -0.0369087937640834, 0.31114846558978443, 0.02206422330070988, -0.5242081374695542, -1.1817791595205305, 0.10158633992931984, 0.012904297641748488, 0.004963231719176134, -0.007422782792624559, 0.06611421436111087, 0.024766947658649056, -0.02086392294314481, 0.003849012037922649, 0.04323791716698883, -0.014948421380718762, -0.00022814701850602185, 0.47233148528287416, -2.2378356395285572, -0.0026002478166765423, -0.7886225969174063, -0.019199846804943018, 0.19750179592184833, 0.9442727732146265, 0.0030929203135040876, 0.11271808078351185, -0.8091916601336312, -0.09778871980472675, -0.09454970967078836, -0.5451634246638976, 0.2668257936383471, -0.11951678794085044, 0.3987679333538159, 0.008119985524413236, -0.25576576337781254, 0.6116287446685795, -0.5171523707553478, -0.016452527401605306, 0.5518169448085153, -0.0001588800614508727, 0.5706683345171324, 0.0036746720229495046, -0.32043948193322913, -0.27610773298080665, -0.42109451405087633, -0.2083797295914521, -0.02236817663313671, -0.13771605323609445, -0.071512025406091, -0.1686902831459642, 0.12984628867203163, 0.0022438874161160812, 0.009860837813474743, 0.04406644457109797, 0.010917965228463174, 0.738271847858081, 1.9221911382549608], [0.010499587330603568, 1.0976517557583254, -0.35018853313411047, -1.9594168772759462, 0.29855742903088506, 0.011924828465162268, 0.7039039970219231, 1.2312936125680607, -0.20274942017381176, -0.34900169365613376, -1.1959895179708726, -1.2582348093873224, -0.19807975004595288, -0.2866775337809321, 0.2343998216972565, 0.07588003199842351, 0.013780241364098183, -0.16124880373645079, 4.130604351867225, -0.7569105550061955, -1.5997174114208539, -0.013084732566611953, -0.06254009547970613, -0.18355367349611784, 0.2951618871347174, 1.0039567653228898, 0.40278916945698506, 0.4661358122762821, -0.1020131297306077, -0.03841615877696818, 0.878486895930791, 0.9161665779022407, -1.100702782852657, -0.032514375530430066, 0.4044108420438095, 0.2861463714076634, -0.14141960599795486, -0.011259631721303376, -0.5501339918512257, -0.529093745933279, 0.02636824145423753, -2.2204249792420576, -1.146115660503026, -1.5718304851414748, 0.12141873724469095, -0.019400797149579752, -0.26905722600053295, -0.45941705687414575, -1.0529003848772978, 0.3741153286214578, 0.1390650081829981, 0.04351011890330271, 0.2888090769589552, 0.4104275068765593, 0.0065433374516154, -0.4824767307520519, -0.5790011751231594, 0.2535107789095129, 0.00809044711882002, 0.0005855711208172084, 0.024951075006815943, -0.23665921945989463, 0.1089119403216524, -0.0006600860418998718, 0.014681890618040183, -0.37557379884273634, -0.14991028105288046, 0.010159708242493012, -0.3033273701463199, 0.10602997175048441, -0.6921219315232192, 3.131227014829095, 0.0010735480687525743, -0.3582905970957076, -0.5618263016280395, -0.30293233990411383, -0.9209704842501659, -0.3600402743695507, 0.10766722559179846, 0.4553980930198349, -0.9064958915377371, -0.40478148090733823, -1.3081410851599569, 1.6980930797113123, 0.015097226469138154, -0.6568007524938938, -1.756372697921266, -0.5746407502898327, 0.09707236184449149, -0.7656027900427087, 0.11934649690933084, 0.07237612606495694, 0.16849316589581742, -1.4235004804546094, -0.3683089705751335, -2.157375221552765, -0.9682449205672838, -0.00803285232443278, -0.18155062316314596, -0.35671144818352163, -0.1349104338047457, -1.0095035633692528, 0.006142056019580432, 1.5166976473714608, 1.690370286015302, 8.891042371624518e-05, 0.7795136947564396, -1.1154476226267398], [0.00146304887516421, -0.7793439958632624, -0.13952653066833726, -0.394255069907456, -0.08919386974373023, -0.012030928190795456, 0.07256862036632862, -0.15174961178757757, -0.1585350559989171, 0.9702569394493566, 0.08368505502068888, 0.029689070308801874, 0.16171413652914354, 0.15735743439804187, 0.18240439071392633, 0.00043531516811867125, 0.010645983976060445, 0.28693813722515843, -0.02082849260019495, -0.1285350407165154, 0.11664765107309487, 0.034285939671779266, -0.08443371047898755, 0.225048668284664, -0.13308711170050339, -0.05993336520663028, -0.28773214908909656, -0.21374462484997256, 0.014853135060370129, 0.3913694692283158, 0.911920322560262, 0.09053409184713763, 0.13431564820253683, -0.36645355314422573, 1.2628114631209517, -0.24085905235287813, 0.03252401542021534, 0.0043470417049625305, 1.1437197991313734, 0.03697892005855276, 0.0021197172397934266, -0.781617225333327, -0.12278123677718301, -0.041458814849346194, 0.2952164070833442, 0.0017714352384327363, 0.05002118151401984, -0.06115976490165836, -0.25959454426397877, 0.13486963001080926, -0.12590955443987062, 0.33048891317348916, -0.1826332085069501, 0.10881008335228516, -0.0055722656151702766, -0.14799135777404243, -0.4425723450150138, 0.10270922208113815, -0.0045097007280019965, -0.01259777564301132, -0.059228373067271904, -0.37325147940677394, 0.014925203282146325, 0.009924993298184926, -0.001177389986309341, -0.10217718888471905, 0.2983047189735811, 0.006257966880200032, -0.2061841576149309, 0.5548722423891139, -0.018821202529810566, 0.09221642005572522, 0.013488633150595388, 0.202289433820659, -0.04526152756031531, 0.009915715918307916, 9.912477091224617e-05, -0.24839925303147292, 0.10259427771272456, -0.44165149777045826, -0.048082147260835366, -0.7002744505155399, 0.0658938288779854, -0.09071803771164678, 0.007181389382363917, -0.1405529680275468, 0.06483934824165312, 0.6487008406768338, -0.05243074796428461, -0.4315522632627601, -0.07573250337135813, -0.35280123150951237, -0.060916749158045624, 0.34596360740581833, 0.20517533205938884, -0.2913751944368279, -0.15319501666512406, 0.00657562536100058, -0.15939362271102647, -0.31488148881425676, -0.12737260113659143, -0.02375986345526662, 0.009313499438195158, -0.04100536279893832, 0.025085244905969462, -0.00124783721593481, -0.40707102705259246, -0.16532104545602044], [-0.014080995823986009, 1.2465769407953187, 0.42424294691281156, -0.14438132375344886, -1.1770051691794274, 0.007543975862354669, 0.14653847203258172, 1.3220097563701283, -0.18064487815367922, 1.2708066375294278, -0.7087163273335451, 0.08225817505376884, 0.33448483832638315, 0.847985094428349, 0.04955825190856991, 0.013247216217363071, -0.0008631312177003019, 0.5142318795303247, -0.021096087796925327, 1.002947461440455, 0.26715918591633836, -0.009381106259327806, -0.12969597911565517, -0.8586878304938221, 0.0377734693391312, -0.0668974787464323, 0.639190216759873, 0.48507441934998746, 0.09509629391540216, -0.29463447510079016, -0.7795430343541621, -0.4066741130219557, 0.3906193156169428, -0.681828198691958, 0.25031006082817414, -0.3352292727230769, -0.2382897689201967, 0.00610151853311084, 1.592790972273265, 0.12317451526554629, -0.008189202385133872, -0.0022216717312649598, -0.8529152078052356, 2.2519977315938906, -0.3020392916348366, 0.020309737501297893, 0.012291217541244587, -2.9705262055324253, -0.4757029852141304, -0.40880380790651666, -0.07826671196987182, 0.7535539701569303, 0.6855259491465961, 0.37193364253219235, -0.02008954853810431, -1.9877015882774194, 0.08469393262586317, -0.4954414665720208, -0.007664392708469818, -0.001572540033287952, -0.4694427316590493, 0.8121221966745003, -0.0162207803098591, 0.014425230962658648, -0.0035530566893937515, 0.5951354416987839, -0.28901050751676693, -0.0055994948945419535, -1.31279070992829, -0.7073550368460759, -1.7527213713267875, -0.5803559076316694, -0.000799594421974617, 0.5756897032405981, -0.046248753329195834, -0.32937897591697934, -0.22309599975668476, 1.0599885307163697, -0.09727755209319416, -0.2984351403983428, 0.2119483427229873, -0.09222075689454283, 0.7575008926532953, -0.4528755586974327, -0.01054377243555463, -0.3052786413134698, 0.7529085424774444, 0.49788517499676593, -0.014425695892504005, 0.6226642492535547, -0.4350281547659092, 1.3377659312729973, 0.022334824895109177, 1.283545592701739, -0.8447743901765945, -1.0031270907928969, -0.5869504250470483, 0.010248659067985218, -2.045597840197774, 0.9777361217946465, -0.7669833765164659, 0.12721442739187552, 0.007208148454600518, 0.1716366927228593, -0.20741847217320464, 0.01578741894785091, 1.4902892833657422, -0.7319398647744673], [-0.0004429797406378773, 0.4023746677253422, 0.07183317241231851, -1.5720144178262458, 0.43523414476200034, 0.004778341344073098, 0.0033106899266758293, -0.653824460120243, -0.08735526365070752, -0.24339539173685407, -0.4818471818011038, 0.9536667068333667, -0.1889620756295936, 0.560471505105815, 0.004654544451524122, 0.0017042752985504883, 0.016023975186301352, -0.42910117927178054, 0.5468243213553552, -0.05582122027600419, -0.5106645260556794, -0.0059010241505610675, 0.03876267779535861, 0.8094668410146951, -0.008298982661575765, -0.2500476002631055, 0.20845762665883982, 0.7285641597265243, 0.027042299100675033, 0.031543333163218536, 0.23170375823413394, 0.3063363194250118, -0.672525267258181, -0.6062415413393207, 0.03631336719705948, -0.03384301436497506, 0.0038341143266008098, -0.00014121067986421425, -0.5820589262857545, 0.13131895634213897, 0.0038015513348012763, 0.4902425403627489, -2.019728016071415, -1.7493184073746957, 1.3012258016838947, -0.007622588978003822, 0.24101587073893324, -0.843260762983924, 0.34518689013621795, 0.17951804688464665, 0.23160885546075954, 0.09701815221611632, -0.4492976597059167, 0.3152497794710829, 0.014221089686247874, -1.1845835355622059, 0.24640596434987388, 0.06573415581484701, -0.008933447465286744, -0.013715889490676297, 0.015444350375998454, 0.5375187810795067, 0.08437667608873473, 0.0019602213683147275, -0.00043343735898056983, -0.2543610843411987, 0.0901431594676199, -0.015803899660965844, -1.1127462061598514, -1.181503651629732, -0.36039382918815965, 0.1097632145440283, 0.005556446534331895, -0.44291428658795673, -0.7679234810466816, 0.052392660044989, -0.03747283713399676, 0.21946086916249755, 0.10068739646395303, -1.0900783454969374, 0.23605062630407325, 0.3394684723623857, 0.7731395900444852, 0.14504768850092073, -0.004659868650602077, -0.33184547945566223, 0.2519228278262488, 0.5180889697429982, -0.005531768486009331, -0.9897482822528052, -0.009254735721469468, 0.6814193790533507, 0.007793448703628152, -0.03903913529575363, -0.12615625484529144, -0.8767797990577708, -0.5708844289285782, 0.007653558767909812, -0.7095682664183023, -0.7120519523295239, 0.1310303072508177, 0.12062528565444665, -0.008738860288406813, 0.12618185248878303, -0.011293809990263023, -0.025469594562412438, 0.9464443068386199, 3.1409921373052594], [0.0026499390159844343, -0.05614470572989916, -0.07167471795997894, 0.7768643785184124, 1.5574994473116703, 0.0076927531670444495, -0.02355374228045428, -0.8351331522920994, -0.06378197473196806, -0.022309754493819355, 1.1017613760162264, 0.1068309890834819, 0.25627646597405357, 0.43179262938848056, 0.06731226762535833, 0.010656511588054465, -0.00032189820097170655, -0.06044194722630241, 0.21422340695135858, 0.6192278932874392, 0.25078087081519934, -0.003123439454461474, -0.0764722468738255, -0.5306770078561324, -0.14404350684395564, 0.9017893124922397, -0.45953242283623313, 0.9008826280056963, 0.09677138051813328, 0.4862313678796389, 0.06125195259865757, -0.7831493651219978, -0.4574452219932846, -1.8592133217945563, 0.37412173690032685, -0.11832395260335696, 0.020534113328816838, 0.010972285486893527, -0.3491026729130008, 2.3391216448858776, 0.003260351171674142, 0.5244202895110279, -2.633684539877113, -3.3716828830002745, 1.4122048935641145, -0.00992404200011164, -0.8263193402497203, -0.7973384504235295, 2.3356743427774913, 0.5568266114895254, -0.3605875679921564, -0.4105344570769002, -0.533506799602151, -0.19510350998858134, -0.00020638650845148943, -1.1181378112386522, 1.0081862098354408, -0.37053809678450833, -0.006989720215626327, 0.004824279268928124, 0.015647910349745924, 1.2728667044134363, -0.09367145264511426, 0.0035947692750061522, -0.004364282901077888, -0.38680352541560914, -0.06633147145042076, -0.011139919530176814, 0.46999416616913453, -1.9125898558164254, -0.26624978697508694, -1.5552683231660673, 0.0192121673804727, 0.08609708995063088, -0.24993341295886962, 0.14742828612208964, -0.4528488959624288, 0.9602822582823847, 0.08929046427077646, -0.17456820197439732, 1.8363897065339214, 0.024347868250370622, -0.8719561640870341, -0.05152578108689147, 0.008005241883573126, -0.370499800752733, 1.3327315829738187, 1.2847276379317751, -0.002419074449762604, 0.36151815885704713, 0.013498849367258342, -0.17899712223710648, 0.0004437660602106695, -0.9818340630963688, -0.4006571653200878, -1.5688606054626737, 1.215057859981354, -0.01706166468393488, 0.6988733772545075, -1.0938143469998476, -0.3793554266954674, 0.464267894097256, -0.0040531501271572, 0.024552356239053042, -1.634197678432143, 0.0026538541056364867, 0.026033562081748916, 0.9561968135129427], [-0.00013712642810086097, -0.30313108173910125, 0.10574222199516808, -0.660751160878156, 0.5095891544257896, 0.0006485236803935127, -0.31806672942098113, -0.8619610839348402, -0.01871835125145544, 0.13607795139120035, -0.16134554777361268, 0.021584844888539064, -0.06666059143136151, -0.3536712567246556, 0.002677956625379032, -0.011246492468211576, 0.0021007896565410377, 0.009191768047355218, 0.11340168767300263, -0.29297969731815804, 0.1728591663003954, -0.015261110670434732, -0.06651263850234361, -0.20273660029268925, -0.028626413446198623, -0.1369042627684455, 0.11163438512298848, -2.131276506457304, 0.016203975321627814, 0.153027837061707, -0.2958230946167504, -0.11964584726276697, -0.11418100371690663, -0.3443567212794282, -0.07093538993601076, 0.011498735915012603, -0.001818179268436772, 0.018490238946603937, 0.23313287819400974, 0.3420005524385421, 0.014732042763494468, 0.18942782066238004, 0.09640582963302821, -0.4738696595151077, 0.8855833113857824, 0.02068042175375762, -0.0714178622837809, 0.032865550989540894, 0.29003852317611356, 0.20503480219232698, -0.030058009092234935, -0.0648283818137159, -0.01401542723509599, 0.013340234036963656, 0.00675748432157518, -0.08051790084321428, -0.43965439112517046, -0.09061658296422262, 0.008061695729567433, 0.012858767496142636, -0.007070989690542941, 0.010409605412395575, 0.010903808952061923, -0.013505688124298254, 0.013646072599013754, 0.2561178975561352, -0.008638091263229623, -0.0013947539570042366, -0.15251226284048355, -0.3973547419388671, 0.12296733170354746, 0.01123305289889697, 0.006913736801696784, 0.0381998433525571, 0.1278433577814542, -0.00646794180163229, -0.05388205989155319, 0.1036846525412777, 0.10735094986595889, -0.12838858023709476, -0.6470868782206839, -0.10557999796641773, 0.24890607586840705, 0.5577293401172149, 0.0014038129146005552, -0.2164461117780173, 0.8654992672969715, -0.536408667499324, -0.011780589828144873, 0.22593799594703562, -0.02962396493724349, 0.5281122005869242, -0.0008716261135365607, -0.47563301928968, 0.12788789336285056, -0.06695381677870323, 0.05631873098976763, -0.0005358487004810339, 0.1720279877316591, 0.5539042590003688, 0.09517083333517441, -0.08679213515333323, 0.011820571198943409, 0.42628898866686166, -0.17906134816025776, 0.003230033937174786, -0.17154075731011664, 0.2336902903573284], [-0.001431142209267783, -0.6048104140266333, 0.34317085440715583, -0.07346286166102438, 0.6888770554658915, 0.012292608468194513, 0.013728057740561702, 0.5573064103869647, 0.058640653673201926, -0.7345687147842859, 0.5432123927405949, -0.14962706028009637, 0.21399580168581253, -0.6760822433187831, 0.0033433664818851325, -0.0004143108501371802, 0.0045789363760764664, -0.3360167707180267, -0.19473648155006493, -0.09500352827975647, 0.26102276841759137, -0.02236491168422278, -0.1191004694206411, 0.329125725041841, 0.10164832566870628, 0.9650404120921136, -0.010205204293688836, 0.025359474526289262, -0.04463172585701161, -0.03252693703310741, -0.08071802865980099, -0.05497384689724284, -0.14589486809482383, 0.10247777173503507, 0.1293172817747098, -0.10028780528795629, -0.0038506928732165995, -0.002954332892876888, -0.6620632792402625, 1.9476248938577576, -0.002169087953288758, -1.5800189450984286, -0.6475599635604954, -3.201224100711082, -1.2273642617567315, 0.01952787008001363, 0.3205835816064079, 0.3786192174007761, 0.04246428980107603, 0.3100262638601461, -0.07886339633993017, 0.07751133887961606, 0.13324605613302298, 0.41818498910750673, -0.019908770090713703, -0.3160454306641251, 0.20545062310406279, 0.4058159574366885, 0.003771839070570514, 0.013802472019843708, -0.01033095103197825, 0.6336212043929272, -0.0712952933162489, -0.0004310880350608618, 0.007649426245180739, -0.45736368389768234, -0.001959658363758215, 0.00027669683873892184, 0.4770335040033906, 1.377868256926994, -0.29034389622324774, -0.38049447555687976, -0.005880712265789855, -0.3825272415200477, 0.629151948984099, -0.12275886548673662, -0.014451058901899124, 0.5592402966195473, 0.09268872242457431, 0.952888743932595, -0.06593977976315397, 0.9379564611226131, 0.04932506917145279, 2.208514556619696, 0.009016829232825369, 0.12277748115021515, 0.40885469271142766, -0.5546332212939483, 0.0028781273622683276, 0.9049015986992884, 0.0004124795706020647, 0.30160915396182625, 0.001094772883792253, -0.6654900071609514, 0.8377720595886521, -0.01980640850920176, 0.2553126320494725, 0.013546989457564565, 0.1336237845365281, -0.44118528517617617, -0.6599907427772905, 0.19235188803271153, 0.0013224064759017285, -0.17474870113825944, -0.5074483584770678, 0.009651607121491938, -0.216102204661316, -0.6683574627889546], [-0.007074040890785077, 1.0831988288999852, 0.8827811631963438, -1.2465204716861746, -1.6182692478135265, 0.001113690289386334, 0.21502610075725348, 0.33514599011731266, 0.2902928355552281, 0.5169793052194948, 1.5593043189199127, 0.9853668770464967, 0.4721850850928654, -1.3853589506509674, 0.34808375324442425, 0.008141594319693742, 0.007777335151356257, 0.2219560590152825, -0.23241154595250146, 1.1089096160533651, 0.9902516726449261, -0.005404577542289779, 0.49947277688705927, 1.1804479743083778, -0.6984911809080251, 0.015892653890049627, 1.3397819653661789, 2.637297287782417, -0.097026648343196, -1.3930704653789991, -1.4287195797098116, -1.2924897056130944, 0.6536194434753293, 0.02776555996845946, 0.8296870765816435, -0.02945832860014609, 0.43865124928420546, -0.0033069871060939318, 0.4765881747649423, 0.24720108173838942, -0.0023827187550984623, 0.2573399833171745, -0.42846959611184, -0.7708840508702995, -0.5277155950417983, -0.00028260165924834954, 0.7093581522025625, 1.7131024090796154, -1.4815262068124997, -1.599381743256149, -0.34913876327592375, 1.0271277811721078, -0.534394329034852, -1.0772353637215581, 0.012935249900037119, 2.5015574025969567, 1.0290863300144433, 0.8828322643176337, 0.007659004222607039, -0.0013818884408532497, 0.46538184740198396, -0.3628489310063403, -0.11763389832492126, -0.0038420531238365823, 0.0008128452132175018, -1.1517153830545686, 0.5071546897673338, -0.0032248782047288697, 0.4536812951214832, 2.4288419451998617, -0.11681947556470633, -0.7506711948274957, 0.01198292036497088, -0.4089058154914488, -1.0181366487926546, 0.5827564181274146, 0.8740602924308141, 1.5774742751096116, 0.09569400769269906, 1.3425835749810595, 1.3941558307699642, 0.8868910269922278, -0.17801905689696265, -2.6123687309750165, -0.02761696927315826, 0.945310631926057, -2.594511327708608, 1.2804838694107665, -0.0004826281861948739, -0.26485728787233975, 0.4175692511295245, 2.29720590078538, -0.010265626168041457, -1.317323167727253, -0.5388202661361018, -1.8745217390793822, 0.027805633690012287, 0.0053534825192603575, 1.3117177733559868, 1.5069574591055657, 0.7422669948660273, 0.053188416058595686, 0.0037521656139182943, 0.968303848608098, -0.4222993216062984, 0.0022225027026854293, -1.3005159678713234, -0.8511187099239775], [-0.016574013641081572, 1.3862866498615474, 0.29147866118796256, -0.3832543630538022, -0.07953617981784211, -0.0027356718927465007, 0.8806884199115079, 0.22960346566160064, 0.503998015679814, -0.567634907745179, 0.5612298610682216, -1.712994864973629, -0.17507569187877492, 0.2462321901885677, 0.6359238342895731, -0.007286749832584529, -0.010635574612833714, -0.4476972169777635, 1.3354329901674598, -1.0888455853721486, -0.6141669677326004, -0.00914908984539474, 0.5579341858066432, -0.23676347925840222, 0.1038966664386778, 0.19639185696383593, 0.4081246135039301, 1.1771419192112103, 0.1074233699752357, -0.8954088229141441, 1.3139435275539528, -0.11347063681349721, -2.0840462173734946, -0.5847898763153706, 0.08007712831526399, 0.6512644454160207, 0.4404248496731013, -0.004613254869462213, -0.09309718957771458, 0.1788589080881376, -0.015169052993928019, 0.20116866391347704, 1.3366911861099189, -0.37104884999408205, -0.11387005827730998, 0.006227098766981897, 0.10311652909199037, -0.47082271773809564, -0.3517563403079307, 0.19083043241139722, 0.08874087221450541, -0.28321413199751516, 0.1574338873067488, -0.17135158743419135, -0.0009734661187695845, -1.282469546348983, 0.4917991714625757, -1.4407676174434145, -0.0017965284401180014, -0.016926384452330294, 0.5192931796922783, -0.8302126496863738, 0.0013970428978827658, 0.011885488804936907, -0.01053602904844028, -0.4663333138727196, 0.7953660549130629, -0.010922340547072149, -0.7486682369988187, -0.40768925151106594, -0.8728997397389697, 0.01782969626741857, -0.022454005556886588, -0.3432282271592174, 0.7070701468529448, 0.7547080814044685, -0.3878229567882728, 0.5830434338678471, 0.10689653752189224, 1.0121762339510993, -0.06532508699914658, 0.987455655409074, 0.8699585536980492, 0.504965442638414, 0.004151853081600674, 0.2843319266969315, 0.7793129827572124, 1.0170732618350702, -0.09875747282848511, 0.5343740319468431, 0.6283911111190355, 0.16762491008600414, 0.008395304440513063, -0.4478494541367555, -0.16938866224485644, 1.285997821707923, 1.307464138292198, 0.013778268186066684, 0.2010766923181888, 0.02174162607998995, 1.218441284205321, 0.0048490272270340605, 0.008595923756539591, 0.5734957967453129, 0.43710460258595346, 0.012562891680529842, -0.18352934518302266, -0.1946791823268109], [-0.003953254161677086, -0.1565770855456359, -0.048175135186910197, 0.12370239402081155, -1.835978878644626, -3.58323731390506e-05, -1.0554725424284461, 1.177000173733609, -0.31597215639646425, 0.26705022885257296, -0.46537911016028477, -0.785736581859828, -0.6148392166686029, 0.8702897136554173, -0.5946697035815651, 0.084496671595657, 0.01231774871867702, 1.6032706448026326, 1.451147482404067, 0.18172374698542615, -0.6881168524322365, 0.0064788507442118375, -0.7515224609252121, 0.1180533378851696, -0.7369873633741283, -0.9165532944473765, 0.28482485697613946, 2.092597080789609, -0.0892324944436419, 0.3058854663047913, -1.6155063201299873, 1.1038402029977887, 1.566333136338583, 0.7355598608094963, -0.029842056815241266, -0.4227557296999103, -0.35048247529059157, -0.0035026300606889977, 1.049557040637231, -0.298587223844976, 0.0025734213433424003, -0.6808869648712268, 2.242153307748796, -1.0843352920890466, 1.2360248487460863, -0.0013274709495575015, -0.21812721202433782, -2.057633479482541, -0.300412062066617, 0.9449752076971533, -0.3488876268343711, 0.2693345195992948, -0.9261185218850299, -1.0516847529332394, 0.0063667133697641555, 2.403828170827949, -0.10788862513896012, 0.8679559509415197, 0.004849528110986238, 0.010294390625215748, -0.4207765473148531, 1.4621956028258318, 0.10672998670258518, 0.006838795893320611, 0.004114824570677903, -1.381817390227172, -0.23229543480886317, 0.01344401769957197, 0.991088882366364, 2.471798339532203, -0.17350781157387676, 0.40177663119418733, -0.009765592078447238, 0.45093514220314407, 0.2756478842398126, -0.4686046087303182, 1.5700977361346806, 1.2752693652305753, 0.10088867398542961, -0.4121991059546637, 1.2748608568974014, 1.0874268439027108, 0.554080721997592, -3.428809112669621, -0.00112935083003884, 0.7743820623694131, 1.3595291817154105, 0.36516395882553554, 0.046556148067820435, -0.18976526431425336, -0.37628493564342874, -0.34096054639790735, -0.04550278734641559, -1.1034138327584968, 1.0737530105740292, 1.5314681474152856, 2.7823722368882797, -0.00408244640805149, 0.17312891319675272, 1.8288382107839187, 0.8217621208356407, -0.06339405112796066, -0.002904931086034691, 1.097479389693366, -0.10927702153699503, -0.004151388784113714, -1.7125168787851395, 1.4139353231744405], [0.006289160733869512, -0.17846519741063296, -0.08380691253607521, 0.10578782746894276, -0.9197071499927457, -0.010888728192186767, 0.09423282621830831, 1.1961569086076307, 0.10489854599755663, 0.0026837671025164377, -0.7134815764785671, -0.09375455653355814, 0.007927157505187835, 0.8786658225858488, 0.10443548822723989, 0.01675234040161172, -0.0016698408640037589, 0.05070916991229877, -0.02288063682788906, -0.11452081644126712, -0.06751936306358912, 0.0020712017881206937, 0.005490125171656619, -0.22219883247007893, 0.14244618021070107, 0.06773291907868802, -0.2686958199679473, -0.2113361159377051, 0.006799348709459379, 0.04836378514951519, -0.03198674548467775, -0.1064073115336513, 0.07944484621731544, -0.10449003938543319, 0.5451772331898885, 0.0973307303246604, -0.013986333092301243, -0.000661613995915228, 0.20341174729733552, 1.8752566207189805, -0.012456350653538544, 0.03420572006113201, 0.37546059966394685, -0.4703748242108612, 0.1601714373106042, -0.00821189535941776, -0.5194741468658975, -0.9589471374848029, -0.560743270376662, -0.40463031108952163, 0.15473340988523268, -0.0752848331618216, -0.04177770364395299, 0.23601118230459267, 0.02637063491681065, 0.6918000979232558, -0.45267025692647533, 0.053423220416159455, -0.0030975206617402757, 0.0008885157041818575, 0.014223021666770662, 0.07072332244225397, -0.0983683691841007, 0.016522239876569103, 0.006161372158017411, 0.655226266549418, 0.0849892646851044, -0.0035432899599134944, 0.4087402319437842, -0.3920537198076861, 0.3157665394731904, -0.22414618251301008, -0.018506548167697083, -0.49309795762870734, -0.3104720962950103, 0.10745665845844406, 0.09746078305142758, -0.19742735376695597, -0.11329159564699254, 1.095403965418955, 0.6017258178868203, 0.10788871579102303, -0.01115010209749494, -1.9366160551453295, 0.0103049608939801, 0.32633273738296853, -0.07069667528014975, -0.1883259441687102, 0.004096993232417311, 0.19095863037058092, -0.0012362838812844713, 0.7635784525961004, 0.0007433044823553144, -0.327847958510052, -0.1543259437098622, 0.46119150538106807, 0.10174998835397289, -0.014006688271938619, -0.125005219424165, 2.311527734939366, -0.14231236597794064, -0.2549893753470624, -0.0006395216539611772, 0.3756197286244533, -0.2766589203768491, 3.2676707562525664e-05, 0.25363403381715405, -0.10212507117460165], [-0.016849422360339268, 0.19157830632103812, 0.10446459018761978, -0.8735576746105089, -0.05815808651309351, -0.0023579613528881497, -0.031065131178384962, -2.553284302478427, -0.0018285293624701895, 0.285631959893995, 0.7037335391835726, -0.09445516377639211, -0.11161651865259026, -0.4066892112859462, 0.011292090833856086, 0.0028463783948509355, 0.014526357660081592, 0.09713090917752318, 0.19365040259540786, 0.006705529302502042, 0.18220694597873965, 0.003996210521762198, -0.004043778006339125, -0.07394573332090151, -0.17876379307315152, 0.11652317028603541, 0.2127973811781317, 0.2644952077129867, 0.006371614510680081, 0.1949518876532513, -0.263042473737732, 0.08840405217972469, -0.10773765226922355, 0.1219354401102178, 0.15508343502750602, 0.005447475229469448, -0.0062182943690296515, 0.0008978902112846748, -0.4250830993761542, 0.47987192886022023, 0.008702461182942125, 0.03288467415466099, 1.5105890707819631, -0.05810600350637681, 0.5408990166208761, -0.007731158171221753, 0.20187300419417692, 0.02072835576735003, 0.831376277119901, -0.6223410922329868, 0.008343978834765606, -0.023995585279990857, 0.06934660799961542, -0.0679325047543788, -0.0009570719372570528, -0.23279070147503783, 0.062282909217432, -0.10869239695805896, -0.0005326248964984012, 0.009328681082460417, -0.003917133961237312, -0.07173862902804341, 0.007467631832515901, -0.000674790061669273, 0.014121458919855667, -0.38595597759982375, 0.0019641461480628076, 0.026336265666167608, -0.03674579728808357, -0.4949765991935281, 0.11889705932827659, 0.3233127573619636, 0.018010446203723347, 0.05974181060756779, -0.4623914976337591, -0.004978626528347753, 0.0611798840985079, 1.114196417436593, 0.10134906265239083, -0.67752635686443, -0.8173406857128955, -0.2516982002749631, 0.24930923978905137, -0.3238320205974075, -0.005268742184633788, 0.04743814854731945, -0.3544031986907054, 1.214771031160571, 0.008431438283814189, -0.1609726015081687, 0.014994952444008744, -0.33225290705462124, -0.0027244630783453574, 0.6224999995779995, -0.030487041327408204, 0.132570733420463, -0.10085308606245381, -0.01678391070454267, 0.11106061220955053, -0.9427767220402825, 0.11541220656885366, 0.1693893056108083, -0.004618521772729273, 0.18813769179394946, 0.49347629231872114, 0.007009992984790368, -0.4182901002387217, -0.1778508790801928], [-0.00395615449311267, 0.36635262490510906, -0.03200248683537546, -1.1921722839938136, 0.7220556962955662, -0.003982846138972523, -0.22874732434498635, 0.10361733225425362, -0.06163530811975366, -0.3995951143307074, 0.7080338934097774, 0.15907617481552588, -0.1309745255506139, 0.14892879829149833, 0.05341662101374618, -0.014290461313577342, 0.0225147012518468, 0.017968322933754607, -0.023546188047076592, -0.14447342251405007, -0.022285963559428395, -0.0015845699479135917, -0.051236862448011816, -0.02515945958822673, -0.05404002774221425, 1.0677412647036828, -0.6803664967338324, 2.145037896165718, -0.033886386539936995, -0.020556961240436662, -0.1164524710691048, -0.08540519162487545, -0.12298516196822552, 0.4655819737561135, -0.1830356332465539, -0.02479381784470929, 0.03967792232317431, -0.01769059707515989, -1.2716656731210887, 0.6446296835811921, 0.009521378407850592, -1.4963729201574831, 2.6469264106446624, -2.0896287825442896, 0.23181244720616118, 0.017246828393022405, 0.27055384602535976, -0.24412473586640568, -0.7150946726271095, -0.02030769577949612, -0.049163878290898494, -0.49860235564321503, -0.19488797103753297, -0.2646638205065856, 0.008551984446418727, 0.6114339651609458, 1.0961627152715558, -0.06498781018110876, 0.011463536543663331, -0.004892853418857793, 0.02173797250829005, -0.04536514152543329, -0.01847191592536201, 0.01535681428557589, 0.01117039173616883, -0.5392189635603012, 0.07790786693664402, 0.014127529347487013, -0.11689081970604831, -0.19281583402655433, 0.5502243317427868, -0.01699715654979332, -0.005550396231412428, -0.2100216547294169, -0.12102214323403615, -0.07328089196830763, -0.3216801851577986, 1.5680657151929702, -0.10674495112678656, -0.28578972513530654, -0.21038777305339235, -0.5034121941264961, -0.31777011153036927, 0.6816514869507484, 0.005510383581733951, 0.13959040882456877, -0.412297484045463, 1.0432017841152637, 0.00609904839621425, 0.04431775982777648, 0.04559625567948449, -0.6219800646570341, 0.005616710270382133, 0.5802191434728936, -0.15317137132528383, -0.17364195662164622, -0.19221557367323602, -0.0025500850701724183, 0.045346912634177755, -0.7063541757912183, 0.04478684106642045, -0.3836599404762287, -0.0007153554342804949, 0.10948033379084247, 0.7098039991859463, 0.01777920743962092, -1.4478982475544995, -0.27631885833719894], [0.011104364096560062, -0.14411612019933515, 0.10347587763826216, 0.1540481208827816, 0.716419840984462, -0.010179678320287192, 0.7759353434270863, 0.9704969460387488, 0.043770052622101534, -0.7793727633413416, -0.8777516126136743, -0.31392286656789337, 0.0852588373833635, 0.3354029858400189, -0.0013376715324103891, 0.004805962202433489, -0.020574996030349593, -0.2812527405888527, -0.014501283277005533, -0.09158970136240764, -0.24746768704185826, 0.0022203964189327296, 0.08069911992693382, -0.09668370408431691, 0.2056141315814057, -0.14254771675276082, -0.059063326826252656, -0.24033355053549516, 0.015871888045114413, 0.25510297119362163, -0.3131391922512424, 0.2028099001260715, -0.20460735431470542, 0.11573722749020954, 0.35646213165298174, 0.008647463141325189, -0.08803601165225461, 0.010054089351566682, -0.662159529137957, -0.25766730004343985, 0.0012088438045032134, -0.9750262745192815, -0.9995146022879497, -0.2406391140886746, -0.21882297784971072, 0.007982744454504965, -0.21502290422346962, 0.5494500104248083, -0.09532870470306254, 0.36986356773529994, 0.07053826264018613, 0.17964921044775653, 0.11605238982901826, -0.10428324064513415, -0.0024168439472194467, -0.16577264657941954, 0.21713011505862911, -0.21728001292622773, -0.005982474951925888, -0.0029405583868720715, 0.0764540685487624, -0.14899389651161676, 0.01580398404208551, 0.004127837179414511, 0.00178696565078472, 0.9121472373042584, -0.0992464541194484, -0.007629301141657836, -0.3868591740239596, -0.834786024546214, -0.2045980502964622, -2.3917426765372673e-05, 0.003337241802225992, 0.07383115100547671, -0.7248816522284857, -0.16333584348654506, 0.24493620889151868, 0.2800436438212742, 0.1023278052059276, 0.31137060804503197, 0.4299607106499616, 0.4609473696564105, 0.0551699432080448, 1.3752170737338403, 0.003285750814808274, 0.28994754928533584, 0.9102908954808389, -0.29871189581212765, 0.007070125612997308, -0.0414283166588271, 0.09235529587202415, 0.37390392564495983, 0.0005040134671371148, 0.4358494735130027, -0.15591502348557715, 0.040061794495269636, -0.02399154115840338, -0.009316745992593209, -0.12408662410283056, 1.8238103167119502, 0.11229115209028563, -0.3841779210042086, 0.005266136440081512, -0.021326317252359308, -0.03231515994188984, -0.0034633137796831748, 0.9496584055116484, 1.6645776829305148], [-0.010814657670493728, 0.21024143642446957, -0.022119393017414744, -1.5403020987398095, 0.8916330402347272, -0.01335926767902474, -0.005939912404124146, -0.701927093133257, 0.014232317810954796, 0.06486167918919403, 0.17636692948064187, 0.5446389879940126, -0.06971160494344121, -0.3905445899339757, 0.010845279362258396, -0.0027218270856289102, -0.006988049327681497, 0.16558185358869706, 0.11106210507428542, -0.04321760976633672, 0.26697256799541963, -0.007334703246993494, 0.03348430238171096, 0.3629941096429798, -0.07794930960133074, 0.755934325347928, -0.061178950280518965, 0.9479336937630374, -0.02557498847623101, -0.05723499820650481, -0.004951397841410643, -0.4103532785444177, -0.07648415246686108, -0.5047193998459772, -0.08029454327782273, -0.0004117655149325559, 0.0020930199014846094, 0.029820698327515553, 0.8711172294167572, 0.3625058659588357, -0.014536382631415537, -0.08903022877944047, -0.27409175799460345, -0.5956427155950774, 1.9657066595879842, -0.005118058776466844, -0.00969532793610086, -0.12767815799394958, 0.4268994387969812, -0.2422437588053218, 0.015477495869168233, -0.024034809529262586, -0.022184114036600394, 0.3061639253757457, -0.015548397743792255, 0.6121919890728283, -0.07447914581021045, 0.10463535137667321, 0.0023862877972397898, -0.0085386547514618, -0.008589841633380686, -0.039521367104702144, -0.0075929670200954235, 0.0035729626278834443, -0.02152852928641241, -0.11152395614950443, 0.020328675677389905, -0.00388385998110475, -0.015862793553530083, -1.831469507510083, 0.44821738667130034, 0.3339423491580617, 0.010637606065043746, -0.004267331430368584, 1.460681364946835, 0.004606945926784842, -0.5194378540773122, 0.05235296998822292, 0.11987488958210857, 1.8260774037948173, 0.049395577841514965, -0.0529907150547583, -0.7937052638253215, -0.13470001775280258, -0.0048808653514139716, -0.25507603385457756, 0.6309930097420559, 0.16147701173801018, 0.01580475779529765, 0.5093586649996314, 0.024088755579126073, 0.434376855731652, -0.0019628532191047596, 1.3629120861651727, -0.265815087406517, -1.1229226935733836, 0.014570458452303725, -0.00655033459124398, -0.13510905790290742, -0.34029276510821255, 0.15879365538280008, 0.005105252220106956, 0.0042472177662599, 0.050619825106011436, -0.0032394024240661986, 0.015803744380846866, -0.8308217501192301, 0.8094461034778014], [6.691761418603914e-05, -0.4994678618658638, -0.05737971320273696, -0.12315771568753323, -0.727987140247604, -0.019244081106361752, -0.20989923971519878, 1.1206746904772427, -0.07662763002323067, -0.3857817741091666, 0.08769642678079542, 0.9812056782166411, 0.341281350523337, 0.025707489655341483, 0.38385887875776664, -0.017855304713340004, -0.003015229803158407, -1.2969070705435009, 0.32955830938129, 0.6935806511077645, -0.5210024351567872, 0.009314923305597658, 0.13119930001096733, -0.09168901619171066, 0.08190147459780524, 0.4520619485048299, 0.1892461459602326, -0.8410720451230772, 0.09375668383376222, -0.8392820776140218, 0.3878626708817357, 0.6943230159233388, 1.116213572119213, -0.3801053773976369, 0.39958892571164706, 0.4501769880718175, 0.33331976784143535, 0.02428267285703664, 0.7314502527467207, 1.0386719058394136, -0.004792435471649971, -0.20453558118311838, 2.857132210580468, 0.41859366905648904, -0.42914209364303274, 0.004735866258125466, 0.20693262163480372, 2.1645631424337433, -0.48719067839313585, 0.7199109434268088, 0.17824137516950986, -0.20457643445826182, -0.16319157776748433, -0.13022548760098318, 0.006217869425483206, 0.5369807597702202, -0.02285379263244817, -0.6681243545071822, -0.006086330226383636, 0.010135950529237237, 0.41770275727399253, -0.3690862647504216, -0.008176060889166363, 0.001825263267215302, -0.008429391934122824, -0.8444282114870427, 0.06548722980980047, -0.010307995153227388, 0.39873497550387305, 0.9086540656419961, -0.759533656928394, -0.33224197335118905, 0.013895433574647478, 0.05834743381676487, -0.22788907869923047, 0.4110731867984115, 0.03839243317891014, -0.19241302581407788, -0.09269780908192822, 0.898063209779677, 0.3033144581944369, -0.0930218628520322, 0.0972583609593719, -1.358830039742379, -0.009904356600511028, 0.0036873583832510806, -0.7475056320105025, 0.47695076253001534, -0.021482062350376706, 0.18219093176216378, 0.2375019348281222, 1.9183923541645278, -0.011167426561097937, 0.17806073788019752, 0.8017244421836971, -1.1725225872163068, 0.7195208464771957, -0.020816569381328923, -0.2357045234751255, -0.3003500588255914, -0.0007343893678708193, 0.12334923990756905, 0.006123447848521795, 0.3162376754831255, 0.0050454539401938526, -0.0028533794093095507, -0.12482853061146518, -0.38603565883202173], [0.0037324450297070147, -0.6684788605400929, -0.46726038011558696, -0.28235256972422895, 0.447054034358213, 0.007912480179283064, 0.0037099660305259328, -0.39316121149435507, -0.09108605192586865, 0.0995434737143319, -0.056646752764780435, 0.24417205728209404, -0.35745137175655295, -0.7370162228878583, -0.00014216692975421393, 0.018567847765170616, 0.007808299516464424, -0.06812982628010712, -0.06953633704800789, 0.21541746647986018, 0.41268182877045756, -0.0010210343675564146, -0.10584387865315627, 0.37701589165198507, -0.3425955159997051, 0.1686749955074013, -0.24476327383404609, 0.3483201168536775, 0.061041713586941056, -1.4798460980932366, 0.031969722553056516, 0.4100049844787285, 0.1099691116115303, 0.591461792397772, -0.24962270386747026, -0.19982651187040165, 0.002147534826370237, -0.008751182050440284, -0.6183900512097025, 0.13657927908020587, 0.0016436377598528582, -0.10746347570095074, 1.3834946529255567, -1.469503065693812, 1.4622522766316313, -0.006352319391453968, -0.5862003884979834, -0.0956432635566823, 0.3047338567362722, -0.4782703053248186, 0.3319298940347312, -0.3636077165093295, -0.26734436835834335, 0.8846593325562626, 0.008497760720175052, 0.733930878846351, -0.18220639646761685, 0.11278748526946696, -0.008836729610985097, 0.002010484104161643, -0.006902866173970099, -0.13868650601152047, -0.08862954389547904, -0.00038402286286039314, 0.004984516388561526, -1.6830737766510424, -0.0010413913571936818, 0.01253257585962035, -1.4622998861988572, 0.5992103168232435, -1.1093826529598647, -0.03774058306868711, -0.009569466742023703, -0.21339235594954756, -0.8362337935414356, 0.10505590571637342, -0.19896036396178268, 0.3938820649973364, -0.08557201957118109, 1.1413899385651685, 0.18276561187162935, 0.3935471085575468, -0.48543027429134483, -1.4747899187405291, -0.00011749257540393047, -0.16638706046786986, 3.6554742982032615, -0.3195414062552899, 0.015430231758105208, -0.922688286907369, -0.0035359903303670576, 0.14100742269428754, -0.005976540139241691, -1.3213622028536114, -0.43222374245037476, 0.15549950274631877, 0.5310787100492607, 0.005274221824612604, -0.6136821820969531, 0.6861331269626699, -0.38783843074937824, -0.043636136817583035, 0.012743546686020709, 0.2326597369622661, -0.029177415007734298, 0.007870446829674985, -0.1497602833385913, 2.587798580046978], [-0.008323591131012673, 0.09619138985791692, -0.11737294309040029, 0.6756257176446198, -0.3586055592487807, 0.006821792235890386, 0.011514615985736214, 1.2713657835604968, 0.003321815188410256, -0.32915783024168777, -0.40162225993859724, 0.030527886639704654, 0.03491746388699352, 0.18930145512318058, -0.0015025962663573415, -0.003467765952147448, -0.010608376209109966, -0.10536887457442125, -0.0618543889271243, 0.14503701474721398, 0.03639364227730045, 0.00024658326562293053, -0.004913172197158778, 0.06475674136025306, 0.006545873217260302, -0.00259652727269352, -0.22032408834108286, 0.2168381908862406, -0.006310111058996419, -0.01003032071706213, 0.2988743490123062, 0.10475470144682768, 0.07844595043420338, 0.32161271302887945, 0.2678682929147903, -0.001424620846883583, -0.012210826823725266, -0.0022073910862364945, -0.2804366120168738, 0.20187258751187942, 0.010850219712593888, 0.04812688144375918, 0.3686147003866495, 1.3156638774201557, -0.4354242049709076, 0.008927992816517308, 0.009639585705654945, -0.09077247808843567, -0.29025960048638944, 0.04538223061037633, 0.02262950386832395, -0.011971939328519844, 0.029810380299625374, 0.0704953358128644, 0.024296201875543322, 0.2593100459895931, -0.06553127706725016, -0.09265012204346379, 0.00556142704117366, 0.000568731109357703, -0.0014113452402847713, 0.08169258768618758, 0.00528447929155452, 0.016363248914491965, 0.00520723074492248, 0.35330375936593666, -0.0053635924420148825, -0.008100877126191895, -0.519745037416066, -0.021320927503286437, -0.10078578263091337, 0.7352560169749797, -0.008143832974165233, -0.11320767265755445, -0.41757399654654925, -0.0028943405438113944, 0.0030567158590355833, -0.348788650365176, -0.0944165118877468, -0.8875295615503107, 0.07680080249995923, 0.266527668239767, 0.10992404166785884, -0.03249087948860724, 0.014330205761900179, 0.13933270110022097, 0.15102332300552876, -0.6405781257074303, 0.016505071560508615, 0.08415996859962817, -0.0008284248309968557, 0.464548964229684, 0.005149474576124298, 0.1924028879149776, -0.1122973465265338, 0.12734560037231082, 0.11550971273463986, 0.012408977154122132, -0.12799860254113316, 0.03184158340574697, -0.10701027742819459, -0.12484631659766614, 0.005939473067246355, -0.22850185856844255, 0.006881386241770498, 0.0003246381326479355, 0.13154723082287656, 0.14616776799937214], [-0.008986731161185802, -1.6651235353958616, -1.9568066468243648, 1.2523103034377712, 0.33751211347717297, 0.008177583276923554, -0.6087697633841803, -0.0981912656076266, -0.4623344303137856, 1.4304424773405684, 1.5108025436315775, -1.0436944726991866, 0.2696663226644373, -0.7566784373992402, -0.326021496920749, -0.0009256743056684433, -0.0004667409778361138, -0.8874610628818416, -0.4660839349144117, -0.3230569886547639, -1.3809926640813033, 0.012590663329717562, -0.3092062603547189, 0.5306146618417568, 0.25113509544654644, 0.04111525804386188, -0.7838388536307785, -0.9070476799945419, 0.09962512376844979, -0.5770032820236278, 1.4525149019255905, 0.008586669683030694, -0.7218391069624126, -0.4684128717082991, 0.7318583645637925, -0.1562370557938958, -0.3289237507299697, 0.0027318468314516888, 2.8844344578990477, 1.0728495548091281, -0.007159209823133797, 2.2498308568449277, 1.4598146866006256, -0.43231926861168773, -1.3448659118259596, -0.0006948235708952767, 0.7996041014080985, -1.3123065909601301, -0.8453018074610975, -0.11982224293543293, 0.1373283737201512, 0.6334169131928716, 0.6758664483472162, 0.903958270184841, -0.01933768857066625, -2.1371291794071956, 1.5078687438620848, -2.0507706048250487, -0.0005366046799984912, 0.008817345218244682, -0.4630272669644932, 0.47265557244666107, 0.11073790414111291, -0.00038854381802043767, 0.01566030569547105, 0.8767529065445419, -0.13904255203147617, -0.015564428258092317, -0.5266886578829795, -0.8881196980714962, -0.25170165271555434, 0.6353002149211204, 0.00014558729621373271, 0.6243431718951278, 1.192648033381497, -0.29722309757873944, -1.0489968844421542, 2.3937142122111585, 0.1010273242897528, 1.26790249316297, -1.8731851467910494, -0.4091477232707187, 0.13145662622306564, 1.2441337652977664, -0.004904973359994801, 0.7417338552491276, 2.6312914573826878, 2.145913990299883, -0.029668676696487817, 0.5274538381322171, -0.3909180315398727, 1.3959612591610828, 0.0004327587314551049, 1.2123324863652738, -0.3286375142725579, -1.2716064189304166, 3.5410293604523426, 0.0017301844849779353, -0.20970949714953205, -0.1415640702892163, 0.09789361311783945, 0.5941628973961037, 0.004211559267702297, 0.866870777803458, -0.8715649843529415, 0.016205384259462968, -0.05566555491207109, 1.5449132118884747], [-0.01001263434411247, -0.027351770318123712, 0.11141424993224629, -0.6965283649929604, -1.4359787388334893, -0.00022267508939705118, -0.014308436233323028, 0.13663434823381385, -0.028847021877349027, 0.3598338907084689, -0.2042663869532669, 0.5129915804165137, -0.04161874289162919, 1.2653423294643453, 0.24683397322711922, -0.004816438566652546, -0.011233916736285009, -0.9803194857429575, 0.2344400392780384, 0.22764091796053468, -0.5517119126552797, -0.0012854053015210706, 0.2610422266522757, 0.4375963916658004, -0.2650664952883997, -0.41570000367498694, -0.07082633437632602, 0.9080936925237013, 0.0141686343338524, -0.09787218839470219, 0.4825609221129182, -0.3538774279996154, 0.7056750081696262, 0.9284250675795481, 0.2589092745633753, 0.05002965192917243, 0.23174894344562863, 0.00634266806349468, -0.1862073258215928, 0.32372187929687996, 0.010029046577190226, -2.5496440534527376, 0.5748537103467979, -0.01646935046497417, 0.9654130212098682, -0.014397154179050797, 0.050792488874707, 0.26038285781534504, 0.006147062840642022, 0.5525594752016708, 0.18020662232999796, -0.3635817851068582, -0.5815479527894698, -0.7496779092283085, -0.0050204966552069895, 1.134600978544816, 0.45539818440729174, -0.40554573001063904, -0.01129170498171036, -0.0029609692168395562, 0.20601602933660873, -0.33351401324600294, 0.10603074458565838, -0.007598551093981489, 0.0035957967023660044, -0.12855392892040687, 0.16488982304251967, 0.013384243576706638, 0.3476991658416827, 0.10373764001098615, 0.08720406306881741, -0.24739598309852728, -0.004759607890520113, 0.06179654953520884, -0.8077282095404692, 0.20889232855421935, 0.12086438998974727, -0.007454545623011098, -0.09565839814046893, 0.7267235032238073, -0.2899273996041301, -0.00903166382777965, 0.579924337532051, -1.1087025101719463, -0.00998494540951312, 1.1585396585234868, -0.21223112714486228, 0.36302571001151895, -1.909490000923915e-05, 0.2981144865146101, 0.1311152339453256, -0.9820307115067313, -0.012711707690632445, -1.1413247166520177, -0.5946421709801165, -0.42503196779194236, 0.20271095560002295, -0.01490843683984254, 0.5922541290255299, 0.043591706094229986, -0.4873834585456399, 0.1296332083808609, 0.0002580530463682557, -0.36740521675734655, 0.015844592247038672, -0.008502370781718678, -0.6323663915088241, 0.010418426023521552], [-0.0024824461563992834, -0.11332174375428831, -1.2853308127946586, 1.3730219766322487, -0.3241034808930773, -0.005704801607786606, -0.37005379660031, -1.7876995194719214, -0.48099714658145243, -1.0320154404209982, -1.218827314706306, -2.2343974897411347, 0.43818061946218445, -0.9387051214790623, -0.5606142892660326, -0.0222147552113866, -0.008513090999414602, 2.5781700952621693, -2.2200995017453704, -1.9229896661678854, 1.0933746830088789, -0.015290639776320872, -0.46185703638065023, 2.8028074104267673, -0.2606596207284179, -0.5123222552803985, -1.90489382181409, -2.1594329416177427, 0.07833270573483225, -1.318351184809144, 3.7579597459919007, -0.18985929269398397, -1.6065885012778662, -0.5821061620433163, -0.9816391355490365, -0.592010053348003, -0.5490938304798493, -0.0157909710762782, -2.3445475215202167, -0.443160820276402, 0.0033937713961218682, 0.9525481781205885, 0.8198674684277943, 1.3366553833485126, -0.5251208406738764, 0.0039883765288386604, -0.13601365892623551, -1.0159078986210732, 0.8384639142772528, 0.5842253308902788, -0.09611299933552672, -0.06892763066132954, 0.20702563840734803, 0.1257426650757381, -0.005571586297194162, -1.2917890727139354, -1.0235949422774664, -0.7759578952398224, -0.02002876192379851, -0.004793345857889635, -0.5014173975860038, -0.9050921763468485, 0.10695549470161965, -0.006576292551063988, -0.0015066870460848608, -0.5078409357555803, -0.6177901573355824, -0.008071596561610817, -0.9500675848286829, -0.5130973181302422, -2.100875319172144, -1.2388065779796291, -0.014734475340357503, -0.537920551011758, 0.39567762046241856, -0.48013788843859295, -0.8504459516375742, -1.7334014064154781, -0.1006204487356572, -0.7583187237853906, -0.28040621354166473, -0.4515036763579302, -1.9366294636012347, -0.053482696492647724, 0.02936213511519887, -1.7997367676047926, -0.769871855523174, -1.6486481477234596, -0.08223111407598956, -0.867828017425232, -0.4426137168381459, -0.5340488801431373, -0.17315185523747437, 1.2853225923410296, -0.3078848598792647, -0.34688545495186274, 0.17261059164254847, 0.001976510559712939, -1.0318103960681206, -0.4846193046920336, -0.7867540983399666, -0.9037865573304232, -0.0034117886522201653, 3.120631911363231, -0.7483709040255248, -0.0009578219520353262, 0.09864705549334889, -0.8913309230817794], [-0.005640632185215522, -0.28508802247372506, -1.4211523013440261, -0.5643202203627483, -0.9289783211724709, -0.004091398512511633, 0.23212167564904346, -1.0223820764599507, 0.2848835557281386, 1.9963250946467912, 1.0566968442414284, -1.0801914594293522, 0.5641278944595591, 1.3057213784138475, 0.424561836189537, 0.0020931922387755738, -0.015976104935756567, 1.0399765159161765, -2.899419899097318, -0.3959956358749163, 1.9776651262308138, -0.010204995715711693, 0.3279575109410967, 2.1121109045203217, -0.5998876998504161, 0.771665808086337, -0.4092413863817283, -0.5248486430634394, 0.09891768054773672, 2.1260784209584944, -0.7017351048758538, -0.38208892609079476, -0.2759147256664027, -0.9140420513107205, 2.1640240304439646, 0.3409330459537583, 0.3023241655282113, -0.0078001301119737, 3.8354416824423083, -0.5471171482696325, 0.0019359449001646685, 0.8630676992302065, 0.7388239865655152, -1.0099238086235829, 1.516268353357444, -0.015252946213694085, 